{"learner":{"attributes":{"best_iteration":"99","best_ntree_limit":"100","scikit_learn":"{\"use_label_encoder\": false, \"n_estimators\": 100, \"objective\": \"binary:logistic\", \"max_depth\": null, \"max_leaves\": null, \"max_bin\": null, \"grow_policy\": null, \"learning_rate\": null, \"verbosity\": null, \"booster\": null, \"tree_method\": null, \"gamma\": null, \"min_child_weight\": null, \"max_delta_step\": null, \"subsample\": null, \"sampling_method\": null, \"colsample_bytree\": null, \"colsample_bylevel\": null, \"colsample_bynode\": null, \"reg_alpha\": null, \"reg_lambda\": null, \"scale_pos_weight\": null, \"base_score\": null, \"missing\": NaN, \"num_parallel_tree\": null, \"random_state\": null, \"n_jobs\": null, \"monotone_constraints\": null, \"interaction_constraints\": null, \"importance_type\": null, \"gpu_id\": null, \"validate_parameters\": null, \"predictor\": null, \"enable_categorical\": false, \"max_cat_to_onehot\": null, \"eval_metric\": null, \"early_stopping_rounds\": null, \"callbacks\": null, \"classes_\": [0.0, 1.0], \"n_classes_\": 2, \"_estimator_type\": \"classifier\"}"},"feature_names":["DEP_DELAY","DISTANCE"],"feature_types":["float","float"],"gradient_booster":{"model":{"gbtree_model_param":{"num_parallel_tree":"1","num_trees":"100","size_leaf_vector":"0"},"tree_info":[0,0,0,0,0,0,0,0,0,0,0,0,0,0,0,0,0,0,0,0,0,0,0,0,0,0,0,0,0,0,0,0,0,0,0,0,0,0,0,0,0,0,0,0,0,0,0,0,0,0,0,0,0,0,0,0,0,0,0,0,0,0,0,0,0,0,0,0,0,0,0,0,0,0,0,0,0,0,0,0,0,0,0,0,0,0,0,0,0,0,0,0,0,0,0,0,0,0,0,0],"trees":[{"base_weights":[-1.3456374E0,-1.7599441E0,1.5118065E0,-1.8378586E0,-9.390562E-1,4.9632952E-1,1.8597546E0,-1.8697857E0,-1.6452652E0,-1.1751549E0,-4.3428415E-1,9.845143E-1,1.21081084E-1,1.4941806E0,1.96387E0,-1.8877444E0,-1.8073503E0,-1.6978806E0,-1.5616479E0,-1.2900901E0,-9.7156984E-1,5.8956917E-2,-6.461178E-1,6.896552E-1,1.3748634E0,-2.4125737E-1,4.2738453E-1,1.6547385E0,8.495298E-1,1.798305E0,1.983113E0,-1.8935082E0,-1.7327838E0,-1.8130816E0,-1.5061729E0,-1.7058566E0,-1.4081633E0,-1.611003E0,-1.502924E0,-1.1480731E0,-1.3359011E0,-6.4702415E-1,-1.1093199E0,-2.706131E-1,3.0562153E-1,-5.226163E-1,-8.2936317E-1,8.669202E-1,3.6194897E-1,1.5152463E0,1.0414414E0,-7.6744184E-2,-5.814234E-1,5.767442E-1,5.3302433E-2,1.8191799E0,1.3958856E0,1.1495017E0,7.5383043E-1,1.8990211E0,1.3191489E0,1.9928924E0,1.885835E0,-1.9062302E0,-1.8647823E0,-1.7563643E0,-1.480916E0,-1.8376384E0,-1.7930187E0,-1.5801105E0,-1.1578947E0,-1.736664E0,-1.6655533E0,-1.4592445E0,-1.0561798E0,-1.6226848E0,-1.2405063E0,-1.5078636E0,-8.5714287E-1,-1.3266761E0,-1.0746607E0,-1.3497752E0,-7.8350514E-1,8.510638E-2,-6.88239E-1,-9.7636175E-1,-1.1509497E0,-1.426492E-1,-6.0076046E-1,9.166667E-2,4.3456164E-1,-6.7636365E-1,-3.9717978E-1,-9.441469E-1,-6.259947E-1,7.378641E-1,1.1014493E0,2.0454545E-1,6.035503E-1,1.2777778E0,1.5778894E0,8E-1,1.2100314E0,-4.883227E-1,7.821229E-2,-6.40884E-1,-1.6513762E-1,3.816794E-1,8.102564E-1,-1.0443864E-2,5.346535E-1,1.6797088E0,1.8921078E0,1.2299465E0,1.6022857E0,9.959514E-1,1.7241379E0,4.4541484E-1,8.435013E-1,1.4693878E0,9.4736844E-1,1.3972603E0,1.9451401E0],"categories":[],"categories_nodes":[],"categories_segments":[],"categories_sizes":[],"default_left":[1,1,1,1,1,1,1,1,1,1,1,1,1,1,1,1,1,1,1,1,1,1,1,1,1,1,1,1,1,1,1,1,1,1,1,1,1,1,1,1,1,1,1,1,1,1,1,1,1,1,1,1,1,1,1,1,1,1,1,0,1,0,1,0,0,0,0,0,0,0,0,0,0,0,0,0,0,0,0,0,0,0,0,0,0,0,0,0,0,0,0,0,0,0,0,0,0,0,0,0,0,0,0,0,0,0,0,0,0,0,0,0,0,0,0,0,0,0,0,0,0,0,0],"id":0,"left_children":[1,3,5,7,9,11,13,15,17,19,21,23,25,27,29,31,33,35,37,39,41,43,45,47,49,51,53,55,57,59,61,63,65,67,69,71,73,75,77,79,81,83,85,87,89,91,93,95,97,99,101,103,105,107,109,111,113,115,117,-1,119,-1,121,-1,-1,-1,-1,-1,-1,-1,-1,-1,-1,-1,-1,-1,-1,-1,-1,-1,-1,-1,-1,-1,-1,-1,-1,-1,-1,-1,-1,-1,-1,-1,-1,-1,-1,-1,-1,-1,-1,-1,-1,-1,-1,-1,-1,-1,-1,-1,-1,-1,-1,-1,-1,-1,-1,-1,-1,-1,-1,-1,-1],"loss_changes":[8.977225E4,4.234047E3,3.3920488E3,3.6882812E2,6.8391797E2,4.4906415E2,2.692754E2,5.475E1,3.5226562E1,9.028955E1,1.9142856E2,1.2168872E2,1.5409549E2,1.6311377E2,1.4158203E1,3.26875E1,1.73125E1,9.782227E0,7.251953E0,1.4714844E1,6.2575073E1,4.4895615E1,2.8568298E1,3.5063538E1,1.983606E1,3.5561073E1,4.1999557E1,5.1583496E1,8.291046E0,2.596753E1,9.7265625E-1,1.0625E1,6.044922E0,2.3164062E0,3.9064026E0,3.4726562E0,1.1017761E0,5.7753906E0,3.6169434E0,6.654358E0,1.336792E1,1.2860138E1,4.369751E0,9.9057045E0,8.670876E0,1.454747E1,1.14133E1,1.1127747E1,8.071772E0,2.7402954E0,4.6797485E0,2.7462198E1,5.0241394E0,2.4173874E1,6.6257315E0,4.6967773E0,1.5094238E1,4.9225693E0,6.3930817E0,0E0,4.5147095E0,0E0,1.0987183E1,0E0,0E0,0E0,0E0,0E0,0E0,0E0,0E0,0E0,0E0,0E0,0E0,0E0,0E0,0E0,0E0,0E0,0E0,0E0,0E0,0E0,0E0,0E0,0E0,0E0,0E0,0E0,0E0,0E0,0E0,0E0,0E0,0E0,0E0,0E0,0E0,0E0,0E0,0E0,0E0,0E0,0E0,0E0,0E0,0E0,0E0,0E0,0E0,0E0,0E0,0E0,0E0,0E0,0E0,0E0,0E0,0E0,0E0,0E0,0E0],"parents":[2147483647,0,0,1,1,2,2,3,3,4,4,5,5,6,6,7,7,8,8,9,9,10,10,11,11,12,12,13,13,14,14,15,15,16,16,17,17,18,18,19,19,20,20,21,21,22,22,23,23,24,24,25,25,26,26,27,27,28,28,29,29,30,30,31,31,32,32,33,33,34,34,35,35,36,36,37,37,38,38,39,39,40,40,41,41,42,42,43,43,44,44,45,45,46,46,47,47,48,48,49,49,50,50,51,51,52,52,53,53,54,54,55,55,56,56,57,57,58,58,60,60,62,62],"right_children":[2,4,6,8,10,12,14,16,18,20,22,24,26,28,30,32,34,36,38,40,42,44,46,48,50,52,54,56,58,60,62,64,66,68,70,72,74,76,78,80,82,84,86,88,90,92,94,96,98,100,102,104,106,108,110,112,114,116,118,-1,120,-1,122,-1,-1,-1,-1,-1,-1,-1,-1,-1,-1,-1,-1,-1,-1,-1,-1,-1,-1,-1,-1,-1,-1,-1,-1,-1,-1,-1,-1,-1,-1,-1,-1,-1,-1,-1,-1,-1,-1,-1,-1,-1,-1,-1,-1,-1,-1,-1,-1,-1,-1,-1,-1,-1,-1,-1,-1,-1,-1,-1,-1],"split_conditions":[2.15E1,9.5E0,3.15E1,1.5E0,1.65E1,6.56E2,4.15E1,-1.5E0,5.5E0,1.35E1,4.835E2,2.65E1,2.55E1,1.2475E3,4.65E1,2.3365E3,2.555E3,2.4805E3,7.5E0,4.24E2,4.9E2,1.85E1,1.1205E3,4.515E2,4.885E2,1.3905E3,1.4955E3,7.255E2,1.51E3,1.2725E3,1.8455E3,8.985E2,2.743E3,-5E-1,2.743E3,3.5E0,2.743E3,2.4555E3,2.6585E3,1.05E1,2.5765E3,1.235E2,7.39E2,3.735E2,1.95E1,1.85E1,1.95E1,2.45E1,2.45E1,2.75E1,2.85E1,2.25E1,2.555E3,2.85E1,2.5725E3,3.45E1,3.65E1,3.95E1,3.35E1,5.697064E-1,2.0125E3,5.978677E-1,5.25E1,-5.718691E-1,-5.594347E-1,-5.2690935E-1,-4.442748E-1,-5.512915E-1,-5.3790563E-1,-4.7403318E-1,-3.4736842E-1,-5.2099925E-1,-4.99666E-1,-4.3777338E-1,-3.1685394E-1,-4.8680547E-1,-3.721519E-1,-4.523591E-1,-2.5714287E-1,-3.9800286E-1,-3.2239822E-1,-4.049326E-1,-2.3505156E-1,2.5531916E-2,-2.064717E-1,-2.9290855E-1,-3.4528494E-1,-4.2794764E-2,-1.8022814E-1,2.7500002E-2,1.303685E-1,-2.029091E-1,-1.1915394E-1,-2.8324407E-1,-1.8779841E-1,2.2135924E-1,3.304348E-1,6.1363637E-2,1.810651E-1,3.8333336E-1,4.7336686E-1,2.4000001E-1,3.6300942E-1,-1.4649682E-1,2.3463689E-2,-1.922652E-1,-4.9541287E-2,1.1450382E-1,2.4307694E-1,-3.1331594E-3,1.6039605E-1,5.039127E-1,5.676324E-1,3.6898395E-1,4.8068574E-1,2.9878545E-1,5.172414E-1,1.3362446E-1,2.5305042E-1,4.4081634E-1,2.8421053E-1,4.191781E-1,5.8354205E-1],"split_indices":[0,0,0,0,0,1,0,0,0,0,1,0,0,1,0,1,1,1,0,1,1,0,1,1,1,1,1,1,1,1,1,1,1,0,1,0,1,1,1,0,1,1,1,1,0,0,0,0,0,0,0,0,1,0,1,0,0,0,0,0,1,0,0,0,0,0,0,0,0,0,0,0,0,0,0,0,0,0,0,0,0,0,0,0,0,0,0,0,0,0,0,0,0,0,0,0,0,0,0,0,0,0,0,0,0,0,0,0,0,0,0,0,0,0,0,0,0,0,0,0,0,0,0],"split_type":[0,0,0,0,0,0,0,0,0,0,0,0,0,0,0,0,0,0,0,0,0,0,0,0,0,0,0,0,0,0,0,0,0,0,0,0,0,0,0,0,0,0,0,0,0,0,0,0,0,0,0,0,0,0,0,0,0,0,0,0,0,0,0,0,0,0,0,0,0,0,0,0,0,0,0,0,0,0,0,0,0,0,0,0,0,0,0,0,0,0,0,0,0,0,0,0,0,0,0,0,0,0,0,0,0,0,0,0,0,0,0,0,0,0,0,0,0,0,0,0,0,0,0],"sum_hessian":[7.5827E4,6.622525E4,9.60175E3,6.048325E4,5.742E3,2.451E3,7.15075E3,5.1875E4,8.60825E3,3.91125E3,1.83075E3,1.0645E3,1.3865E3,1.5885E3,5.56225E3,4.026425E4,1.161075E4,5.27175E3,3.3365E3,2.4965E3,1.41475E3,5.5025E2,1.2805E3,6.08E2,4.565E2,6.3525E2,7.5125E2,1.2705E3,3.18E2,5.89E2,4.97325E3,3.88095E4,1.45475E3,1.1389E4,2.2175E2,5.12575E3,1.46E2,1.7985E3,1.538E3,6.1525E2,1.88125E3,4.2325E2,9.915E2,2.355E2,3.1475E2,7.6725E2,5.1325E2,3.935E2,2.145E2,3.1875E2,1.3775E2,4.29E2,2.0625E2,5.365E2,2.1475E2,7.7325E2,4.9725E2,7.425E1,2.4375E2,4.8425E2,1.0475E2,4.50125E3,4.72E2,2.6852E4,1.19575E4,1.32475E3,1.3E2,5.08025E3,6.30875E3,1.8E2,4.175E1,2.88125E3,2.2445E3,1.2475E2,2.125E1,1.74025E3,5.825E1,1.525E3,1.3E1,1.7425E2,4.41E2,1.83375E3,4.75E1,2.25E1,4.0075E2,2.4225E2,7.4925E2,1.7075E2,6.475E1,1.19E2,1.9575E2,3.4275E2,4.245E2,3.2575E2,1.875E2,2.565E2,1.37E2,1.31E2,8.35E1,7.1E1,2.4775E2,5.9E1,7.875E1,1.1675E2,3.1225E2,1.8E2,2.625E1,2.9375E2,2.4275E2,1.905E2,2.425E1,2.7375E2,4.995E2,2.795E2,2.1775E2,6.075E1,1.35E1,5.625E1,1.875E2,7.25E1,3.225E1,5.375E1,4.1825E2],"tree_param":{"num_deleted":"0","num_feature":"2","num_nodes":"123","size_leaf_vector":"0"}},{"base_weights":[-1.0201368E0,-1.336015E0,1.1384257E0,-1.4018396E0,-6.7696226E-1,3.942871E-1,1.4399947E0,-1.4340581E0,-1.2546458E0,-8.8778925E-1,-3.5814115E-1,7.5082034E-1,1.24795906E-1,1.1438274E0,1.5162863E0,-1.4395726E0,-1.2923638E0,-1.3084376E0,-1.1788998E0,-9.712587E-1,-7.8192854E-1,-1.713071E-2,-5.072867E-1,4.913082E-1,1.0488997E0,-8.5683234E-2,4.58391E-1,1.278732E0,6.2149394E-1,1.3701673E0,1.5335399E0,-1.4623839E0,-1.4092128E0,-1.3135915E0,-1.0667008E0,-1.3160206E0,-1.0360105E0,-1.0086019E0,-1.1940544E0,-9.7976625E-1,-5.1745266E-1,-5.626184E-1,-8.556898E-1,-2.166056E-1,2.151304E-1,-6.2622327E-1,-3.6746606E-1,6.2053996E-1,2.5564563E-1,1.1765786E0,8.256724E-1,2.4105627E-2,-3.092809E-1,6.2598985E-1,2.5218412E-1,1.4118152E0,1.0772705E0,-4.9985188E-1,6.3745695E-1,1.4536163E0,9.5397353E-1,1.54474E0,1.4625865E0,-1.4737598E0,-1.4344126E0,-1.4187127E0,-1.3713305E0,-1.1828927E0,-1.3347033E0,-8.041285E-1,-1.3382035E0,-6.942891E-1,-1.31707E0,-8.191087E-1,-1.0973735E0,-8.451273E-1,-1.0518888E0,-1.2274252E0,-1.1309402E0,-8.9499074E-1,-1.0257066E0,-4.7837622E-2,-6.9987977E-1,1.006163E-1,-5.966281E-1,-8.5891116E-1,3.461553E-1,-1.7250438E-1,-4.606622E-1,3.9940047E-1,1.3005039E-1,-5.202829E-1,-8.0456567E-1,-2.8577504E-1,-5.3365713E-1,5.246101E-1,7.9758817E-1,1.4380006E-1,4.2856738E-1,9.456128E-1,1.2270974E0,7.148436E-1,1.0599992E0,-3.4515902E-1,1.112367E-1,-4.1199547E-1,-8.5280575E-2,4.1069725E-1,6.938242E-1,2.1989943E-1,8.270809E-1,1.4770241E0,1.3001908E0,9.5543176E-1,1.1991855E0,8.540413E-2,-9.9102503E-1,8.446411E-1,5.32023E-1,1.5249689E0,1.3520994E0,1.0316113E0,5.440399E-1,1.2388369E0,1.53941E0],"categories":[],"categories_nodes":[],"categories_segments":[],"categories_sizes":[],"default_left":[1,1,1,1,1,1,1,1,1,1,1,1,1,1,1,1,1,1,1,1,1,1,1,1,1,1,1,1,1,1,1,1,1,1,1,1,1,1,1,1,1,1,1,1,1,1,1,1,1,1,1,1,1,1,1,1,1,1,1,1,1,0,1,0,0,0,0,0,0,0,0,0,0,0,0,0,0,0,0,0,0,0,0,0,0,0,0,0,0,0,0,0,0,0,0,0,0,0,0,0,0,0,0,0,0,0,0,0,0,0,0,0,0,0,0,0,0,0,0,0,0,0,0,0,0],"id":1,"left_children":[1,3,5,7,9,11,13,15,17,19,21,23,25,27,29,31,33,35,37,39,41,43,45,47,49,51,53,55,57,59,61,63,65,67,69,71,73,75,77,79,81,83,85,87,89,91,93,95,97,99,101,103,105,107,109,111,113,115,117,119,121,-1,123,-1,-1,-1,-1,-1,-1,-1,-1,-1,-1,-1,-1,-1,-1,-1,-1,-1,-1,-1,-1,-1,-1,-1,-1,-1,-1,-1,-1,-1,-1,-1,-1,-1,-1,-1,-1,-1,-1,-1,-1,-1,-1,-1,-1,-1,-1,-1,-1,-1,-1,-1,-1,-1,-1,-1,-1,-1,-1,-1,-1,-1,-1],"loss_changes":[4.8232453E4,2.676E3,2.0259502E3,2.6426562E2,3.7645435E2,2.5026376E2,1.4345605E2,3.409375E1,3.9541016E1,2.9049072E1,1.1355737E2,8.623712E1,1.0432007E2,9.2239136E1,1.07734375E1,2.8609375E1,6.9040527E0,1.0796875E1,9.627441E0,6.7592773E0,2.366034E1,3.157285E1,2.5603241E1,1.8157257E1,1.3879822E1,2.2382519E1,1.9703987E1,2.6586182E1,5.204399E0,1.7669678E1,1.3632812E0,5.921875E0,4.9023438E0,2.7817383E0,9.93013E0,2.819336E0,1.285492E0,1.5835571E0,6.7177734E0,6.272827E0,3.115243E0,8.598305E0,4.6135254E0,3.8659954E0,4.8849354E0,1.54140625E1,9.574257E0,6.1665497E0,4.090707E0,2.6799316E0,4.253174E0,1.973663E1,6.8725777E0,4.3351974E0,4.631731E0,2.6513672E0,5.1115417E0,1.3470323E0,5.4388504E0,1.2348633E0,2.4479218E0,0E0,9.099487E0,0E0,0E0,0E0,0E0,0E0,0E0,0E0,0E0,0E0,0E0,0E0,0E0,0E0,0E0,0E0,0E0,0E0,0E0,0E0,0E0,0E0,0E0,0E0,0E0,0E0,0E0,0E0,0E0,0E0,0E0,0E0,0E0,0E0,0E0,0E0,0E0,0E0,0E0,0E0,0E0,0E0,0E0,0E0,0E0,0E0,0E0,0E0,0E0,0E0,0E0,0E0,0E0,0E0,0E0,0E0,0E0,0E0,0E0,0E0,0E0,0E0,0E0],"parents":[2147483647,0,0,1,1,2,2,3,3,4,4,5,5,6,6,7,7,8,8,9,9,10,10,11,11,12,12,13,13,14,14,15,15,16,16,17,17,18,18,19,19,20,20,21,21,22,22,23,23,24,24,25,25,26,26,27,27,28,28,29,29,30,30,31,31,32,32,33,33,34,34,35,35,36,36,37,37,38,38,39,39,40,40,41,41,42,42,43,43,44,44,45,45,46,46,47,47,48,48,49,49,50,50,51,51,52,52,53,53,54,54,55,55,56,56,57,57,58,58,59,59,60,60,62,62],"right_children":[2,4,6,8,10,12,14,16,18,20,22,24,26,28,30,32,34,36,38,40,42,44,46,48,50,52,54,56,58,60,62,64,66,68,70,72,74,76,78,80,82,84,86,88,90,92,94,96,98,100,102,104,106,108,110,112,114,116,118,120,122,-1,124,-1,-1,-1,-1,-1,-1,-1,-1,-1,-1,-1,-1,-1,-1,-1,-1,-1,-1,-1,-1,-1,-1,-1,-1,-1,-1,-1,-1,-1,-1,-1,-1,-1,-1,-1,-1,-1,-1,-1,-1,-1,-1,-1,-1,-1,-1,-1,-1,-1,-1,-1,-1,-1,-1,-1,-1,-1,-1,-1,-1,-1,-1],"split_conditions":[2.15E1,9.5E0,3.25E1,5E-1,1.55E1,6.56E2,4.15E1,2.3365E3,4.5E0,1.25E1,4.835E2,2.65E1,2.75E1,1.2475E3,4.65E1,-3.5E0,2.743E3,2.4805E3,2.365E2,2.5845E3,4.225E2,1.85E1,1.85E1,4.515E2,4.485E2,1.3905E3,1.1445E3,7.255E2,1.256E3,1.367E3,1.556E3,9.115E2,-5E-1,2.399E3,2.9865E3,6.75E1,2.5635E3,1.32E2,7.5E0,5.845E2,2.605E3,1.07E2,3.1405E3,4.15E2,2.385E2,1.146E3,1.2395E3,2.45E1,2.45E1,2.75E1,3.05E1,2.25E1,2.55E1,2.85E1,2.5995E3,4.615E2,3.65E1,1.2495E3,1.602E3,6.775E2,2.4515E3,4.63422E-1,6.15E1,-4.4212794E-1,-4.303238E-1,-4.2561385E-1,-4.1139916E-1,-3.5486782E-1,-4.00411E-1,-2.4123856E-1,-4.014611E-1,-2.0828673E-1,-3.95121E-1,-2.4573262E-1,-3.2921207E-1,-2.535382E-1,-3.1556666E-1,-3.6822757E-1,-3.3928207E-1,-2.6849723E-1,-3.0771202E-1,-1.4351287E-2,-2.0996393E-1,3.0184891E-2,-1.7898844E-1,-2.5767335E-1,1.0384659E-1,-5.1751316E-2,-1.3819866E-1,1.1982015E-1,3.9015118E-2,-1.5608488E-1,-2.4136971E-1,-8.573251E-2,-1.6009715E-1,1.5738304E-1,2.3927645E-1,4.314002E-2,1.2857021E-1,2.8368384E-1,3.6812922E-1,2.1445309E-1,3.1799978E-1,-1.03547715E-1,3.3371013E-2,-1.2359864E-1,-2.5584174E-2,1.2320918E-1,2.0814726E-1,6.596983E-2,2.4812429E-1,4.4310725E-1,3.9005727E-1,2.8662953E-1,3.5975567E-1,2.562124E-2,-2.9730752E-1,2.5339234E-1,1.596069E-1,4.5749068E-1,4.0562984E-1,3.094834E-1,1.6321197E-1,3.7165108E-1,4.6182302E-1],"split_indices":[0,0,0,0,0,1,0,1,0,0,1,0,0,1,0,0,1,1,1,1,1,0,0,1,1,1,1,1,1,1,1,1,0,1,1,1,1,1,0,1,1,1,1,1,1,1,1,0,0,0,0,0,0,0,1,1,0,1,1,1,1,0,0,0,0,0,0,0,0,0,0,0,0,0,0,0,0,0,0,0,0,0,0,0,0,0,0,0,0,0,0,0,0,0,0,0,0,0,0,0,0,0,0,0,0,0,0,0,0,0,0,0,0,0,0,0,0,0,0,0,0,0,0,0,0],"split_type":[0,0,0,0,0,0,0,0,0,0,0,0,0,0,0,0,0,0,0,0,0,0,0,0,0,0,0,0,0,0,0,0,0,0,0,0,0,0,0,0,0,0,0,0,0,0,0,0,0,0,0,0,0,0,0,0,0,0,0,0,0,0,0,0,0,0,0,0,0,0,0,0,0,0,0,0,0,0,0,0,0,0,0,0,0,0,0,0,0,0,0,0,0,0,0,0,0,0,0,0,0,0,0,0,0,0,0,0,0,0,0,0,0,0,0,0,0,0,0,0,0,0,0,0,0],"sum_hessian":[7.073514E4,6.1705676E4,9.029461E3,5.610129E4,5.6043877E3,2.6046494E3,6.4248115E3,4.6019574E4,1.0081716E4,3.3724812E3,2.2319065E3,1.1204813E3,1.484168E3,1.3192826E3,5.105529E3,4.428683E4,1.7327444E3,5.885675E3,4.196041E3,1.8810942E3,1.4913871E3,6.7946783E2,1.5524387E3,6.004068E2,5.200746E2,9.1046234E2,5.737057E2,1.0473363E3,2.7194635E2,5.476854E2,4.5578433E3,2.5260076E4,1.9026752E4,1.5793558E3,1.5338853E2,5.7225576E3,1.6311708E2,3.484079E2,3.8476333E3,1.8453403E3,3.575388E1,3.7752905E2,1.113858E3,3.6556973E2,3.138981E2,8.369878E2,7.154509E2,3.8671072E2,2.1369609E2,3.28126E2,1.9194855E2,6.112327E2,2.992296E2,3.1535712E2,2.5834857E2,6.270836E2,4.2025266E2,3.391518E0,2.6855484E2,4.541362E2,9.354925E1,3.918529E3,6.3931445E2,1.7920242E4,7.3398335E3,1.5182825E4,3.8439277E3,2.2756693E2,1.351789E3,7.999069E1,7.339784E1,1.0759074E1,5.711799E3,3.9134724E1,1.2398235E2,7.723846E1,2.7116943E2,2.5048052E3,1.3428281E3,6.557475E2,1.1895929E3,1.0356296E1,2.5397583E1,1.8319334E1,3.5920972E2,1.111165E3,2.6929421E0,3.1106656E2,5.450316E1,9.79845E1,2.159136E2,5.2753485E2,3.0945297E2,4.8149316E2,2.339578E2,2.5338336E2,1.3332736E2,1.3087675E2,8.281934E1,6.2428406E1,2.656976E2,1.330642E2,5.8884354E1,1.1612583E2,4.9510687E2,2.0458064E2,9.464899E1,7.724653E1,2.3811058E2,2.4592079E2,1.2427762E1,3.881194E2,2.3896423E2,2.1461194E2,2.0564073E2,1.9245036E0,1.4670147E0,8.820858E1,1.8034625E2,2.584552E2,1.9568098E2,7.737801E1,1.6171236E1,1.6777945E2,4.71535E2],"tree_param":{"num_deleted":"0","num_feature":"2","num_nodes":"125","size_leaf_vector":"0"}},{"base_weights":[-8.439538E-1,-1.1149445E0,8.881327E-1,-1.175921E0,-5.304301E-1,2.7361605E-1,1.2362739E0,-1.2073222E0,-9.9638927E-1,-6.725409E-1,-2.8974125E-1,5.655907E-1,8.463199E-2,9.404569E-1,1.3069805E0,-1.2256237E0,-1.1449828E0,-1.0423157E0,-9.2568743E-1,-7.2435623E-1,-5.4610026E-1,-1.162521E-1,-4.3498355E-1,3.535208E-1,8.5283124E-1,-1.2795843E-1,3.4246776E-1,1.209175E0,7.088726E-1,1.1976008E0,1.3376783E0,-1.2312999E0,-1.0795829E0,-1.1507043E0,-8.623353E-1,-1.0493078E0,-8.05025E-1,-9.346296E-1,-6.494883E-1,-5.991119E-1,-7.502159E-1,-3.6902764E-1,-6.2547237E-1,9.153603E-2,-1.7011139E-1,-5.6089634E-1,-3.4110436E-1,4.5261565E-1,1.9372475E-1,9.551122E-1,5.878242E-1,-2.8678042E-1,-3.4383755E-2,4.3943027E-1,-3.8280267E-2,1.2630605E0,1.1178582E0,8.3417463E-1,4.2795178E-1,1.2785667E0,8.3508843E-1,-1.2447593E0,-1.2012379E0,-1.0998182E0,-8.780741E-1,-8.8145417E-1,-1.1524205E0,-9.2758924E-1,-5.8123916E-1,-9.311549E-1,-1.0597982E0,-8.541492E-1,-4.9748692E-1,-7.713005E-1,-9.4977754E-1,-2.4004804E-1,-7.75671E-1,-6.659203E-1,-1.3809152E-1,-7.585116E-1,-4.1207093E-1,1.8632093E-1,-3.948726E-1,-6.424275E-1,-3.2779333E-1,3.0394696E-2,6.5786636E-1,-3.8495606E-1,-1.4313215E-1,-5.926788E-1,-1.8290009E-1,-1.0358691E0,-3.2953554E-1,3.7732965E-1,6.508914E-1,1.7491694E-1,1.0939611E0,8.521417E-1,1.1116157E0,2.503143E-1,7.380381E-1,-2.9573867E-1,7.5263774E-1,7.395167E-2,-1.7964996E-1,3.6381325E-1,6.625801E-1,-1.4002441E-1,2.4017596E-1,6.2794846E-1,1.2687112E0,8.485786E-1,1.1644104E0,6.9302326E-1,9.443604E-1,2.0479153E-1,5.659259E-1,1.32856E0,1.2077631E0,9.496153E-1,6.27186E-1],"categories":[],"categories_nodes":[],"categories_segments":[],"categories_sizes":[],"default_left":[1,1,1,1,1,1,1,1,1,1,1,1,1,1,1,1,1,1,1,1,1,1,1,1,1,1,1,1,1,1,0,1,1,1,1,1,1,1,1,1,1,1,1,1,1,1,1,1,1,1,1,1,1,1,1,1,1,1,1,1,1,0,0,0,0,0,0,0,0,0,0,0,0,0,0,0,0,0,0,0,0,0,0,0,0,0,0,0,0,0,0,0,0,0,0,0,0,0,0,0,0,0,0,0,0,0,0,0,0,0,0,0,0,0,0,0,0,0,0,0,0],"id":2,"left_children":[1,3,5,7,9,11,13,15,17,19,21,23,25,27,29,31,33,35,37,39,41,43,45,47,49,51,53,55,57,59,-1,61,63,65,67,69,71,73,75,77,79,81,83,85,87,89,91,93,95,97,99,101,103,105,107,109,111,113,115,117,119,-1,-1,-1,-1,-1,-1,-1,-1,-1,-1,-1,-1,-1,-1,-1,-1,-1,-1,-1,-1,-1,-1,-1,-1,-1,-1,-1,-1,-1,-1,-1,-1,-1,-1,-1,-1,-1,-1,-1,-1,-1,-1,-1,-1,-1,-1,-1,-1,-1,-1,-1,-1,-1,-1,-1,-1,-1,-1,-1,-1],"loss_changes":[2.8873922E4,1.8952109E3,1.7801602E3,2.7032812E2,1.7173657E2,1.660988E2,1.0988672E2,4.536328E1,2.2336426E1,2.0305664E1,4.7014862E1,7.175928E1,1.0030317E2,6.314044E1,1.2785156E1,2.4929688E1,1.4076172E1,6.3598633E0,6.394287E0,6.7995605E0,1.2735107E1,9.556305E0,1.1822113E1,1.0715591E1,1.3038025E1,1.4900011E1,3.0543152E1,9.234619E-1,1.9171112E1,2.6775024E1,0E0,1.08359375E1,3.899414E0,3.2041016E0,2.9251251E0,4.2373047E0,1.5176697E0,6.05542E0,4.5761375E0,1.1858704E1,4.880371E0,4.2068405E0,2.997223E0,6.0789595E0,3.8711987E0,5.088028E0,4.358795E0,6.029175E0,4.2597218E0,4.86084E0,7.030712E0,3.6846352E0,9.966148E0,1.0880745E1,4.8145585E0,2.4691772E-1,1.3288574E0,5.296051E0,5.2163105E0,1.1334229E0,3.5967178E0,0E0,0E0,0E0,0E0,0E0,0E0,0E0,0E0,0E0,0E0,0E0,0E0,0E0,0E0,0E0,0E0,0E0,0E0,0E0,0E0,0E0,0E0,0E0,0E0,0E0,0E0,0E0,0E0,0E0,0E0,0E0,0E0,0E0,0E0,0E0,0E0,0E0,0E0,0E0,0E0,0E0,0E0,0E0,0E0,0E0,0E0,0E0,0E0,0E0,0E0,0E0,0E0,0E0,0E0,0E0,0E0,0E0,0E0,0E0,0E0],"parents":[2147483647,0,0,1,1,2,2,3,3,4,4,5,5,6,6,7,7,8,8,9,9,10,10,11,11,12,12,13,13,14,14,15,15,16,16,17,17,18,18,19,19,20,20,21,21,22,22,23,23,24,24,25,25,26,26,27,27,28,28,29,29,31,31,32,32,33,33,34,34,35,35,36,36,37,37,38,38,39,39,40,40,41,41,42,42,43,43,44,44,45,45,46,46,47,47,48,48,49,49,50,50,51,51,52,52,53,53,54,54,55,55,56,56,57,57,58,58,59,59,60,60],"right_children":[2,4,6,8,10,12,14,16,18,20,22,24,26,28,30,32,34,36,38,40,42,44,46,48,50,52,54,56,58,60,-1,62,64,66,68,70,72,74,76,78,80,82,84,86,88,90,92,94,96,98,100,102,104,106,108,110,112,114,116,118,120,-1,-1,-1,-1,-1,-1,-1,-1,-1,-1,-1,-1,-1,-1,-1,-1,-1,-1,-1,-1,-1,-1,-1,-1,-1,-1,-1,-1,-1,-1,-1,-1,-1,-1,-1,-1,-1,-1,-1,-1,-1,-1,-1,-1,-1,-1,-1,-1,-1,-1,-1,-1,-1,-1,-1,-1,-1,-1,-1,-1],"split_conditions":[2.05E1,9.5E0,3.35E1,1.5E0,1.55E1,6.215E2,4.15E1,-1.5E0,5.5E0,1.35E1,6.81E2,2.65E1,2.65E1,7.34E2,5.25E1,2.3365E3,2.555E3,2.4805E3,2.4555E3,3.395E2,5.025E2,2.375E2,1.75E1,4.18E2,4.825E2,2.25E1,1.718E3,4.615E2,1.5325E3,1.3695E3,4.013035E-1,8.985E2,2.743E3,9.9E1,2.743E3,2.365E2,2.743E3,2.365E2,2.5115E3,3.275E2,2.5765E3,1.085E2,2.444E3,2.355E2,2.915E2,2.3425E3,6.955E2,2.45E1,6.155E2,3.05E1,2.85E1,2.7395E3,1.157E3,3.15E1,2.4705E3,6.75E1,3.45E1,3.65E1,1.8475E3,6.775E2,2.0165E3,-3.734278E-1,-3.6037138E-1,-3.2994547E-1,-2.6342225E-1,-2.6443627E-1,-3.4572616E-1,-2.7827677E-1,-1.7437175E-1,-2.793465E-1,-3.179395E-1,-2.5624478E-1,-1.4924608E-1,-2.3139016E-1,-2.8493327E-1,-7.2014414E-2,-2.3270132E-1,-1.997761E-1,-4.1427456E-2,-2.2755349E-1,-1.23621285E-1,5.5896282E-2,-1.1846179E-1,-1.9272827E-1,-9.8338E-2,9.118409E-3,1.9735992E-1,-1.1548682E-1,-4.2939648E-2,-1.7780364E-1,-5.4870028E-2,-3.1076074E-1,-9.8860666E-2,1.131989E-1,1.9526744E-1,5.2475084E-2,3.2818836E-1,2.556425E-1,3.334847E-1,7.509429E-2,2.2141145E-1,-8.87216E-2,2.2579134E-1,2.21855E-2,-5.3894993E-2,1.0914398E-1,1.9877402E-1,-4.2007323E-2,7.205279E-2,1.8838455E-1,3.806134E-1,2.5457358E-1,3.4932312E-1,2.0790699E-1,2.8330812E-1,6.143746E-2,1.6977778E-1,3.98568E-1,3.6232895E-1,2.848846E-1,1.8815582E-1],"split_indices":[0,0,0,0,0,1,0,0,0,0,1,0,0,1,0,1,1,1,1,1,1,1,0,1,1,0,1,1,1,1,0,1,1,1,1,1,1,1,1,1,1,1,1,1,1,1,1,0,1,0,0,1,1,0,1,1,0,0,1,1,1,0,0,0,0,0,0,0,0,0,0,0,0,0,0,0,0,0,0,0,0,0,0,0,0,0,0,0,0,0,0,0,0,0,0,0,0,0,0,0,0,0,0,0,0,0,0,0,0,0,0,0,0,0,0,0,0,0,0,0,0],"split_type":[0,0,0,0,0,0,0,0,0,0,0,0,0,0,0,0,0,0,0,0,0,0,0,0,0,0,0,0,0,0,0,0,0,0,0,0,0,0,0,0,0,0,0,0,0,0,0,0,0,0,0,0,0,0,0,0,0,0,0,0,0,0,0,0,0,0,0,0,0,0,0,0,0,0,0,0,0,0,0,0,0,0,0,0,0,0,0,0,0,0,0,0,0,0,0,0,0,0,0,0,0,0,0,0,0,0,0,0,0,0,0,0,0,0,0,0,0,0,0,0,0],"sum_hessian":[6.1512008E4,5.319053E4,8.321478E3,4.8164957E4,5.0255737E3,3.0100735E3,5.3114043E3,4.0989824E4,7.175133E3,3.1587473E3,1.8668264E3,1.1819712E3,1.8281024E3,1.0273899E3,4.284014E3,3.167274E4,9.317085E3,4.3413433E3,2.8337898E3,2.2372112E3,9.2153613E2,8.51512E2,1.0153144E3,6.812412E2,5.0073E2,1.0022403E3,8.258621E2,4.7361316E2,5.537768E2,9.4760516E2,3.336409E3,3.0480637E4,1.1921033E3,9.12922E3,1.878657E2,4.213759E3,1.2758418E2,2.7426113E3,9.117846E1,3.8700833E2,1.8502029E3,2.8697284E2,6.345633E2,1.7513702E2,6.76375E2,4.3154388E2,5.837705E2,4.1935367E2,2.6188754E2,3.5940967E2,1.4132034E2,3.708096E2,6.3143066E2,6.581113E2,1.6775081E2,2.8978275E2,1.8383043E2,3.8159888E2,1.7217792E2,7.725353E2,1.7506992E2,2.1026268E4,9.454369E3,1.0792666E3,1.1283673E2,6.1082928E1,9.068137E3,1.5060439E2,3.7261333E1,3.5094003E2,3.8628188E3,1.08479034E2,1.9105152E1,2.3718045E2,2.505431E3,2.2163687E1,6.901477E1,3.3763568E2,4.9372654E1,1.8046854E3,4.5517532E1,1.2485215E1,2.744876E2,5.992719E2,3.529138E1,1.5902254E2,1.611449E1,7.397984E1,6.0239514E2,3.9754944E2,3.399443E1,8.111227E0,5.756593E2,3.060489E2,1.1330476E2,2.5769797E2,4.1895466E0,2.2066753E2,1.3874214E2,4.4346428E1,9.6973915E1,3.6835043E2,2.4591565E0,3.6197266E2,2.6945804E2,4.935099E2,1.6460144E2,1.2322369E2,4.4527126E1,3.54437E0,2.8623837E2,2.993001E1,1.5390042E2,1.7048804E2,2.1111082E2,6.673101E1,1.054469E2,4.4239993E2,3.3013535E2,1.1058472E2,6.448519E1],"tree_param":{"num_deleted":"0","num_feature":"2","num_nodes":"121","size_leaf_vector":"0"}},{"base_weights":[-7.2044826E-1,-9.702089E-1,6.663364E-1,-1.0333625E0,-5.0225145E-1,1.6254012E-1,1.1142553E0,-1.0744942E0,-9.0472126E-1,-6.294518E-1,-3.594915E-1,-1.8396059E-2,3.944379E-1,8.647956E-1,1.208036E0,-1.0814724E0,-9.0385634E-1,-9.456376E-1,-8.1588346E-1,-6.736217E-1,-5.5486155E-1,-1.9656458E-1,-4.1951945E-1,2.2359034E-1,-1.2219313E-1,6.6021466E-1,2.0516537E-1,9.9450034E-1,4.468178E-1,1.218832E0,1.051183E0,-1.1031365E0,-1.0458353E0,-9.4824594E-1,-7.327241E-1,-9.5374346E-1,-6.614677E-1,-4.1419393E-1,-8.235449E-1,-4.8355937E-1,-6.9117975E-1,-4.4389254E-1,-6.3454914E-1,-3.4321406E-1,-1.16202965E-1,-4.6944278E-1,-3.043231E-1,2.263792E-2,2.6981205E-1,-6.143233E-2,-2.564235E-1,5.416963E-1,8.57543E-1,5.8056746E-2,3.0748585E-1,1.1207664E0,8.115208E-1,3.248276E-1,5.699509E-1,1.1663175E0,1.2285708E0,7.2437924E-1,1.2114992E0,-1.1188924E0,-1.0651709E0,-1.0601381E0,-1.0188763E0,-7.693076E-1,-9.82935E-1,-1.0113811E0,-5.748506E-1,-8.819111E-1,-9.6863025E-1,-4.3758124E-1,-7.283073E-1,-5.408478E-1,3.1182882E-1,-8.365096E-1,-5.923232E-1,-5.653054E-1,-3.8759032E-1,-7.0077217E-1,-4.5568898E-1,-5.3169835E-1,-3.9666325E-1,-6.4396876E-1,2.896577E-1,-3.7404606E-1,3.2333678E-1,-1.6995706E-1,5.714446E-2,-4.319448E-1,-5.337532E-1,-2.3594476E-1,-4.0953207E-1,2.3697568E-1,-7.621559E-2,1.7698292E-1,3.5602307E-1,-1.3240166E-1,5.1006775E-2,-2.889924E-1,2.1435939E-2,6.4927894E-1,3.9304245E-1,9.7034985E-1,6.860076E-1,1.3004239E-1,-1.2397245E-1,4.5899954E-1,1.8116526E-1,1.167303E0,1.0480205E0,2.1152039E-1,8.486102E-1,-8.269845E-1,3.4461325E-1,7.324462E-1,2.56747E-1,1.2072831E0,8.881815E-1,6.35051E-2,7.561486E-1],"categories":[],"categories_nodes":[],"categories_segments":[],"categories_sizes":[],"default_left":[1,1,1,1,1,1,1,1,1,1,1,1,1,1,1,1,1,1,1,1,1,1,1,1,1,1,1,1,1,1,1,1,1,1,1,1,1,1,1,1,1,1,1,1,1,1,1,1,1,1,1,1,1,1,1,1,1,1,1,1,0,1,0,0,0,0,0,0,0,0,0,0,0,0,0,0,0,0,0,0,0,0,0,0,0,0,0,0,0,0,0,0,0,0,0,0,0,0,0,0,0,0,0,0,0,0,0,0,0,0,0,0,0,0,0,0,0,0,0,0,0,0,0],"id":3,"left_children":[1,3,5,7,9,11,13,15,17,19,21,23,25,27,29,31,33,35,37,39,41,43,45,47,49,51,53,55,57,59,61,63,65,67,69,71,73,75,77,79,81,83,85,87,89,91,93,95,97,99,101,103,105,107,109,111,113,115,117,119,-1,121,-1,-1,-1,-1,-1,-1,-1,-1,-1,-1,-1,-1,-1,-1,-1,-1,-1,-1,-1,-1,-1,-1,-1,-1,-1,-1,-1,-1,-1,-1,-1,-1,-1,-1,-1,-1,-1,-1,-1,-1,-1,-1,-1,-1,-1,-1,-1,-1,-1,-1,-1,-1,-1,-1,-1,-1,-1,-1,-1,-1,-1],"loss_changes":[1.8071803E4,1.306082E3,1.7967676E3,2.0514062E2,9.5274414E1,1.573082E2,9.756641E1,3.416797E1,3.3556152E1,8.784546E0,2.4175568E1,5.294534E1,8.252077E1,6.2182495E1,3.9023438E0,2.0730469E1,8.159058E0,1.4248047E1,8.846191E0,5.4764404E0,8.910828E0,7.852289E0,1.0275879E1,5.871357E0,1.2014616E1,1.5508545E1,1.4449417E1,1.944043E1,3.9515343E0,2.8320312E-2,9.830566E0,9.341797E0,3.0595703E0,4.967285E0,1.0172745E1,5.859375E0,2.4109802E0,5.491351E0,8.282959E0,9.6222305E-1,3.276123E0,1.6047363E0,5.433655E0,4.9823837E0,4.0549555E0,2.8128967E0,3.8643074E0,2.5483649E0,4.0533257E0,8.119926E0,4.1628475E0,6.6123276E0,4.2603607E0,5.198676E0,1.0761715E1,5.321045E-1,7.904251E0,3.490613E0,6.7197533E0,4.2460938E0,0E0,1.4164696E0,0E0,0E0,0E0,0E0,0E0,0E0,0E0,0E0,0E0,0E0,0E0,0E0,0E0,0E0,0E0,0E0,0E0,0E0,0E0,0E0,0E0,0E0,0E0,0E0,0E0,0E0,0E0,0E0,0E0,0E0,0E0,0E0,0E0,0E0,0E0,0E0,0E0,0E0,0E0,0E0,0E0,0E0,0E0,0E0,0E0,0E0,0E0,0E0,0E0,0E0,0E0,0E0,0E0,0E0,0E0,0E0,0E0,0E0,0E0,0E0,0E0],"parents":[2147483647,0,0,1,1,2,2,3,3,4,4,5,5,6,6,7,7,8,8,9,9,10,10,11,11,12,12,13,13,14,14,15,15,16,16,17,17,18,18,19,19,20,20,21,21,22,22,23,23,24,24,25,25,26,26,27,27,28,28,29,29,30,30,31,31,32,32,33,33,34,34,35,35,36,36,37,37,38,38,39,39,40,40,41,41,42,42,43,43,44,44,45,45,46,46,47,47,48,48,49,49,50,50,51,51,52,52,53,53,54,54,55,55,56,56,57,57,58,58,59,59,61,61],"right_children":[2,4,6,8,10,12,14,16,18,20,22,24,26,28,30,32,34,36,38,40,42,44,46,48,50,52,54,56,58,60,62,64,66,68,70,72,74,76,78,80,82,84,86,88,90,92,94,96,98,100,102,104,106,108,110,112,114,116,118,120,-1,122,-1,-1,-1,-1,-1,-1,-1,-1,-1,-1,-1,-1,-1,-1,-1,-1,-1,-1,-1,-1,-1,-1,-1,-1,-1,-1,-1,-1,-1,-1,-1,-1,-1,-1,-1,-1,-1,-1,-1,-1,-1,-1,-1,-1,-1,-1,-1,-1,-1,-1,-1,-1,-1,-1,-1,-1,-1,-1,-1,-1,-1],"split_conditions":[1.85E1,7.5E0,3.45E1,-5E-1,1.25E1,2.55E1,4.65E1,2.3365E3,3.5E0,1.05E1,4.225E2,4.805E2,6.905E2,1.2475E3,2.175E3,-3.5E0,2.6125E3,2.4805E3,1.295E2,2.365E2,6.53E2,1.45E1,1.65E1,1.95E1,1.2445E3,3.05E1,2.85E1,7.34E2,3.95E1,5.45E1,6.55E1,9.115E2,8.955E2,2.399E3,-6.5E0,3.375E2,2.5635E3,1.135E2,2.34E3,1.915E2,2.4515E3,3.22E2,2.7105E3,4.135E2,1.75E1,1.1435E3,1.0745E3,2.38E2,3.075E2,2.25E1,2.5475E3,4.525E2,4.67E2,1.5505E3,1.088E3,4.515E2,7.625E2,1.2565E3,2.0085E3,1.385E3,3.6857125E-1,2.232E3,3.6344978E-1,-3.3566773E-1,-3.195513E-1,-3.1804144E-1,-3.056629E-1,-2.307923E-1,-2.948805E-1,-3.0341434E-1,-1.7245519E-1,-2.6457334E-1,-2.905891E-1,-1.3127437E-1,-2.184922E-1,-1.6225433E-1,9.354865E-2,-2.509529E-1,-1.7769696E-1,-1.6959164E-1,-1.162771E-1,-2.1023166E-1,-1.367067E-1,-1.5950951E-1,-1.1899898E-1,-1.9319063E-1,8.689731E-2,-1.1221382E-1,9.700104E-2,-5.098712E-2,1.7143339E-2,-1.2958345E-1,-1.6012597E-1,-7.078343E-2,-1.2285963E-1,7.109271E-2,-2.2864677E-2,5.309488E-2,1.0680693E-1,-3.9720498E-2,1.5302033E-2,-8.669773E-2,6.430782E-3,1.9478369E-1,1.1791274E-1,2.9110497E-1,2.0580229E-1,3.901272E-2,-3.7191737E-2,1.3769987E-1,5.4349583E-2,3.501909E-1,3.1440616E-1,6.345612E-2,2.545831E-1,-2.4809536E-1,1.0338398E-1,2.1973386E-1,7.70241E-2,3.6218494E-1,2.6645446E-1,1.905153E-2,2.2684458E-1],"split_indices":[0,0,0,0,0,0,0,1,0,0,1,1,1,1,1,0,1,1,1,1,1,0,0,0,1,0,0,1,0,0,0,1,1,1,0,1,1,1,1,1,1,1,1,1,0,1,1,1,1,0,1,1,1,1,1,1,1,1,1,1,0,1,0,0,0,0,0,0,0,0,0,0,0,0,0,0,0,0,0,0,0,0,0,0,0,0,0,0,0,0,0,0,0,0,0,0,0,0,0,0,0,0,0,0,0,0,0,0,0,0,0,0,0,0,0,0,0,0,0,0,0,0,0],"split_type":[0,0,0,0,0,0,0,0,0,0,0,0,0,0,0,0,0,0,0,0,0,0,0,0,0,0,0,0,0,0,0,0,0,0,0,0,0,0,0,0,0,0,0,0,0,0,0,0,0,0,0,0,0,0,0,0,0,0,0,0,0,0,0,0,0,0,0,0,0,0,0,0,0,0,0,0,0,0,0,0,0,0,0,0,0,0,0,0,0,0,0,0,0,0,0,0,0,0,0,0,0,0,0,0,0,0,0,0,0,0,0,0,0,0,0,0,0,0,0,0,0,0,0],"sum_hessian":[5.2172863E4,4.4210777E4,7.9620835E3,3.8952676E4,5.258104E3,3.7479473E3,4.214136E3,2.9509861E4,9.442814E3,2.7787783E3,2.4793257E3,2.1058203E3,1.6421268E3,1.1541852E3,3.0599512E3,2.8345342E4,1.1645187E3,6.4585376E3,2.9842766E3,1.7402365E3,1.0385419E3,6.686798E2,1.8106458E3,6.317774E2,1.474043E3,6.8198895E2,9.601379E2,8.797931E2,2.7439212E2,2.8565657E3,2.0338557E2,1.7610076E4,1.0735267E4,9.210649E2,2.4345377E2,6.2771274E3,1.8141026E2,5.688465E1,2.9273918E3,1.4958167E2,1.5906548E3,4.368193E2,6.0172253E2,2.3555386E2,4.3312598E2,1.2610583E3,5.495874E2,1.1842131E2,5.1335614E2,1.0157229E3,4.583201E2,4.284192E2,2.5356978E2,3.945095E2,5.656284E2,5.175379E2,3.6225516E2,1.3966327E2,1.3472887E2,4.6576715E2,2.3907986E3,6.875249E1,1.3463309E2,1.2425131E4,5.184945E3,6.988999E3,3.746268E3,1.5332727E2,7.677376E2,8.609105E1,1.5736272E2,1.0879142E3,5.1892134E3,4.3442307E1,1.3796796E2,4.865236E1,8.232293E0,2.7694878E3,1.5790416E2,7.8135605E1,7.144606E1,1.526499E3,6.415578E1,1.4919232E2,2.8762698E2,5.959518E2,5.7708E0,2.2555922E2,9.994637E0,3.3062158E2,1.0250439E2,8.0146094E2,4.5959744E2,3.3506296E2,2.1452446E2,3.693666E1,8.148465E1,2.4866017E2,2.6469595E2,6.225832E2,3.931397E2,4.101991E2,4.8120975E1,2.4659073E2,1.8182846E2,1.501619E2,1.03407875E2,2.8291354E2,1.1159597E2,2.5597217E2,3.0965625E2,3.0645102E2,2.1108688E2,2.1479614E1,3.4077554E2,1.6696243E0,1.3799364E2,8.7825165E1,4.6903698E1,4.0306097E2,6.27062E1,3.2910104E0,6.546148E1],"tree_param":{"num_deleted":"0","num_feature":"2","num_nodes":"123","size_leaf_vector":"0"}},{"base_weights":[-6.1999345E-1,-8.497832E-1,5.1581997E-1,-9.3471336E-1,-5.002737E-1,1.1880684E-1,1.0428343E0,-9.7140217E-1,-8.4074086E-1,-6.410433E-1,-3.532937E-1,8.164844E-3,4.2449972E-1,7.744033E-1,1.1298245E0,-9.7963613E-1,-7.776002E-1,-8.492455E-1,-5.9032553E-1,-6.7428505E-1,-5.5855674E-1,-4.2860636E-1,-2.6239282E-1,1.9037294E-1,-6.0326118E-2,6.880466E-1,2.4335809E-1,9.224139E-1,3.58667E-1,1.1471388E0,9.736605E-1,-1.0250497E0,-9.610574E-1,-8.031966E-1,-5.504895E-1,-8.791851E-1,-7.953415E-1,-6.323831E-1,-3.3067894E-1,9.048965E-2,-6.783281E-1,-4.2436904E-1,-5.9521866E-1,-2.4764359E-1,-4.4558775E-1,-1.754999E-1,-3.4800938E-1,8.733571E-2,3.31321E-1,-1.377912E-1,5.9409134E-2,8.101738E-1,5.4055244E-1,3.2436734E-1,1.295866E-1,1.0541314E0,7.432969E-1,3.153028E-1,7.405713E-1,6.476296E-1,1.1326536E0,-1.048762E0,-9.6115226E-1,-9.773166E-1,-9.278489E-1,-6.261406E-1,-8.2772547E-1,-2.728475E-1,-8.902274E-1,-4.9625474E-1,-8.818451E-1,-7.2645146E-1,-8.0893004E-1,-7.9035175E-1,-5.639581E-1,-2.224255E-6,-9.556014E-1,-1.07695684E-1,9.7176576E-1,-6.908437E-1,-4.6319738E-1,-5.616189E-1,-1.0385203E-1,-6.0237867E-1,-2.9604135E-2,-2.8236777E-1,2.6366207E-1,-4.6120638E-1,-2.9652664E-1,-2.9663864E-1,-1.343826E-1,-3.7735116E-1,-7.487425E-2,8.5365045E-1,7.872203E-2,2.778374E-1,4.8332116E-1,-9.092482E-1,-1.3393958E-1,1.0603624E-1,-1.3768466E-1,6.9232196E-1,8.9930016E-1,3.6345878E-1,6.348235E-1,2.3230152E-1,4.3777075E-1,1.4180261E-1,-6.9879144E-1,1.0978674E0,9.527082E-1,5.9248734E-1,8.215763E-1,4.003693E-1,-4.504105E-1,1.1382641E0,3.4832722E-1,7.352761E-1,2.945935E-1],"categories":[],"categories_nodes":[],"categories_segments":[],"categories_sizes":[],"default_left":[1,1,1,1,1,1,1,1,1,1,1,1,1,1,1,1,1,1,1,1,1,1,1,1,1,1,1,1,1,0,1,1,1,1,1,1,1,1,1,1,1,1,1,1,1,1,1,1,1,1,1,1,1,1,1,1,1,1,1,1,0,0,0,0,0,0,0,0,0,0,0,0,0,0,0,0,0,0,0,0,0,0,0,0,0,0,0,0,0,0,0,0,0,0,0,0,0,0,0,0,0,0,0,0,0,0,0,0,0,0,0,0,0,0,0,0,0,0,0],"id":4,"left_children":[1,3,5,7,9,11,13,15,17,19,21,23,25,27,29,31,33,35,37,39,41,43,45,47,49,51,53,55,57,-1,59,61,63,65,67,69,71,73,75,77,79,81,83,85,87,89,91,93,95,97,99,101,103,105,107,109,111,113,115,117,-1,-1,-1,-1,-1,-1,-1,-1,-1,-1,-1,-1,-1,-1,-1,-1,-1,-1,-1,-1,-1,-1,-1,-1,-1,-1,-1,-1,-1,-1,-1,-1,-1,-1,-1,-1,-1,-1,-1,-1,-1,-1,-1,-1,-1,-1,-1,-1,-1,-1,-1,-1,-1,-1,-1,-1,-1,-1,-1],"loss_changes":[1.1485137E4,1.0859336E3,1.5492344E3,1.0069336E2,1.4785474E2,1.428805E2,7.341504E1,3.301953E1,1.7121094E1,9.644043E0,2.3872467E1,3.8734074E1,5.342752E1,4.7779022E1,5.3740234E0,1.6146484E1,4.6013184E0,1.2212891E1,2.794777E0,8.100464E0,4.940277E0,5.772766E0,1.1768021E1,1.2285671E1,2.0932571E1,7.789749E0,6.1044464E0,1.2804535E1,3.1931171E0,0E0,1.2029175E1,7.8999023E0,6.8808594E0,2.858551E0,8.345976E0,4.791992E0,2.0966797E0,2.101265E0,8.357233E0,2.646779E0,6.643921E0,1.0059147E1,3.3295593E0,3.030429E0,3.935089E0,3.9008083E0,6.382263E0,3.175158E0,2.773941E0,3.9491196E0,8.164957E0,1.9808655E0,3.273487E0,3.9583244E0,2.922698E0,4.156189E-1,2.434433E0,1.2396854E1,2.7790413E0,2.3529701E0,0E0,0E0,0E0,0E0,0E0,0E0,0E0,0E0,0E0,0E0,0E0,0E0,0E0,0E0,0E0,0E0,0E0,0E0,0E0,0E0,0E0,0E0,0E0,0E0,0E0,0E0,0E0,0E0,0E0,0E0,0E0,0E0,0E0,0E0,0E0,0E0,0E0,0E0,0E0,0E0,0E0,0E0,0E0,0E0,0E0,0E0,0E0,0E0,0E0,0E0,0E0,0E0,0E0,0E0,0E0,0E0,0E0,0E0,0E0],"parents":[2147483647,0,0,1,1,2,2,3,3,4,4,5,5,6,6,7,7,8,8,9,9,10,10,11,11,12,12,13,13,14,14,15,15,16,16,17,17,18,18,19,19,20,20,21,21,22,22,23,23,24,24,25,25,26,26,27,27,28,28,30,30,31,31,32,32,33,33,34,34,35,35,36,36,37,37,38,38,39,39,40,40,41,41,42,42,43,43,44,44,45,45,46,46,47,47,48,48,49,49,50,50,51,51,52,52,53,53,54,54,55,55,56,56,57,57,58,58,59,59],"right_children":[2,4,6,8,10,12,14,16,18,20,22,24,26,28,30,32,34,36,38,40,42,44,46,48,50,52,54,56,58,-1,60,62,64,66,68,70,72,74,76,78,80,82,84,86,88,90,92,94,96,98,100,102,104,106,108,110,112,114,116,118,-1,-1,-1,-1,-1,-1,-1,-1,-1,-1,-1,-1,-1,-1,-1,-1,-1,-1,-1,-1,-1,-1,-1,-1,-1,-1,-1,-1,-1,-1,-1,-1,-1,-1,-1,-1,-1,-1,-1,-1,-1,-1,-1,-1,-1,-1,-1,-1,-1,-1,-1,-1,-1,-1,-1,-1,-1,-1,-1],"split_conditions":[1.75E1,3.5E0,3.65E1,-1.5E0,9.5E0,2.85E1,4.65E1,2.3365E3,2.4555E3,7.5E0,1.35E1,4.54E2,7.275E2,1.2475E3,1.8455E3,-6.5E0,2.743E3,5E-1,2.743E3,8.75E1,3.955E2,2.365E2,7.39E2,2.25E1,2.35E1,4.485E2,1.2495E3,7.24E2,2.5745E3,3.4414166E-1,6.35E1,9.125E2,8.985E2,2.3795E3,2.9865E3,9.9E1,3.375E2,-5E-1,3.7925E3,8.5E1,2.34E3,3.275E2,2.6585E3,2.355E2,1.975E3,1.45E1,2.3365E3,6.75E1,2.65E1,4.585E2,1.602E3,3.15E1,5.675E2,3.25E1,3.7925E3,5.23E2,3.95E1,2.4515E3,2.6125E3,2.5855E3,3.397961E-1,-3.146286E-1,-2.883457E-1,-2.93195E-1,-2.7835467E-1,-1.8784219E-1,-2.4831764E-1,-8.1854254E-2,-2.6706824E-1,-1.4887643E-1,-2.6455355E-1,-2.1793544E-1,-2.4267901E-1,-2.3710553E-1,-1.6918744E-1,-6.6727654E-7,-2.8668043E-1,-3.2308705E-2,2.9152974E-1,-2.0725311E-1,-1.3895921E-1,-1.6848569E-1,-3.115561E-2,-1.8071361E-1,-8.881241E-3,-8.471033E-2,7.909863E-2,-1.3836192E-1,-8.8957995E-2,-8.89916E-2,-4.0314782E-2,-1.1320535E-1,-2.2462277E-2,2.5609514E-1,2.361661E-2,8.3351225E-2,1.4499636E-1,-2.7277446E-1,-4.0181875E-2,3.1810872E-2,-4.13054E-2,2.076966E-1,2.6979005E-1,1.0903764E-1,1.9044706E-1,6.969046E-2,1.3133124E-1,4.2540785E-2,-2.0963745E-1,3.2936022E-1,2.8581247E-1,1.777462E-1,2.464729E-1,1.2011079E-1,-1.3512315E-1,3.4147924E-1,1.0449817E-1,2.2058284E-1,8.837806E-2],"split_indices":[0,0,0,0,0,0,0,1,1,0,0,1,1,1,1,0,1,0,1,1,1,1,1,0,0,1,1,1,1,0,0,1,1,1,1,1,1,0,1,1,1,1,1,1,1,0,1,1,0,1,1,0,1,0,1,1,0,1,1,1,0,0,0,0,0,0,0,0,0,0,0,0,0,0,0,0,0,0,0,0,0,0,0,0,0,0,0,0,0,0,0,0,0,0,0,0,0,0,0,0,0,0,0,0,0,0,0,0,0,0,0,0,0,0,0,0,0,0,0],"split_type":[0,0,0,0,0,0,0,0,0,0,0,0,0,0,0,0,0,0,0,0,0,0,0,0,0,0,0,0,0,0,0,0,0,0,0,0,0,0,0,0,0,0,0,0,0,0,0,0,0,0,0,0,0,0,0,0,0,0,0,0,0,0,0,0,0,0,0,0,0,0,0,0,0,0,0,0,0,0,0,0,0,0,0,0,0,0,0,0,0,0,0,0,0,0,0,0,0,0,0,0,0,0,0,0,0,0,0,0,0,0,0,0,0,0,0,0,0,0,0],"sum_hessian":[4.400197E4,3.6597977E4,7.4039917E3,2.9441955E4,7.156023E3,4.223528E3,3.180464E3,2.1168146E4,8.273809E3,3.6535178E3,3.502505E3,3.1018691E3,1.1216588E3,7.808503E2,2.3996138E3,2.0301553E4,8.665936E2,7.99973E3,2.7407855E2,2.5989692E3,1.0545486E3,1.9134602E3,1.5890448E3,8.469442E2,2.2549248E3,4.557622E2,6.6589655E2,5.7494086E2,2.0590942E2,2.1544038E3,2.4521014E2,5.878355E3,1.4423198E4,7.765379E2,9.0055695E1,5.133273E3,2.8664565E3,2.3463652E2,3.9442024E1,1.3555034E1,2.5854143E3,2.2898999E2,8.2555853E2,1.654902E2,1.74797E3,7.901575E2,7.988873E2,4.9020755E2,3.5673666E2,1.369044E3,8.8588086E2,2.4686316E2,2.0889906E2,3.8786914E2,2.7802744E2,3.28492E2,2.4644882E2,1.865525E2,1.9356918E1,8.2044044E1,1.6316609E2,4.2760947E3,1.6022604E3,9.663461E3,4.759738E3,9.7717E1,6.788209E2,5.054897E1,3.9506725E1,3.670669E1,5.0965664E3,4.8122955E2,2.385227E3,6.77275E1,1.6690901E2,2.6447418E1,1.2994607E1,1.1783013E1,1.7720212E0,2.4411829E3,1.4423137E2,1.5980641E2,6.918357E1,8.1517444E2,1.0384131E1,1.5538531E2,1.0104895E1,1.5802927E3,1.6767728E2,1.9865895E2,5.9149854E2,7.210467E2,7.784065E1,4.3584104E0,4.8584912E2,2.6597656E2,9.07601E1,5.633441E0,1.3634105E3,7.167735E2,1.6910738E2,1.1007665E2,1.367865E2,7.425752E1,1.3464154E2,2.157568E2,1.7211234E2,2.7480374E2,3.2236803E0,2.2265402E2,1.0583799E2,8.713917E1,1.5930966E2,1.683292E2,1.8223312E1,8.667296E0,1.0689622E1,6.4859085E1,1.7184958E1],"tree_param":{"num_deleted":"0","num_feature":"2","num_nodes":"119","size_leaf_vector":"0"}},{"base_weights":[-5.306557E-1,-7.5113565E-1,3.6340547E-1,-8.378913E-1,-4.403249E-1,7.3080316E-2,1.0108054E0,-8.8539445E-1,-7.5865316E-1,-5.371952E-1,-2.937624E-1,-2.4717659E-2,3.6107862E-1,8.074105E-1,1.0953122E0,-9.186208E-1,-8.201911E-1,-7.6674736E-1,-4.1453364E-1,-5.6794244E-1,-4.4094658E-1,-1.1577404E-1,-3.1185785E-1,-8.7203525E-2,8.020062E-2,6.222255E-1,2.0178549E-1,9.491483E-1,3.7115476E-1,1.1053221E0,9.535689E-1,-9.6660584E-1,-8.9261436E-1,-8.416477E-1,-6.747862E-1,-8.0764043E-1,-7.150965E-1,-4.8979175E-1,-1.1013438E-1,-5.801608E-1,-3.7376583E-1,-3.9514592E-1,-5.6377697E-1,-2.2837305E-1,4.4713216E-3,-6.8155575E-1,-3.032794E-1,-4.231155E-2,-2.2405192E-1,2.3327409E-1,1.029845E-2,4.900987E-1,8.078534E-1,2.784948E-1,1.0348213E-1,1.0625376E0,8.1938E-1,5.908054E-1,2.403149E-1,6.1646336E-1,1.0899029E0,-1.0105529E0,-9.420015E-1,-6.706584E-1,-8.947876E-1,-1.0481999E0,-8.371601E-1,-7.59082E-1,-5.9304345E-1,-8.355585E-1,-7.761626E-1,-6.175388E-1,-7.361367E-1,-1.1012998E-1,-5.557993E-1,2.0704754E-1,-8.381341E-1,-3.7784767E-1,-5.9273726E-1,2.5978675E-1,-4.1001981E-1,-4.3200848E-1,-2.2243163E-1,-6.208967E-1,-2.912927E-1,-3.819491E-1,-6.7379616E-2,-6.634146E-2,3.609725E-1,-5.7730573E-1,-7.845777E-1,-1.21128775E-1,-3.1930462E-1,5.3720973E-2,-7.609265E-2,-2.3649706E-1,5.2090263E-1,6.41997E-1,2.152869E-1,-1.074849E0,1.7333735E-2,6.2509775E-1,3.4664246E-1,9.1281706E-1,6.528005E-1,1.6780923E-1,3.7464407E-1,-1.1181269E0,1.12555586E-1,3.3555755E-1,1.0658803E0,7.219889E-1,9.9680394E-1,-4.9699658E-1,6.255569E-1,-1.2595819E0,2.680721E-1,-2.862985E-1,6.959422E-1],"categories":[],"categories_nodes":[],"categories_segments":[],"categories_sizes":[],"default_left":[1,1,1,1,1,1,1,1,1,1,1,1,1,1,1,1,1,1,1,1,1,1,1,1,1,1,1,1,1,0,1,1,1,1,1,1,1,1,1,1,1,1,1,1,1,1,1,1,1,1,1,1,1,1,1,1,1,1,1,1,0,0,0,0,0,0,0,0,0,0,0,0,0,0,0,0,0,0,0,0,0,0,0,0,0,0,0,0,0,0,0,0,0,0,0,0,0,0,0,0,0,0,0,0,0,0,0,0,0,0,0,0,0,0,0,0,0,0,0],"id":5,"left_children":[1,3,5,7,9,11,13,15,17,19,21,23,25,27,29,31,33,35,37,39,41,43,45,47,49,51,53,55,57,-1,59,61,63,65,67,69,71,73,75,77,79,81,83,85,87,89,91,93,95,97,99,101,103,105,107,109,111,113,115,117,-1,-1,-1,-1,-1,-1,-1,-1,-1,-1,-1,-1,-1,-1,-1,-1,-1,-1,-1,-1,-1,-1,-1,-1,-1,-1,-1,-1,-1,-1,-1,-1,-1,-1,-1,-1,-1,-1,-1,-1,-1,-1,-1,-1,-1,-1,-1,-1,-1,-1,-1,-1,-1,-1,-1,-1,-1,-1,-1],"loss_changes":[7.3563926E3,8.0683203E2,1.3875837E3,8.7416016E1,9.2617065E1,1.4360211E2,3.8403076E1,3.0930664E1,2.4132812E1,1.1388916E1,8.346085E0,2.4963606E1,5.3638153E1,4.1368286E1,1.2330322E0,1.1216797E1,1.4863525E1,1.7534668E1,4.617298E0,6.846924E0,5.159378E0,3.2743769E0,7.283493E0,1.4650496E1,1.5207208E1,1.1602066E1,6.0358124E0,6.613373E0,4.660301E0,0E0,4.5496063E0,2.7138672E0,2.434082E0,3.1137695E0,3.967163E0,3.5507812E0,7.3410645E0,4.028633E0,9.804753E0,6.8983765E0,4.219448E0,4.3619003E0,3.8269272E0,3.061654E0,3.0001326E0,1.13679886E-1,6.704254E0,5.837239E0,5.585802E0,3.137514E0,7.4763465E0,5.3670197E0,2.689499E0,4.738392E0,4.0507455E0,2.9379272E-1,3.4541779E0,2.643076E0,4.767656E0,2.711832E0,0E0,0E0,0E0,0E0,0E0,0E0,0E0,0E0,0E0,0E0,0E0,0E0,0E0,0E0,0E0,0E0,0E0,0E0,0E0,0E0,0E0,0E0,0E0,0E0,0E0,0E0,0E0,0E0,0E0,0E0,0E0,0E0,0E0,0E0,0E0,0E0,0E0,0E0,0E0,0E0,0E0,0E0,0E0,0E0,0E0,0E0,0E0,0E0,0E0,0E0,0E0,0E0,0E0,0E0,0E0,0E0,0E0,0E0,0E0],"parents":[2147483647,0,0,1,1,2,2,3,3,4,4,5,5,6,6,7,7,8,8,9,9,10,10,11,11,12,12,13,13,14,14,15,15,16,16,17,17,18,18,19,19,20,20,21,21,22,22,23,23,24,24,25,25,26,26,27,27,28,28,30,30,31,31,32,32,33,33,34,34,35,35,36,36,37,37,38,38,39,39,40,40,41,41,42,42,43,43,44,44,45,45,46,46,47,47,48,48,49,49,50,50,51,51,52,52,53,53,54,54,55,55,56,56,57,57,58,58,59,59],"right_children":[2,4,6,8,10,12,14,16,18,20,22,24,26,28,30,32,34,36,38,40,42,44,46,48,50,52,54,56,58,-1,60,62,64,66,68,70,72,74,76,78,80,82,84,86,88,90,92,94,96,98,100,102,104,106,108,110,112,114,116,118,-1,-1,-1,-1,-1,-1,-1,-1,-1,-1,-1,-1,-1,-1,-1,-1,-1,-1,-1,-1,-1,-1,-1,-1,-1,-1,-1,-1,-1,-1,-1,-1,-1,-1,-1,-1,-1,-1,-1,-1,-1,-1,-1,-1,-1,-1,-1,-1,-1,-1,-1,-1,-1,-1,-1,-1,-1,-1,-1],"split_conditions":[1.55E1,2.5E0,3.95E1,-2.5E0,9.5E0,2.85E1,5.25E1,9.115E2,2.555E3,7.5E0,2.365E2,2.25E1,7.255E2,1.3695E3,2.175E3,-6.5E0,2.3365E3,-5E-1,2.743E3,2.34E3,1.146E3,1.25E1,2.585E2,1.16E3,5.745E2,3.35E1,1.2495E3,6.665E2,1.7245E3,3.3159664E-1,6.75E1,-9.5E0,8.75E1,-1.35E1,-5.5E0,7.32E2,3.375E2,2.5635E3,3.7925E3,1.965E2,2.3495E3,9.43E2,2.3895E3,1.905E2,2.235E2,1.25E1,3.375E2,3.46E2,2.7205E3,1.095E2,5.795E2,4.485E2,4.515E2,3.25E1,1.2505E3,6.75E1,4.65E1,1.3755E3,1.732E3,2.232E3,3.2697088E-1,-3.0316588E-1,-2.8260046E-1,-2.0119753E-1,-2.6843628E-1,-3.1445998E-1,-2.5114805E-1,-2.2772461E-1,-1.7791304E-1,-2.5066754E-1,-2.328488E-1,-1.8526165E-1,-2.20841E-1,-3.3038996E-2,-1.6673979E-1,6.2114265E-2,-2.5144026E-1,-1.133543E-1,-1.7782119E-1,7.793603E-2,-1.2300595E-1,-1.2960255E-1,-6.672949E-2,-1.8626902E-1,-8.7387815E-2,-1.1458474E-1,-2.0213885E-2,-1.9902438E-2,1.0829175E-1,-1.7319173E-1,-2.3537333E-1,-3.6338635E-2,-9.579139E-2,1.6116293E-2,-2.2827797E-2,-7.094912E-2,1.562708E-1,1.925991E-1,6.458607E-2,-3.2245472E-1,5.2001206E-3,1.8752934E-1,1.03992745E-1,2.7384514E-1,1.9584017E-1,5.0342772E-2,1.1239322E-1,-3.3543807E-1,3.3766676E-2,1.0066727E-1,3.197641E-1,2.1659668E-1,2.9904118E-1,-1.4909898E-1,1.8766707E-1,-3.7787458E-1,8.0421634E-2,-8.5889556E-2,2.0878267E-1],"split_indices":[0,0,0,0,0,0,0,1,1,0,1,0,1,1,1,0,1,0,1,1,1,0,1,1,1,0,1,1,1,0,0,0,1,0,0,1,1,1,1,1,1,1,1,1,1,0,1,1,1,1,1,1,1,0,1,1,0,1,1,1,0,0,0,0,0,0,0,0,0,0,0,0,0,0,0,0,0,0,0,0,0,0,0,0,0,0,0,0,0,0,0,0,0,0,0,0,0,0,0,0,0,0,0,0,0,0,0,0,0,0,0,0,0,0,0,0,0,0,0],"split_type":[0,0,0,0,0,0,0,0,0,0,0,0,0,0,0,0,0,0,0,0,0,0,0,0,0,0,0,0,0,0,0,0,0,0,0,0,0,0,0,0,0,0,0,0,0,0,0,0,0,0,0,0,0,0,0,0,0,0,0,0,0,0,0,0,0,0,0,0,0,0,0,0,0,0,0,0,0,0,0,0,0,0,0,0,0,0,0,0,0,0,0,0,0,0,0,0,0,0,0,0,0,0,0,0,0,0,0,0,0,0,0,0,0,0,0,0,0,0,0],"sum_hessian":[3.731649E4,2.993462E4,7.3818677E3,2.3401057E4,6.5335625E3,5.0971665E3,2.2847012E3,1.4623882E4,8.777175E3,3.9320283E3,2.6015342E3,3.8057356E3,1.291431E3,6.737193E2,1.6109818E3,9.678711E3,4.9451704E3,8.574267E3,2.0290854E2,2.976323E3,9.5570526E2,2.4076326E2,2.360771E3,2.385299E3,1.4204365E3,4.8818646E2,8.0324457E2,5.0761987E2,1.6609941E2,1.4983698E3,1.1261198E2,3.3891582E3,6.289553E3,4.3051016E3,6.400688E2,4.777325E3,3.7969414E3,1.6219841E2,4.071014E1,2.798257E3,1.7806593E2,6.9920483E2,2.5650046E2,1.2387045E2,1.1689281E2,5.1757797E1,2.3090132E3,1.7970884E3,5.8821063E2,4.4456976E2,9.758668E2,2.8731833E2,2.0086815E2,4.501471E2,3.5309744E2,2.6707043E2,2.4054944E2,6.069339E1,1.0540603E2,3.401837E1,7.8593605E1,1.2020459E3,2.187112E3,6.3989155E1,6.225564E3,8.659867E1,4.218503E3,3.1103406E2,3.2903473E2,2.5182874E3,2.259038E3,6.7899255E2,3.1179487E3,2.441823E1,1.3778018E2,2.885424E1,1.1855899E1,1.6558499E2,2.632672E3,9.304277E0,1.6876166E2,5.749842E2,1.2422063E2,2.1099239E2,4.5508064E1,6.2693222E1,6.1177235E1,9.820083E1,1.8691982E1,2.9007866E1,2.2749931E1,1.8740714E2,2.121606E3,4.674986E2,1.3295897E3,5.7921686E2,8.993809E0,1.7277655E1,4.272921E2,5.30835E0,9.705585E2,1.462927E2,1.4102565E2,1.1686727E2,8.400087E1,2.1053163E2,2.3961546E2,1.7021137E0,3.5139532E2,1.6864272E0,2.65384E2,1.5857445E2,8.197499E1,1.4671366E0,5.9226254E1,1.1088587E0,1.0429717E2,2.5420675E0,3.1476303E1],"tree_param":{"num_deleted":"0","num_feature":"2","num_nodes":"119","size_leaf_vector":"0"}},{"base_weights":[-4.4800633E-1,-6.6955215E-1,2.2419886E-1,-7.4826384E-1,-4.0545395E-1,1.3199158E-2,9.4815844E-1,-8.080183E-1,-6.826299E-1,-4.7589585E-1,-2.9818767E-1,-8.320658E-2,2.0140296E-1,7.077039E-1,1.0572655E0,-8.468532E-1,-7.313745E-1,-6.911372E-1,-3.36379E-1,-5.181554E-1,-4.2076E-1,-2.615443E-1,-3.9450118E-1,-1.4104864E-1,-1.14293825E-2,3.7588283E-1,9.868998E-2,8.993189E-1,3.3081898E-1,1.0704185E0,8.8021004E-1,-9.439722E-1,-8.299793E-1,-7.556469E-1,-5.7825065E-1,-7.2059333E-1,-6.2106794E-1,-4.6007213E-1,-1.8716829E-1,-5.296908E-1,-2.920575E-1,-2.2489999E-1,-4.3528616E-1,-2.9327926E-1,-1.12756476E-1,-4.584371E-1,-1.4923774E-1,-8.925643E-2,-1.9451858E-1,1.29816225E-2,-2.0411636E-1,2.3023015E-1,6.0381514E-1,3.29961E-2,2.0357117E-1,1.0117218E0,7.535071E-1,5.062513E-1,1.7394581E-1,5.1301247E-1,1.0499089E0,-8.6253923E-1,-8.145192E-1,-9.849173E-1,-7.496647E-1,-6.041282E-1,-3.1152868E-1,-7.473956E-1,-6.7515045E-1,-5.006878E-1,-6.388168E-1,-5.960115E-1,-1.9629683E-1,2.2862493E-1,-3.3537707E-1,1.4052783E-1,-5.316379E-1,7.76346E-1,-3.5151127E-1,-3.378846E-1,1.17312744E-1,-4.477445E-1,-2.5833622E-1,-2.3296532E-1,-3.8714534E-1,-1.2534006E-1,6.0837793E-1,-5.7254946E-1,-4.3567088E-1,-1.3556175E-1,-8.028793E-1,1.7070724E-1,-1.0052005E-1,-5.7821673E-1,-1.8226351E-1,1.0223138E-2,1.1370288E0,-2.7122375E-1,5.4674014E-2,3.2945275E-1,1.6483785E-1,7.4658346E-1,4.57523E-1,3.653007E-2,-1.2655308E0,2.617351E-1,9.84814E-2,2.8852695E-1,1.0157961E0,6.4700645E-1,9.5845556E-1,7.784357E-2,5.9398097E-1,-1.058229E0,1.9947544E-1,-2.1337159E-1,5.907778E-1],"categories":[],"categories_nodes":[],"categories_segments":[],"categories_sizes":[],"default_left":[1,1,1,1,1,1,1,1,1,1,1,1,1,1,1,1,1,1,1,1,1,1,1,1,1,1,1,1,1,0,1,0,1,1,1,1,1,1,1,1,1,1,1,1,1,1,1,1,1,1,1,1,1,1,1,1,1,1,1,1,0,0,0,0,0,0,0,0,0,0,0,0,0,0,0,0,0,0,0,0,0,0,0,0,0,0,0,0,0,0,0,0,0,0,0,0,0,0,0,0,0,0,0,0,0,0,0,0,0,0,0,0,0,0,0,0,0],"id":6,"left_children":[1,3,5,7,9,11,13,15,17,19,21,23,25,27,29,31,33,35,37,39,41,43,45,47,49,51,53,55,57,-1,59,-1,61,63,65,67,69,71,73,75,77,79,81,83,85,87,89,91,93,95,97,99,101,103,105,107,109,111,113,115,-1,-1,-1,-1,-1,-1,-1,-1,-1,-1,-1,-1,-1,-1,-1,-1,-1,-1,-1,-1,-1,-1,-1,-1,-1,-1,-1,-1,-1,-1,-1,-1,-1,-1,-1,-1,-1,-1,-1,-1,-1,-1,-1,-1,-1,-1,-1,-1,-1,-1,-1,-1,-1,-1,-1,-1,-1],"loss_changes":[4.7724834E3,5.0072266E2,1.2135145E3,7.22666E1,4.168994E1,1.1164596E2,4.628711E1,2.8291504E1,2.5850098E1,7.564331E0,7.6512146E0,1.689234E1,3.731643E1,4.033255E1,1.9250488E0,9.770996E0,1.1730957E1,1.7387695E1,3.8688412E0,4.7654724E0,4.040436E0,7.496269E0,9.396454E0,6.2225037E0,8.548858E0,2.5489792E1,9.042172E0,5.3411865E0,5.1742268E0,0E0,5.1173477E0,0E0,2.0637207E0,3.1329346E0,2.9329834E0,6.897461E0,5.160034E0,4.05954E0,6.165824E0,2.4154358E0,6.2313805E0,4.002721E0,2.8671265E0,7.3469543E0,2.6347663E0,9.9311066E-1,1.0200994E0,3.3739939E0,5.103756E0,4.9914865E0,3.5638676E0,3.0122108E0,5.9317093E0,3.757395E0,3.0647373E0,3.1793213E-1,3.0037613E0,3.3266773E0,3.4344609E0,1.8570919E0,0E0,0E0,0E0,0E0,0E0,0E0,0E0,0E0,0E0,0E0,0E0,0E0,0E0,0E0,0E0,0E0,0E0,0E0,0E0,0E0,0E0,0E0,0E0,0E0,0E0,0E0,0E0,0E0,0E0,0E0,0E0,0E0,0E0,0E0,0E0,0E0,0E0,0E0,0E0,0E0,0E0,0E0,0E0,0E0,0E0,0E0,0E0,0E0,0E0,0E0,0E0,0E0,0E0,0E0,0E0,0E0,0E0],"parents":[2147483647,0,0,1,1,2,2,3,3,4,4,5,5,6,6,7,7,8,8,9,9,10,10,11,11,12,12,13,13,14,14,15,15,16,16,17,17,18,18,19,19,20,20,21,21,22,22,23,23,24,24,25,25,26,26,27,27,28,28,30,30,32,32,33,33,34,34,35,35,36,36,37,37,38,38,39,39,40,40,41,41,42,42,43,43,44,44,45,45,46,46,47,47,48,48,49,49,50,50,51,51,52,52,53,53,54,54,55,55,56,56,57,57,58,58,59,59],"right_children":[2,4,6,8,10,12,14,16,18,20,22,24,26,28,30,32,34,36,38,40,42,44,46,48,50,52,54,56,58,-1,60,-1,62,64,66,68,70,72,74,76,78,80,82,84,86,88,90,92,94,96,98,100,102,104,106,108,110,112,114,116,-1,-1,-1,-1,-1,-1,-1,-1,-1,-1,-1,-1,-1,-1,-1,-1,-1,-1,-1,-1,-1,-1,-1,-1,-1,-1,-1,-1,-1,-1,-1,-1,-1,-1,-1,-1,-1,-1,-1,-1,-1,-1,-1,-1,-1,-1,-1,-1,-1,-1,-1,-1,-1,-1,-1,-1,-1],"split_conditions":[1.25E1,1.5E0,3.95E1,-3.5E0,7.5E0,2.45E1,5.25E1,9.145E2,2.553E3,4.5E0,1.1305E3,1.85E1,7.095E2,1.135E3,2.175E3,-9.5E0,2.3365E3,-5E-1,2.6125E3,2.438E3,2.15E2,9.43E2,2.34E3,7.45E2,1.722E3,3.05E1,3.15E1,6.665E2,1.7245E3,3.2112557E-1,6.75E1,-2.8319165E-1,-6.5E0,-1.35E1,2.821E3,8.955E2,2.825E2,-5E-1,2.6845E3,6.75E1,2.448E3,1.915E2,2.34E3,5.86E2,1.1265E3,1.2165E3,4.6595E3,1.295E2,7.635E2,1.712E3,2.5475E3,3.905E2,4.24E2,4.3725E3,1.51E3,6.75E1,4.65E1,1.21E3,1.7295E3,2.232E3,3.1497267E-1,-2.587618E-1,-2.4435578E-1,-2.9547518E-1,-2.2489943E-1,-1.8123846E-1,-9.345861E-2,-2.2421868E-1,-2.0254515E-1,-1.5020634E-1,-1.9164504E-1,-1.7880346E-1,-5.888905E-2,6.858748E-2,-1.00613125E-1,4.215835E-2,-1.5949138E-1,2.3290382E-1,-1.0545339E-1,-1.0136539E-1,3.5193823E-2,-1.3432336E-1,-7.7500865E-2,-6.98896E-2,-1.1614361E-1,-3.760202E-2,1.8251339E-1,-1.7176485E-1,-1.3070127E-1,-4.0668525E-2,-2.4086379E-1,5.1212173E-2,-3.0156016E-2,-1.7346503E-1,-5.4679055E-2,3.0669416E-3,3.4110865E-1,-8.136713E-2,1.6402205E-2,9.883583E-2,4.945136E-2,2.2397505E-1,1.372569E-1,1.0959022E-2,-3.7965927E-1,7.852054E-2,2.9544422E-2,8.655809E-2,3.0473882E-1,1.9410194E-1,2.8753668E-1,2.3353072E-2,1.781943E-1,-3.174687E-1,5.9842635E-2,-6.401148E-2,1.7723335E-1],"split_indices":[0,0,0,0,0,0,0,1,1,0,1,0,1,1,1,0,1,0,1,1,1,1,1,1,1,0,0,1,1,0,0,0,0,0,1,1,1,0,1,1,1,1,1,1,1,1,1,1,1,1,1,1,1,1,1,1,0,1,1,1,0,0,0,0,0,0,0,0,0,0,0,0,0,0,0,0,0,0,0,0,0,0,0,0,0,0,0,0,0,0,0,0,0,0,0,0,0,0,0,0,0,0,0,0,0,0,0,0,0,0,0,0,0,0,0,0,0],"split_type":[0,0,0,0,0,0,0,0,0,0,0,0,0,0,0,0,0,0,0,0,0,0,0,0,0,0,0,0,0,0,0,0,0,0,0,0,0,0,0,0,0,0,0,0,0,0,0,0,0,0,0,0,0,0,0,0,0,0,0,0,0,0,0,0,0,0,0,0,0,0,0,0,0,0,0,0,0,0,0,0,0,0,0,0,0,0,0,0,0,0,0,0,0,0,0,0,0,0,0,0,0,0,0,0,0,0,0,0,0,0,0,0,0,0,0,0,0],"sum_hessian":[3.2044375E4,2.4101117E4,7.9432573E3,1.8565906E4,5.5352104E3,6.1514277E3,1.7918297E3,9.712313E3,8.853593E3,3.3390298E3,2.1961807E3,4.0681248E3,2.083303E3,5.616123E2,1.2302173E3,6.439446E3,3.2728677E3,8.640306E3,2.1328699E2,1.8854807E3,1.4535491E3,1.5935974E3,6.0258325E2,2.2522063E3,1.8159183E3,7.709762E2,1.3123268E3,3.713998E2,1.9021251E2,1.1404503E3,8.976701E1,9.450708E2,5.494375E3,2.8216587E3,4.5120905E2,6.076532E3,2.563774E3,1.15476006E2,9.781099E1,1.7926768E3,9.280399E1,1.01498535E2,1.3520505E3,1.3126508E3,2.8094662E2,4.772923E2,1.2529095E2,1.1454076E3,1.1067987E3,1.61256E3,2.0335834E2,4.7161566E2,2.993605E2,8.077163E2,5.0461047E2,2.0637306E2,1.6502675E2,8.874323E1,1.01469284E2,2.9644588E1,6.0122425E1,1.7512793E3,3.7430957E3,6.758956E1,2.754069E3,4.1015094E2,4.1058105E1,3.8124817E3,2.2640503E3,3.33185E2,2.2305889E3,7.537246E1,4.0103542E1,2.556025E1,7.225074E1,4.986793E0,1.78769E3,4.2564373E0,8.8547554E1,7.631508E1,2.5183462E1,1.2616897E3,9.036086E1,8.012724E2,5.1137842E2,2.769403E2,4.006336E0,7.536866E1,4.0192365E2,1.2390588E2,1.3850585E0,4.6979046E1,1.0984286E3,3.282697E1,1.0739717E3,1.609619E3,2.9410133E0,1.6144557E2,4.1912773E1,1.8574243E2,2.8587323E2,1.4942827E2,1.4993225E2,8.064933E2,1.2230228E0,3.2386856E2,1.8074191E2,1.5584524E0,2.0481462E2,1.1133099E2,5.369576E1,1.5404789E1,7.333844E1,1.2385836E0,1.002307E2,2.6981497E0,2.6946438E1],"tree_param":{"num_deleted":"0","num_feature":"2","num_nodes":"117","size_leaf_vector":"0"}},{"base_weights":[-3.711537E-1,-5.8628505E-1,1.4234722E-1,-6.7828083E-1,-4.0145358E-1,-4.228396E-3,9.254008E-1,-7.2183067E-1,-6.030741E-1,-4.8424116E-1,-3.0942518E-1,-6.1152708E-2,2.1146534E-1,6.6457444E-1,1.0269442E0,-8.170168E-1,-6.890063E-1,-6.3024473E-1,-4.2694184E-1,-5.3453016E-1,-4.1695672E-1,-1.1934218E-1,-3.2309124E-1,-1.3769342E-1,-5.5521755E-3,5.435405E-1,1.3851878E-1,8.72683E-1,2.8925407E-1,1.0442713E0,8.079957E-1,-9.0809417E-1,-7.925442E-1,-7.1677846E-1,-6.3278383E-1,-5.892003E-1,-6.890685E-1,-4.83224E-1,-2.4697341E-1,-4.7419778E-1,-6.598682E-1,-2.7851492E-1,-4.8441148E-1,-2.1123046E-1,1.7561963E-1,-3.3164358E-1,-1.3540055E-1,-1.0268581E-1,-2.3865971E-1,9.3516424E-2,-3.1456213E-2,4.4023883E-1,9.0053344E-1,8.092332E-2,2.545225E-1,9.884656E-1,7.1956223E-1,3.5875472E-1,5.8381554E-2,4.194246E-1,1.0172383E0,-8.524966E-1,-7.844619E-1,-4.311217E-1,-7.198031E-1,-5.372855E-1,-6.494322E-1,-6.4759547E-1,-5.026624E-1,-7.48083E-1,-6.5562505E-1,-2.1363153E-1,-5.409427E-1,-8.7599176E-1,-1.37491E-1,-4.8979467E-1,-2.0773359E-1,-6.448136E-1,-8.524551E-1,-3.3892748E-1,-7.302339E-2,-5.245576E-1,-2.5556147E-1,-1.4907233E-1,-8.30323E-1,5.6386995E-1,-7.254795E-2,-3.6673218E-1,-2.8068215E-1,-7.719583E-2,-9.0341455E-1,-1.1652514E-1,1.1214065E-2,-3.2817745E-1,-5.9489444E-2,1.2553014E-2,2.983391E-1,-1.3457131E0,-3.0197337E-2,3.4677503E-1,5.6497586E-1,4.8387283E-1,9.238923E-1,1.3744292E-1,-2.39477E-3,6.072727E-1,1.814362E-1,7.690371E-2,9.9523205E-1,5.8431876E-1,9.0221536E-1,2.3477776E-1,5.110169E-1,-8.442997E-1,1.7822798E-1,-1.6047835E-1,4.9280503E-1],"categories":[],"categories_nodes":[],"categories_segments":[],"categories_sizes":[],"default_left":[1,1,1,1,1,1,1,1,1,1,1,1,1,1,1,1,1,1,1,1,1,1,1,1,1,1,1,1,1,0,1,0,1,1,1,1,1,1,1,1,1,1,1,1,1,1,1,1,1,1,1,1,1,1,1,1,1,1,1,1,0,0,0,0,0,0,0,0,0,0,0,0,0,0,0,0,0,0,0,0,0,0,0,0,0,0,0,0,0,0,0,0,0,0,0,0,0,0,0,0,0,0,0,0,0,0,0,0,0,0,0,0,0,0,0,0,0],"id":7,"left_children":[1,3,5,7,9,11,13,15,17,19,21,23,25,27,29,31,33,35,37,39,41,43,45,47,49,51,53,55,57,-1,59,-1,61,63,65,67,69,71,73,75,77,79,81,83,85,87,89,91,93,95,97,99,101,103,105,107,109,111,113,115,-1,-1,-1,-1,-1,-1,-1,-1,-1,-1,-1,-1,-1,-1,-1,-1,-1,-1,-1,-1,-1,-1,-1,-1,-1,-1,-1,-1,-1,-1,-1,-1,-1,-1,-1,-1,-1,-1,-1,-1,-1,-1,-1,-1,-1,-1,-1,-1,-1,-1,-1,-1,-1,-1,-1,-1,-1],"loss_changes":[3.0908064E3,3.3499854E2,9.482169E2,4.2678223E1,4.9791626E1,8.5466835E1,3.381665E1,2.5467285E1,2.286145E1,1.1447327E1,8.032532E0,2.343678E1,3.5133255E1,2.8478973E1,2.7062378E0,4.029907E0,9.229004E0,9.698853E0,6.4549484E0,1.4585815E1,1.3683929E1,5.728389E0,4.607025E0,8.166031E0,8.192116E0,9.244774E0,7.9504223E0,3.4751892E0,2.1084251E0,0E0,5.5120583E0,0E0,1.4892578E-1,3.2695312E0,2.9246216E0,1.2166931E1,2.8927002E0,7.5617676E0,1.0668887E1,5.4405823E0,1.2991028E0,6.0227966E0,8.994736E0,6.0548377E0,4.8992467E0,4.8521423E0,5.6515713E0,2.716343E0,9.537121E0,1.0969151E1,4.1458445E0,2.1907845E0,1.1469269E-1,3.761424E0,1.0082436E1,7.363281E-1,2.0752716E0,1.8018122E0,3.6015153E0,1.2394004E0,0E0,0E0,0E0,0E0,0E0,0E0,0E0,0E0,0E0,0E0,0E0,0E0,0E0,0E0,0E0,0E0,0E0,0E0,0E0,0E0,0E0,0E0,0E0,0E0,0E0,0E0,0E0,0E0,0E0,0E0,0E0,0E0,0E0,0E0,0E0,0E0,0E0,0E0,0E0,0E0,0E0,0E0,0E0,0E0,0E0,0E0,0E0,0E0,0E0,0E0,0E0,0E0,0E0,0E0,0E0,0E0,0E0],"parents":[2147483647,0,0,1,1,2,2,3,3,4,4,5,5,6,6,7,7,8,8,9,9,10,10,11,11,12,12,13,13,14,14,15,15,16,16,17,17,18,18,19,19,20,20,21,21,22,22,23,23,24,24,25,25,26,26,27,27,28,28,30,30,32,32,33,33,34,34,35,35,36,36,37,37,38,38,39,39,40,40,41,41,42,42,43,43,44,44,45,45,46,46,47,47,48,48,49,49,50,50,51,51,52,52,53,53,54,54,55,55,56,56,57,57,58,58,59,59],"right_children":[2,4,6,8,10,12,14,16,18,20,22,24,26,28,30,32,34,36,38,40,42,44,46,48,50,52,54,56,58,-1,60,-1,62,64,66,68,70,72,74,76,78,80,82,84,86,88,90,92,94,96,98,100,102,104,106,108,110,112,114,116,-1,-1,-1,-1,-1,-1,-1,-1,-1,-1,-1,-1,-1,-1,-1,-1,-1,-1,-1,-1,-1,-1,-1,-1,-1,-1,-1,-1,-1,-1,-1,-1,-1,-1,-1,-1,-1,-1,-1,-1,-1,-1,-1,-1,-1,-1,-1,-1,-1,-1,-1,-1,-1,-1,-1,-1,-1],"split_conditions":[1.05E1,-5E-1,4.15E1,8.985E2,3.5E0,2.75E1,5.25E1,-6.5E0,2.3365E3,8.97E2,2.135E2,1.65E1,4.73E2,1.1715E3,2.175E3,-1.05E1,-2.5E0,1.279E3,2.6125E3,6.015E2,1.1265E3,1.915E2,2.4555E3,1.155E3,3.735E2,3.65E1,3.45E1,6.775E2,2.413E3,3.1328142E-1,6.75E1,-2.7242827E-1,1.745E2,8.75E1,2.375E2,-3.5E0,1.5195E3,2.399E3,-9.5E0,5.875E2,8.735E2,1.0675E3,2.4555E3,1.885E2,1.965E2,7.5E0,3.7925E3,1.0085E3,1.9705E3,3.24E2,3.745E2,3.15E1,1.45E2,1.1445E3,7.415E2,6.75E1,4.65E1,4.65E1,2.438E3,2.232E3,3.051715E-1,-2.55749E-1,-2.3533858E-1,-1.2933652E-1,-2.1594094E-1,-1.6118565E-1,-1.9482966E-1,-1.9427864E-1,-1.5079874E-1,-2.2442491E-1,-1.9668752E-1,-6.408946E-2,-1.6228282E-1,-2.6279753E-1,-4.12473E-2,-1.4693841E-1,-6.232008E-2,-1.9344409E-1,-2.5573653E-1,-1.01678245E-1,-2.1907017E-2,-1.5736729E-1,-7.666844E-2,-4.47217E-2,-2.490969E-1,1.6916099E-1,-2.1764386E-2,-1.1001966E-1,-8.4204644E-2,-2.315875E-2,-2.7102438E-1,-3.4957543E-2,3.3642198E-3,-9.845324E-2,-1.7846834E-2,3.7659043E-3,8.950173E-2,-4.0371397E-1,-9.059202E-3,1.0403251E-1,1.6949277E-1,1.4516185E-1,2.771677E-1,4.1232876E-2,-7.18431E-4,1.821818E-1,5.443086E-2,2.3071114E-2,2.9856962E-1,1.7529564E-1,2.7066463E-1,7.043333E-2,1.5330508E-1,-2.532899E-1,5.3468395E-2,-4.814351E-2,1.4784151E-1],"split_indices":[0,0,0,1,0,0,0,0,1,1,1,0,1,1,1,0,0,1,1,1,1,1,1,1,1,0,0,1,1,0,0,0,1,1,1,0,1,1,0,1,1,1,1,1,1,0,1,1,1,1,1,0,1,1,1,1,0,0,1,1,0,0,0,0,0,0,0,0,0,0,0,0,0,0,0,0,0,0,0,0,0,0,0,0,0,0,0,0,0,0,0,0,0,0,0,0,0,0,0,0,0,0,0,0,0,0,0,0,0,0,0,0,0,0,0,0,0],"split_type":[0,0,0,0,0,0,0,0,0,0,0,0,0,0,0,0,0,0,0,0,0,0,0,0,0,0,0,0,0,0,0,0,0,0,0,0,0,0,0,0,0,0,0,0,0,0,0,0,0,0,0,0,0,0,0,0,0,0,0,0,0,0,0,0,0,0,0,0,0,0,0,0,0,0,0,0,0,0,0,0,0,0,0,0,0,0,0,0,0,0,0,0,0,0,0,0,0,0,0,0,0,0,0,0,0,0,0,0,0,0,0,0,0,0,0,0,0],"sum_hessian":[2.7976898E4,1.9716516E4,8.260383E3,1.3162503E4,6.554013E3,6.958797E3,1.3015854E3,8.330172E3,4.832331E3,3.447987E3,3.1060264E3,5.5063247E3,1.4524724E3,3.668451E2,9.347404E2,2.1298884E3,6.200283E3,4.184276E3,6.4805505E2,1.9692252E3,1.4787617E3,2.0898343E2,2.897043E3,2.3162524E3,3.190072E3,2.6043613E2,1.1920363E3,2.351393E2,1.317058E2,8.6269855E2,7.204186E1,4.4344653E2,1.686442E3,4.1423486E3,2.0579346E3,2.4710867E3,1.713189E3,4.9238477E2,1.556703E2,1.3325675E3,6.3665784E2,4.8614447E2,9.926172E2,1.5956015E2,4.9423267E1,2.7700552E3,1.2698771E2,1.7214115E3,5.948409E2,6.606897E2,2.5293823E3,2.0371976E2,5.671637E1,7.976856E2,3.9435065E2,1.3078809E2,1.04351204E2,1.00805824E2,3.0899967E1,2.626721E1,4.5774654E1,1.879322E2,1.4985098E3,4.4905575E1,4.097443E3,3.104428E2,1.7474918E3,1.471587E3,9.994997E2,6.1195764E2,1.1012313E3,8.765716E1,4.0472763E2,2.2040129E1,1.3363017E2,1.2580898E3,7.44776E1,5.9453125E2,4.212655E1,3.7519217E2,1.1095231E2,8.4337555E2,1.4924162E2,1.4612927E2,1.343088E1,1.8776262E1,3.0647003E1,1.636841E3,1.1332142E3,1.1906477E2,7.9229317E0,1.5348923E3,1.8651918E2,3.9610547E2,1.987354E2,4.7427646E2,1.8641325E2,1.3984807E0,2.527984E3,1.1861966E2,8.51001E1,4.163595E0,5.2552776E1,4.7488995E2,3.2279565E2,6.642795E1,3.279227E2,1.0547869E0,1.297333E2,6.2369484E1,4.198172E1,5.696497E1,4.3840855E1,2.91317E0,2.7986797E1,2.8171563E0,2.3450054E1],"tree_param":{"num_deleted":"0","num_feature":"2","num_nodes":"117","size_leaf_vector":"0"}},{"base_weights":[-3.008198E-1,-5.1336414E-1,7.068646E-2,-6.013906E-1,-3.7624905E-1,-3.0916125E-2,8.71108E-1,-6.494978E-1,-5.195946E-1,-4.432999E-1,-2.9168648E-1,-1.136501E-1,7.575087E-2,5.740156E-1,1.0005714E0,-7.392749E-1,-6.1384946E-1,-5.472766E-1,-3.5208312E-1,-4.5534086E-1,-2.474243E-1,-3.2547334E-1,-2.4991074E-1,-1.7971459E-1,-7.6949485E-2,3.3269033E-2,2.2662252E-1,8.0037683E-1,2.115214E-1,1.0233868E0,7.340128E-1,-8.4639984E-1,-7.1140045E-1,-5.402981E-1,-6.293711E-1,-4.94493E-1,-5.919254E-1,-4.7560173E-1,-2.6631218E-1,3.4866862E-3,-4.591724E-1,1.7341474E-1,-3.035862E-1,-3.702351E-1,-2.7036026E-1,6.329373E-2,-2.5746912E-1,8.7531505E-4,-1.9382983E-1,-5.1783662E-2,-1.4254662E-1,1.1264347E-1,-5.3377063E-3,4.9181175E-1,1.1532138E-1,9.492714E-1,6.2655836E-1,-4.5164612E-1,2.3932613E-1,8.3289105E-1,1.0304476E0,3.026561E-1,9.6832687E-1,-8.7426513E-1,-7.699773E-1,-7.8011495E-1,-7.0230585E-1,-5.729887E-1,-2.891107E-1,-6.63276E-1,-6.0459584E-1,-5.577417E-1,-2.74757E-1,-6.1333543E-1,-5.52003E-1,-1.9631101E-1,-5.4923826E-1,-4.0373743E-1,-1.2022552E-1,-5.189691E-2,6.202516E-1,-9.8373586E-1,-4.559123E-1,-1.765618E-1,5.3162444E-1,-5.8722144E-1,-2.3029503E-1,-3.1686676E-1,-5.1861876E-1,2.837921E0,-2.839859E-1,-1.9284879E-1,1.0942076E0,-2.5484937E-1,-9.138036E-1,-1.17345445E-1,2.977562E-1,-2.0293748E-1,-8.875444E-3,-6.560193E-2,1.5480103E-1,-1.800638E-1,-2.3706926E-2,4.2797115E-2,1.5304291E-1,-1.1561282E0,-2.145879E-3,3.4400475E-1,6.741364E-1,-2.2666204E-1,1.3183214E-1,6.5808535E-2,9.577285E-1,4.7456548E-1,8.530025E-1,-7.8362864E-1,2.352751E-1,9.565785E-1,1.8401481E-1,9.6069217E-1,9.199077E-3,4.3667582E-1,-1.908134E-1,2.3264633E-1,9.908661E-1],"categories":[],"categories_nodes":[],"categories_segments":[],"categories_sizes":[],"default_left":[1,1,1,1,1,1,1,1,1,1,1,1,1,1,1,1,1,1,1,1,1,1,1,1,1,1,1,1,1,1,1,1,1,1,1,1,1,1,1,1,1,1,1,1,1,1,1,1,1,1,1,1,1,1,1,1,1,1,1,1,0,1,1,0,0,0,0,0,0,0,0,0,0,0,0,0,0,0,0,0,0,0,0,0,0,0,0,0,0,0,0,0,0,0,0,0,0,0,0,0,0,0,0,0,0,0,0,0,0,0,0,0,0,0,0,0,0,0,0,0,0,0,0,0,0],"id":8,"left_children":[1,3,5,7,9,11,13,15,17,19,21,23,25,27,29,31,33,35,37,39,41,43,45,47,49,51,53,55,57,59,61,63,65,67,69,71,73,75,77,79,81,83,85,87,89,91,93,95,97,99,101,103,105,107,109,111,113,115,117,119,-1,121,123,-1,-1,-1,-1,-1,-1,-1,-1,-1,-1,-1,-1,-1,-1,-1,-1,-1,-1,-1,-1,-1,-1,-1,-1,-1,-1,-1,-1,-1,-1,-1,-1,-1,-1,-1,-1,-1,-1,-1,-1,-1,-1,-1,-1,-1,-1,-1,-1,-1,-1,-1,-1,-1,-1,-1,-1,-1,-1,-1,-1,-1,-1],"loss_changes":[1.9661204E3,1.9093652E2,7.369991E2,3.7611816E1,3.499707E1,7.098179E1,3.8687195E1,1.8968018E1,1.6391724E1,8.032288E0,3.789917E0,1.0968845E1,2.2512398E1,2.5444794E1,3.5644531E0,4.5335693E0,4.6256104E0,6.9365234E0,5.2766113E0,5.719116E0,4.8313417E0,3.632492E0,2.9297104E0,4.1218567E0,4.8026237E0,8.40567E0,2.2723934E1,4.3692093E0,2.3457942E0,1.751709E-2,5.7193108E0,7.18689E-2,3.0895996E-1,6.1163177E0,2.610962E0,1.9467377E1,1.0775146E0,4.164604E0,6.0399933E0,9.861071E-1,5.0671997E0,3.1580071E0,3.5804958E0,6.4260025E0,2.9682487E1,8.080583E0,1.8336563E0,4.1840296E0,2.524479E0,6.026067E0,3.59519E0,2.5261803E0,6.7790184E0,5.9087334E0,3.1068778E0,6.9433594E-1,2.742241E0,1.3769847E0,4.4706244E0,2.9899998E0,0E0,1.5643036E0,4.011116E-1,0E0,0E0,0E0,0E0,0E0,0E0,0E0,0E0,0E0,0E0,0E0,0E0,0E0,0E0,0E0,0E0,0E0,0E0,0E0,0E0,0E0,0E0,0E0,0E0,0E0,0E0,0E0,0E0,0E0,0E0,0E0,0E0,0E0,0E0,0E0,0E0,0E0,0E0,0E0,0E0,0E0,0E0,0E0,0E0,0E0,0E0,0E0,0E0,0E0,0E0,0E0,0E0,0E0,0E0,0E0,0E0,0E0,0E0,0E0,0E0,0E0,0E0],"parents":[2147483647,0,0,1,1,2,2,3,3,4,4,5,5,6,6,7,7,8,8,9,9,10,10,11,11,12,12,13,13,14,14,15,15,16,16,17,17,18,18,19,19,20,20,21,21,22,22,23,23,24,24,25,25,26,26,27,27,28,28,29,29,30,30,31,31,32,32,33,33,34,34,35,35,36,36,37,37,38,38,39,39,40,40,41,41,42,42,43,43,44,44,45,45,46,46,47,47,48,48,49,49,50,50,51,51,52,52,53,53,54,54,55,55,56,56,57,57,58,58,59,59,61,61,62,62],"right_children":[2,4,6,8,10,12,14,16,18,20,22,24,26,28,30,32,34,36,38,40,42,44,46,48,50,52,54,56,58,60,62,64,66,68,70,72,74,76,78,80,82,84,86,88,90,92,94,96,98,100,102,104,106,108,110,112,114,116,118,120,-1,122,124,-1,-1,-1,-1,-1,-1,-1,-1,-1,-1,-1,-1,-1,-1,-1,-1,-1,-1,-1,-1,-1,-1,-1,-1,-1,-1,-1,-1,-1,-1,-1,-1,-1,-1,-1,-1,-1,-1,-1,-1,-1,-1,-1,-1,-1,-1,-1,-1,-1,-1,-1,-1,-1,-1,-1,-1,-1,-1,-1,-1,-1,-1],"split_conditions":[7.5E0,-1.5E0,4.15E1,8.985E2,1.5E0,1.95E1,5.25E1,-6.5E0,2.3365E3,2.3365E3,4.5E0,1.15E1,3.15E1,1.1895E3,2.175E3,-1.05E1,2.385E2,1.128E3,-5.5E0,9.9E1,2.399E3,8.97E2,1.295E2,2.225E2,1.0845E3,5.885E2,7.255E2,6.775E2,1.21E3,5.45E1,6.55E1,5.82E2,1.745E2,2.275E2,4.615E2,1.0685E3,1.6195E3,2.418E3,2.539E3,9.55E1,1.04E2,2.344E3,2.4555E3,6.465E2,8.995E2,1.115E2,3.7925E3,1.935E2,2.4515E3,1.0185E3,2.144E3,3.075E2,5.895E2,3.55E1,7.625E2,6.75E1,4.65E1,4.75E1,1.2725E3,1.446E3,3.091343E-1,2.6125E3,2.2E3,-2.6227954E-1,-2.309932E-1,-2.340345E-1,-2.1069176E-1,-1.718966E-1,-8.673321E-2,-1.9898282E-1,-1.8137875E-1,-1.6732252E-1,-8.24271E-2,-1.8400064E-1,-1.6560091E-1,-5.8893304E-2,-1.6477148E-1,-1.21121235E-1,-3.6067657E-2,-1.5569074E-2,1.8607548E-1,-2.9512078E-1,-1.3677369E-1,-5.2968543E-2,1.5948734E-1,-1.7616645E-1,-6.908851E-2,-9.506003E-2,-1.5558563E-1,8.513763E-1,-8.519578E-2,-5.7854638E-2,3.282623E-1,-7.645482E-2,-2.7414107E-1,-3.5203636E-2,8.932686E-2,-6.0881246E-2,-2.662633E-3,-1.968058E-2,4.644031E-2,-5.4019142E-2,-7.112078E-3,1.2839135E-2,4.5912877E-2,-3.4683847E-1,-6.437637E-4,1.0320143E-1,2.0224093E-1,-6.799862E-2,3.954964E-2,1.9742562E-2,2.8731856E-1,1.4236964E-1,2.5590077E-1,-2.350886E-1,7.058253E-2,2.8697357E-1,5.5204447E-2,2.8820765E-1,2.7597232E-3,1.3100275E-1,-5.7244025E-2,6.97939E-2,2.9725984E-1],"split_indices":[0,0,0,1,0,0,0,0,1,1,0,0,0,1,1,0,1,1,0,1,1,1,1,1,1,1,1,1,1,0,0,1,1,1,1,1,1,1,1,1,1,1,1,1,1,1,1,1,1,1,1,1,1,0,1,1,0,0,1,1,0,1,1,0,0,0,0,0,0,0,0,0,0,0,0,0,0,0,0,0,0,0,0,0,0,0,0,0,0,0,0,0,0,0,0,0,0,0,0,0,0,0,0,0,0,0,0,0,0,0,0,0,0,0,0,0,0,0,0,0,0,0,0,0,0],"split_type":[0,0,0,0,0,0,0,0,0,0,0,0,0,0,0,0,0,0,0,0,0,0,0,0,0,0,0,0,0,0,0,0,0,0,0,0,0,0,0,0,0,0,0,0,0,0,0,0,0,0,0,0,0,0,0,0,0,0,0,0,0,0,0,0,0,0,0,0,0,0,0,0,0,0,0,0,0,0,0,0,0,0,0,0,0,0,0,0,0,0,0,0,0,0,0,0,0,0,0,0,0,0,0,0,0,0,0,0,0,0,0,0,0,0,0,0,0,0,0,0,0,0,0,0,0],"sum_hessian":[2.489826E4,1.5837186E4,9.061073E3,9.643054E3,6.1941323E3,8.041302E3,1.0197721E3,6.0675615E3,3.5754924E3,3.452419E3,2.7417131E3,4.52867E3,3.5126313E3,3.1115894E2,7.086131E2,1.7189088E3,4.3486523E3,3.0664758E3,5.090165E2,3.251233E3,2.0118613E2,1.5120366E3,1.2296765E3,1.615937E3,2.9127332E3,2.741821E3,7.708105E2,1.9080309E2,1.2035585E2,6.5012756E2,5.8485588E1,3.4885468E2,1.3700542E3,7.6402405E2,3.5846284E3,1.4107571E3,1.6557189E3,2.0674222E2,3.022743E2,2.6926096E1,3.224307E3,2.344177E1,1.7774435E2,8.3121924E2,6.808174E2,2.8802092E1,1.2008744E3,1.17216156E2,1.498721E3,2.1064136E3,8.0631946E2,8.965729E2,1.845248E3,2.2686258E2,5.4394794E2,1.0036673E2,9.043636E1,4.229722E0,1.1612613E2,2.7487423E1,6.2264014E2,2.1393408E1,3.709218E1,2.4799178E2,1.00862885E2,1.5022714E2,1.219827E3,6.7490765E2,8.9116394E1,1.5025787E3,2.0820496E3,1.0942502E3,3.165068E2,1.0683873E3,5.8733154E2,4.390063E1,1.628416E2,1.5484567E2,1.474286E2,2.5547834E1,1.378261E0,1.8057447E1,3.2062493E3,1.21136465E1,1.1328124E1,3.505811E1,1.4268623E2,6.136475E2,2.1757172E2,2.0667753E0,6.787506E2,2.3721216E1,5.080877E0,1.197483E3,3.3914423E0,8.426556E1,3.29506E1,1.4282908E3,7.0430115E1,1.9749906E3,1.3142291E2,6.1245496E2,1.9386452E2,3.293027E2,5.672702E2,4.1047225E0,1.8411433E3,1.2688566E2,9.997692E1,2.4465778E1,5.194821E2,1.0349349E0,9.9331795E1,5.5966488E1,3.4469875E1,2.7566671E0,1.473055E0,7.1474023E0,1.0897873E2,2.3651426E1,3.8359962E0,1.6914694E1,4.478713E0,1.4391819E0,3.5652996E1],"tree_param":{"num_deleted":"0","num_feature":"2","num_nodes":"125","size_leaf_vector":"0"}},{"base_weights":[-2.3824187E-1,-4.3632355E-1,3.7392057E-2,-5.100639E-1,-3.127664E-1,-2.786209E-2,9.159821E-1,-5.599614E-1,-4.2844835E-1,-3.7102434E-1,-2.5377044E-1,-7.609749E-2,1.19141966E-1,9.954346E-1,5.8061016E-1,-6.574142E-1,-5.226475E-1,-4.5533082E-1,-2.7496403E-1,-4.1906467E-1,-2.9985183E-1,-2.5821063E-1,3.391385E-1,-1.3308048E-1,-2.80657E-2,3.1205484E-1,8.0120005E-2,7.7726376E-1,1.0119861E0,2.177483E-1,9.839548E-1,-7.804013E-1,-6.266034E-1,-5.5418783E-1,-4.7931725E-1,-8.35704E-1,-4.49117E-1,-4.1622943E-1,-2.1376336E-1,-2.6670226E-1,-4.6287647E-1,8.700366E-1,-3.0745673E-1,-1.6373356E-1,-2.7791733E-1,1.0791321E0,-2.24961E-1,-1.6804191E-1,-9.937406E-2,4.387617E-2,-4.5590945E-2,1.5605606E-1,6.8310386E-1,5.6716345E-2,2.5571477E-1,9.8586035E-1,5.3796846E-1,1.0195483E0,7.481002E-1,-9.2911726E-1,2.57932E-1,-8.132184E-1,-6.931236E-1,-4.199769E-1,-6.296102E-1,-5.611045E-1,-3.8467512E-1,-3.486766E-1,-5.068658E-1,-3.9458615E-1,-4.961595E-1,-1.9403663E-1,-4.8293057E-1,-1.91691E-1,-9.2383707E-1,-2.7795294E-1,7.6092035E-1,-4.5209658E-1,-6.158554E-1,-5.5273026E-1,2.1558723E0,-2.2120571E-1,-3.787511E-1,-2.4583007E-1,5.5454373E-1,-3.359313E-1,-2.2741671E-1,4.604552E-1,1.8588636E0,2.030738E-1,-5.476371E-1,-1.2922674E-1,-2.0588621E-1,-7.9166256E-2,-1.4819506E-1,-1.1905265E-2,2.560721E-1,-4.7692916E-1,-3.971319E-2,5.594217E-1,1.3489597E-1,-3.6168095E-1,7.045066E-1,5.8979448E-2,-1.2913195E0,4.206547E-1,3.4920145E-2,-1.3378187E-1,5.983591E-1,1.2404447E-1,8.865775E-1,4.200566E-1,4.4599637E-2],"categories":[],"categories_nodes":[],"categories_segments":[],"categories_sizes":[],"default_left":[1,1,1,1,1,1,1,1,1,1,1,1,1,1,1,1,1,1,1,1,1,1,1,1,1,1,1,1,1,1,0,1,1,1,1,0,1,1,1,1,1,1,1,1,1,1,1,1,1,1,1,1,1,1,1,0,1,0,1,0,1,0,0,0,0,0,0,0,0,0,0,0,0,0,0,0,0,0,0,0,0,0,0,0,0,0,0,0,0,0,0,0,0,0,0,0,0,0,0,0,0,0,0,0,0,0,0,0,0,0,0,0,0],"id":9,"left_children":[1,3,5,7,9,11,13,15,17,19,21,23,25,27,29,31,33,35,37,39,41,43,45,47,49,51,53,55,57,59,-1,61,63,65,67,-1,69,71,73,75,77,79,81,83,85,87,89,91,93,95,97,99,101,103,105,-1,107,-1,109,-1,111,-1,-1,-1,-1,-1,-1,-1,-1,-1,-1,-1,-1,-1,-1,-1,-1,-1,-1,-1,-1,-1,-1,-1,-1,-1,-1,-1,-1,-1,-1,-1,-1,-1,-1,-1,-1,-1,-1,-1,-1,-1,-1,-1,-1,-1,-1,-1,-1,-1,-1,-1,-1],"loss_changes":[1.2334802E3,1.19608154E2,5.416681E2,3.327832E1,1.6800781E1,6.2375015E1,1.682727E1,1.8218262E1,1.2776978E1,8.323486E0,6.5256805E0,1.8123352E1,1.633558E1,1.1153564E0,1.8447712E1,4.8518677E0,4.7856445E0,5.9104004E0,3.962204E0,9.707825E0,9.1584015E0,4.474823E0,8.01117E0,3.5527077E0,4.534604E0,2.1038685E1,7.419833E0,1.5387325E0,2.0758057E-1,3.3922088E0,0E0,2.3339844E-1,4.3896484E-1,2.284607E0,5.453583E0,0E0,6.522339E0,1.9898624E0,4.9793196E0,4.0415764E0,1.6056976E0,1.347692E1,6.0261383E0,2.4988945E1,5.804886E0,3.1106243E0,1.684026E0,2.155281E0,1.5121241E0,8.344536E0,7.3113856E0,2.130722E0,2.666027E0,4.9499197E0,7.723034E0,0E0,9.525032E-1,0E0,1.3852015E0,0E0,2.2941995E0,0E0,0E0,0E0,0E0,0E0,0E0,0E0,0E0,0E0,0E0,0E0,0E0,0E0,0E0,0E0,0E0,0E0,0E0,0E0,0E0,0E0,0E0,0E0,0E0,0E0,0E0,0E0,0E0,0E0,0E0,0E0,0E0,0E0,0E0,0E0,0E0,0E0,0E0,0E0,0E0,0E0,0E0,0E0,0E0,0E0,0E0,0E0,0E0,0E0,0E0,0E0,0E0],"parents":[2147483647,0,0,1,1,2,2,3,3,4,4,5,5,6,6,7,7,8,8,9,9,10,10,11,11,12,12,13,13,14,14,15,15,16,16,17,17,18,18,19,19,20,20,21,21,22,22,23,23,24,24,25,25,26,26,27,27,28,28,29,29,31,31,32,32,33,33,34,34,36,36,37,37,38,38,39,39,40,40,41,41,42,42,43,43,44,44,45,45,46,46,47,47,48,48,49,49,50,50,51,51,52,52,53,53,54,54,56,56,58,58,60,60],"right_children":[2,4,6,8,10,12,14,16,18,20,22,24,26,28,30,32,34,36,38,40,42,44,46,48,50,52,54,56,58,60,-1,62,64,66,68,-1,70,72,74,76,78,80,82,84,86,88,90,92,94,96,98,100,102,104,106,-1,108,-1,110,-1,112,-1,-1,-1,-1,-1,-1,-1,-1,-1,-1,-1,-1,-1,-1,-1,-1,-1,-1,-1,-1,-1,-1,-1,-1,-1,-1,-1,-1,-1,-1,-1,-1,-1,-1,-1,-1,-1,-1,-1,-1,-1,-1,-1,-1,-1,-1,-1,-1,-1,-1,-1,-1],"split_conditions":[5.5E0,-1.5E0,4.65E1,8.985E2,5E-1,2.45E1,1.556E3,-6.5E0,2.3365E3,9.185E2,2.7695E3,1.35E1,4.515E2,4.95E1,6.55E1,-1.05E1,-3.5E0,-1.35E1,-6.5E0,2.925E2,9.195E2,3.375E2,3.148E3,9.5E0,3.425E2,3.25E1,3.95E1,7.13E2,1.4365E3,1.588E3,2.9518646E-1,5.82E2,8.75E1,8.605E2,2.445E2,-2.5071123E-1,1.128E3,2.418E3,3.7925E3,2.895E2,8.665E2,-5E-1,1.279E3,3.275E2,8.97E2,3.5E0,3.7925E3,7.765E2,1.0855E3,3.075E2,3.585E2,1.095E2,6.75E1,4.3725E3,1.367E3,2.9575813E-1,7.605E2,3.058645E-1,5.45E1,-2.787352E-1,2.391E3,-2.4396554E-1,-2.0793708E-1,-1.2599307E-1,-1.8888307E-1,-1.6833135E-1,-1.1540254E-1,-1.04602985E-1,-1.5205975E-1,-1.18375845E-1,-1.4884785E-1,-5.821099E-2,-1.4487918E-1,-5.7507303E-2,-2.7715114E-1,-8.3385885E-2,2.2827612E-1,-1.3562898E-1,-1.8475662E-1,-1.6581908E-1,6.467617E-1,-6.636172E-2,-1.1362533E-1,-7.374903E-2,1.6636312E-1,-1.0077939E-1,-6.822502E-2,1.3813657E-1,5.576591E-1,6.0922142E-2,-1.6429114E-1,-3.8768023E-2,-6.176587E-2,-2.3749879E-2,-4.445852E-2,-3.5715797E-3,7.682163E-2,-1.4307876E-1,-1.1913957E-2,1.6782652E-1,4.046879E-2,-1.0850429E-1,2.1135198E-1,1.7693834E-2,-3.8739586E-1,1.2619641E-1,1.0476043E-2,-4.013456E-2,1.7950773E-1,3.7213344E-2,2.6597327E-1,1.2601699E-1,1.3379891E-2],"split_indices":[0,0,0,1,0,0,1,0,1,1,1,0,1,0,0,0,0,0,0,1,1,1,1,0,1,0,0,1,1,1,0,1,1,1,1,0,1,1,1,1,1,0,1,1,1,0,1,1,1,1,1,1,1,1,1,0,1,0,0,0,1,0,0,0,0,0,0,0,0,0,0,0,0,0,0,0,0,0,0,0,0,0,0,0,0,0,0,0,0,0,0,0,0,0,0,0,0,0,0,0,0,0,0,0,0,0,0,0,0,0,0,0,0],"split_type":[0,0,0,0,0,0,0,0,0,0,0,0,0,0,0,0,0,0,0,0,0,0,0,0,0,0,0,0,0,0,0,0,0,0,0,0,0,0,0,0,0,0,0,0,0,0,0,0,0,0,0,0,0,0,0,0,0,0,0,0,0,0,0,0,0,0,0,0,0,0,0,0,0,0,0,0,0,0,0,0,0,0,0,0,0,0,0,0,0,0,0,0,0,0,0,0,0,0,0,0,0,0,0,0,0,0,0,0,0,0,0,0,0],"sum_hessian":[2.2590727E4,1.3144194E4,9.446533E3,8.229566E3,4.9146274E3,8.794333E3,6.5219946E2,5.1035425E3,3.1260242E3,2.4701194E3,2.4445083E3,6.6219893E3,2.1723442E3,5.256908E2,1.265087E2,1.4084541E3,3.6950881E3,2.6584377E3,4.6758633E2,1.4717932E3,9.98326E2,2.4268982E3,1.7610086E1,3.0279636E3,3.5940254E3,3.643096E2,1.8080345E3,4.045137E1,4.852394E2,6.740702E1,5.9101677E1,2.772859E2,1.1311682E3,2.1316545E3,1.5634335E3,4.058476E1,2.617853E3,1.3958672E2,3.2799963E2,3.302799E2,1.1415133E3,5.715319E0,9.926107E2,4.2045898E2,2.0064393E3,7.222497E0,1.0387589E1,1.4843552E3,1.5436084E3,7.037203E2,2.8903052E3,2.5747916E2,1.06830444E2,1.596564E3,2.1147058E2,1.994512E1,2.0506248E1,4.6893765E2,1.6301771E1,1.532987E0,6.587404E1,1.9547002E2,8.181587E1,1.8241999E1,1.1129263E3,2.045867E3,8.578776E1,2.746492E2,1.2887843E3,1.2167756E3,1.4010774E3,3.313095E1,1.06455765E2,3.1934293E2,8.656687E0,3.274247E2,2.8552108E0,1.070065E3,7.144838E1,2.9838512E0,2.731468E0,4.5104498E2,5.415657E2,3.7792166E2,4.253734E1,9.311284E2,1.0753109E3,4.914012E0,2.3084853E0,4.6241894E0,5.7634E0,7.349576E2,7.493977E2,1.0935796E3,4.5002884E2,5.579832E2,1.4573706E2,3.77787E1,2.8525266E3,1.1565902E1,2.4591325E2,1.8253669E0,1.0500508E2,1.5948428E3,1.7211978E0,1.2052772E2,9.094286E1,1.5912163E0,1.8915033E1,3.3047051E0,1.29970665E1,3.6878635E1,2.89954E1],"tree_param":{"num_deleted":"0","num_feature":"2","num_nodes":"113","size_leaf_vector":"0"}},{"base_weights":[-1.8453762E-1,-3.6705583E-1,1.4706303E-2,-4.5539382E-1,-2.9583812E-1,-3.1228743E-2,8.7340033E-1,-4.9651256E-1,-3.391762E-1,-3.400459E-1,-2.3618641E-1,-8.57165E-2,4.583365E-2,9.873514E-1,5.3664947E-1,-6.611532E-1,-4.7175676E-1,4.2978782E-2,-3.678768E-1,-3.474039E-1,1.3494952E-1,-8.260033E-2,-2.5120002E-1,-1.2785318E-1,-4.7360662E-2,1.9372525E-2,2.0917127E-1,7.367599E-1,1.0065101E0,2.0337732E-1,9.716266E-1,-7.6712126E-1,-6.3294446E-1,-4.6434334E-1,-6.536718E-1,-1.0358334E-1,1.0732546E0,-4.4636384E-1,-2.8438896E-1,-3.9634433E-1,-3.1771308E-1,2.517791E-1,-7.845566E-1,-1.4203598E-1,3.974888E-1,-3.160989E-1,-1.8421818E-1,1.09347865E-1,-1.3417785E-1,-9.799353E-3,-8.108368E-2,4.4903472E-2,-4.568366E-2,5.4331213E-1,1.009342E-1,8.621979E-1,2.2797287E-1,2.6695237E-1,-1.0162122E-1,-6.438133E-1,-3.804544E-1,-4.737313E-1,-1.29313E-1,-7.4607897E-1,-5.820324E-1,-2.425935E-2,-5.514189E-1,1.7738273E0,2.2789855E-1,-5.315467E-1,-4.086972E-1,-3.028173E-1,4.5143537E-2,-2.901238E-1,-4.3845892E-1,-2.64072E-2,-3.3022636E-1,-1.0089532E-2,5.9790784E-1,-1.1495225E-1,-6.174263E-1,9.5762014E-1,4.7181234E-2,-2.7742666E-1,-4.6231255E-1,-4.0172845E-2,-2.4958056E-1,7.0930906E-3,8.664547E-1,-6.5179634E-1,-1.3050932E-1,-1.4582524E-2,6.8432766E-1,-9.43399E-2,9.0605594E-2,2.3519667E-2,1.7288473E-1,-6.9303596E-1,-3.1398866E-2,4.2896324E-1,7.316209E-1,-4.962685E-1,1.2280509E-1,9.625305E-1,5.8831596E-1,-9.393383E-2,7.083306E-1,1.6037981E-1,4.5964077E-1,-6.401659E-1,3.7661988E-1],"categories":[],"categories_nodes":[],"categories_segments":[],"categories_sizes":[],"default_left":[1,1,1,1,1,1,1,1,1,1,1,1,1,1,1,1,1,1,1,1,1,1,1,1,1,1,1,1,0,1,0,0,1,1,1,1,1,1,1,1,1,1,0,1,1,1,1,1,1,1,1,1,1,1,1,1,1,1,1,0,0,0,0,0,0,0,0,0,0,0,0,0,0,0,0,0,0,0,0,0,0,0,0,0,0,0,0,0,0,0,0,0,0,0,0,0,0,0,0,0,0,0,0,0,0,0,0,0,0,0,0],"id":10,"left_children":[1,3,5,7,9,11,13,15,17,19,21,23,25,27,29,31,33,35,37,39,41,43,45,47,49,51,53,55,-1,57,-1,-1,59,61,63,65,67,69,71,73,75,77,-1,79,81,83,85,87,89,91,93,95,97,99,101,103,105,107,109,-1,-1,-1,-1,-1,-1,-1,-1,-1,-1,-1,-1,-1,-1,-1,-1,-1,-1,-1,-1,-1,-1,-1,-1,-1,-1,-1,-1,-1,-1,-1,-1,-1,-1,-1,-1,-1,-1,-1,-1,-1,-1,-1,-1,-1,-1,-1,-1,-1,-1,-1,-1],"loss_changes":[7.592646E2,6.841858E1,3.937918E2,2.3065125E1,1.5836487E1,3.9797012E1,1.8923065E1,1.4316528E1,1.3986603E1,1.2154938E1,5.9108887E0,8.966919E0,1.6964325E1,1.0711975E0,1.8700222E1,9.093323E-1,3.9088135E0,1.3682305E1,7.637329E0,4.831726E0,5.9520154E0,6.6353292E0,1.0126221E1,3.9827232E0,3.6826472E0,5.6155787E0,1.9736965E1,1.7530823E0,0E0,1.4828343E0,0E0,0E0,7.821045E-1,9.389038E0,3.5917282E-1,2.8141432E0,6.2767353E0,1.7367172E0,3.517105E0,5.6177673E0,7.75029E0,4.382634E0,0E0,2.580019E0,4.9902396E0,6.5921555E0,1.0867447E1,5.3546147E0,4.8079033E0,4.581207E0,3.4955902E0,6.6398478E0,8.791192E0,2.5643845E0,5.475873E0,9.727287E-2,1.2110126E0,1.2076898E0,3.7628307E0,0E0,0E0,0E0,0E0,0E0,0E0,0E0,0E0,0E0,0E0,0E0,0E0,0E0,0E0,0E0,0E0,0E0,0E0,0E0,0E0,0E0,0E0,0E0,0E0,0E0,0E0,0E0,0E0,0E0,0E0,0E0,0E0,0E0,0E0,0E0,0E0,0E0,0E0,0E0,0E0,0E0,0E0,0E0,0E0,0E0,0E0,0E0,0E0,0E0,0E0,0E0,0E0],"parents":[2147483647,0,0,1,1,2,2,3,3,4,4,5,5,6,6,7,7,8,8,9,9,10,10,11,11,12,12,13,13,14,14,15,15,16,16,17,17,18,18,19,19,20,20,21,21,22,22,23,23,24,24,25,25,26,26,27,27,29,29,32,32,33,33,34,34,35,35,36,36,37,37,38,38,39,39,40,40,41,41,43,43,44,44,45,45,46,46,47,47,48,48,49,49,50,50,51,51,52,52,53,53,54,54,55,55,56,56,57,57,58,58],"right_children":[2,4,6,8,10,12,14,16,18,20,22,24,26,28,30,32,34,36,38,40,42,44,46,48,50,52,54,56,-1,58,-1,-1,60,62,64,66,68,70,72,74,76,78,-1,80,82,84,86,88,90,92,94,96,98,100,102,104,106,108,110,-1,-1,-1,-1,-1,-1,-1,-1,-1,-1,-1,-1,-1,-1,-1,-1,-1,-1,-1,-1,-1,-1,-1,-1,-1,-1,-1,-1,-1,-1,-1,-1,-1,-1,-1,-1,-1,-1,-1,-1,-1,-1,-1,-1,-1,-1,-1,-1,-1,-1,-1,-1],"split_conditions":[3.5E0,-3.5E0,4.65E1,1.0685E3,-5E-1,1.85E1,1.3865E3,-9.5E0,1.0965E3,2.6125E3,2.365E2,1.05E1,3.45E1,4.95E1,6.55E1,-1.35E1,1.0205E3,1.0955E3,1.6195E3,5.625E2,3.7925E3,2.265E2,8.885E2,1.32E2,6.745E2,1.1665E3,7.34E2,1.0335E3,3.0195305E-1,2.5855E3,2.91488E-1,-2.3013638E-1,1.022E3,9.925E2,1.0415E3,1.0895E3,-5.5E0,1.193E3,2.821E3,2.445E2,5.905E2,2.743E3,-2.35367E-1,2.25E2,2.33E2,7.185E2,1.098E3,1.275E2,1.49E2,6.71E2,2.4465E3,1.0085E3,1.181E3,4.05E1,7.625E2,7.13E2,1.208E3,5.45E1,2.679E3,-1.9314401E-1,-1.1413632E-1,-1.421194E-1,-3.8793903E-2,-2.238237E-1,-1.7460972E-1,-7.277805E-3,-1.6542567E-1,5.3214824E-1,6.836957E-2,-1.5946402E-1,-1.2260916E-1,-9.08452E-2,1.3543062E-2,-8.703714E-2,-1.3153768E-1,-7.92216E-3,-9.906791E-2,-3.0268596E-3,1.7937236E-1,-3.4485675E-2,-1.8522789E-1,2.8728604E-1,1.4154371E-2,-8.3228E-2,-1.3869376E-1,-1.2051854E-2,-7.487417E-2,2.1279273E-3,2.5993642E-1,-1.9553891E-1,-3.9152797E-2,-4.3747574E-3,2.052983E-1,-2.8301971E-2,2.718168E-2,7.0559005E-3,5.186542E-2,-2.0791079E-1,-9.41966E-3,1.2868898E-1,2.1948628E-1,-1.4888056E-1,3.6841527E-2,2.8875917E-1,1.7649479E-1,-2.818015E-2,2.1249919E-1,4.8113946E-2,1.3789223E-1,-1.9204979E-1,1.1298597E-1],"split_indices":[0,0,0,1,0,0,1,0,1,1,1,0,0,0,0,0,1,1,1,1,1,1,1,1,1,1,1,1,0,1,0,0,1,1,1,1,0,1,1,1,1,1,0,1,1,1,1,1,1,1,1,1,1,0,1,1,1,0,1,0,0,0,0,0,0,0,0,0,0,0,0,0,0,0,0,0,0,0,0,0,0,0,0,0,0,0,0,0,0,0,0,0,0,0,0,0,0,0,0,0,0,0,0,0,0,0,0,0,0,0,0],"split_type":[0,0,0,0,0,0,0,0,0,0,0,0,0,0,0,0,0,0,0,0,0,0,0,0,0,0,0,0,0,0,0,0,0,0,0,0,0,0,0,0,0,0,0,0,0,0,0,0,0,0,0,0,0,0,0,0,0,0,0,0,0,0,0,0,0,0,0,0,0,0,0,0,0,0,0,0,0,0,0,0,0,0,0,0,0,0,0,0,0,0,0,0,0,0,0,0,0,0,0,0,0,0,0,0,0,0,0,0,0,0,0],"sum_hessian":[2.0877477E4,1.089564E4,9.981837E3,4.860863E3,6.0347773E3,9.475896E3,5.0594073E2,3.5880928E3,1.2727699E3,3.4633748E3,2.5714026E3,5.550937E3,3.9249595E3,3.765801E2,1.2936063E2,4.6563577E2,3.122457E3,8.887541E1,1.1838944E3,3.4108076E3,5.256716E1,2.2955925E2,2.3418433E3,2.643989E3,2.906948E3,3.3787168E3,5.462425E2,2.9548456E1,3.4703165E2,7.407397E1,5.5286663E1,9.2386154E1,3.7324963E2,3.003606E3,1.1885093E2,7.8594406E1,1.0281006E1,6.079826E2,5.7591187E2,1.2832438E3,2.1275637E3,4.7285404E1,5.2817564E0,2.048969E2,2.466235E1,1.1875265E3,1.1543168E3,6.824456E1,2.5757444E3,1.3758224E3,1.5311255E3,2.4266865E3,9.520302E2,1.3266623E2,4.135763E2,2.3147085E1,6.40137E0,6.140022E1,1.2673749E1,3.563597E2,1.688993E1,2.9213325E3,8.227348E1,4.7791122E1,7.105981E1,6.766351E1,1.0930898E1,5.0213428E0,5.2596626E0,1.8239212E2,4.2559045E2,5.454878E2,3.0424072E1,3.6657224E2,9.166716E2,8.7755135E1,2.0398087E3,2.7471954E1,1.9813452E1,1.9502766E2,9.869226E0,8.822223E0,1.5840126E1,9.414251E2,2.4610135E2,3.608006E2,7.9351624E2,6.1013454E1,7.2311025E0,1.68833E1,2.558861E3,1.3673789E3,8.443502E0,1.4217982E3,1.0932727E2,2.0802852E3,3.4640155E2,1.952854E1,9.325017E2,8.458232E1,4.80839E1,1.3844693E1,3.997316E2,1.5100747E1,8.046339E0,4.314502E0,2.0868683E0,4.0714226E1,2.0685991E1,5.801795E0,6.871954E0],"tree_param":{"num_deleted":"0","num_feature":"2","num_nodes":"111","size_leaf_vector":"0"}},{"base_weights":[-1.4007604E-1,-2.9740518E-1,7.018745E-3,-3.902109E-1,-2.4706258E-1,-2.637154E-2,8.256108E-1,-4.281308E-1,-2.8459862E-1,-2.56112E-1,-1.0758393E-2,-8.133555E-2,1.9652998E-2,9.693457E-1,4.5660377E-1,-5.783219E-1,-3.9964902E-1,6.2014855E-2,-3.145935E-1,-2.9701412E-1,-2.1496013E-1,2.2571798E-2,-6.5552694E-1,-8.938749E-2,3.5788298E-2,6.766392E-3,1.853183E-1,6.728979E-1,9.9453276E-1,1.5548502E-1,9.484905E-1,-6.9616896E-1,-5.4815733E-1,-5.922988E-1,-3.8835254E-1,-6.4012095E-2,7.058815E-1,-5.2863365E-1,-2.772587E-1,3.8161322E-1,-3.0012855E-1,-1.351553E-1,-2.337728E-1,-6.943797E-2,4.0881056E-1,-8.8378936E-1,-3.977225E-1,-8.622282E-2,-5.454255E-1,4.294623E-1,-2.3104167E-2,4.2886566E-2,-1.984006E-2,6.973932E-1,1.0660719E-1,7.595111E-1,-3.1827603E-2,2.5168404E-1,6.3597346E-3,3.9457422E-1,9.685675E-1,-6.586928E-1,-9.1222936E-1,-5.9752244E-1,-4.7558594E-1,-1.1764384E-1,-7.195381E-1,-2.3884112E-1,-4.015127E-1,-8.075209E-1,-6.969632E-3,-4.5651034E-3,1.1589721E0,-1.3569495E-1,-5.550999E-1,2.98077E-1,-2.901089E-1,4.6351802E-1,9.752626E-2,-3.3967912E-1,-2.3916629E-1,-1.9520184E-1,3.533225E-1,-9.915737E-1,-2.2883171E-1,1.1393146E-2,-6.0211045E-1,5.8045727E-1,5.711996E-2,-6.976496E-1,-1.7914543E-1,-2.3481264E-3,-9.616623E-2,2.2109607E-1,-6.4100814E-1,2.8740835E-1,6.9092727E-1,-5.13823E-1,1.9500326E-2,2.1938562E-2,1.3566582E-1,-7.8440666E-2,3.8870703E-3,1.9247718E-1,7.334795E-1,2.140205E-1,-5.966939E-2,9.378543E-1,4.937582E-1,-9.395176E-1,6.563922E-1,1.7159033E-1,7.418108E-1,-7.861475E-1,1.5290554E-1,5.2302474E-1,8.5105784E-2],"categories":[],"categories_nodes":[],"categories_segments":[],"categories_sizes":[],"default_left":[1,1,1,1,1,1,1,1,1,1,1,1,1,1,1,1,1,1,1,1,1,1,1,1,1,1,1,1,0,1,1,1,1,1,1,1,1,1,1,1,1,1,1,1,1,0,1,1,1,1,1,1,1,1,1,1,1,1,1,1,0,0,0,0,0,0,0,0,0,0,0,0,0,0,0,0,0,0,0,0,0,0,0,0,0,0,0,0,0,0,0,0,0,0,0,0,0,0,0,0,0,0,0,0,0,0,0,0,0,0,0,0,0,0,0,0,0],"id":11,"left_children":[1,3,5,7,9,11,13,15,17,19,21,23,25,27,29,31,33,35,37,39,41,43,45,47,49,51,53,55,-1,57,59,61,63,65,67,69,71,73,75,77,79,81,83,85,87,-1,89,91,93,95,97,99,101,103,105,107,109,111,113,115,-1,-1,-1,-1,-1,-1,-1,-1,-1,-1,-1,-1,-1,-1,-1,-1,-1,-1,-1,-1,-1,-1,-1,-1,-1,-1,-1,-1,-1,-1,-1,-1,-1,-1,-1,-1,-1,-1,-1,-1,-1,-1,-1,-1,-1,-1,-1,-1,-1,-1,-1,-1,-1,-1,-1,-1,-1],"loss_changes":[4.5404575E2,4.419519E1,2.7719485E2,1.3223114E1,1.3145966E1,2.4651283E1,2.0638031E1,1.024884E1,9.2031555E0,9.904053E0,4.910966E0,4.1913795E0,1.1322381E1,1.4598389E0,1.663516E1,9.98703E-1,4.258728E0,5.8216906E0,6.3513565E0,6.3862305E0,4.405777E0,7.761409E0,3.0945444E-1,5.9503937E0,6.6495004E0,4.7313952E0,1.5353888E1,1.5758858E0,0E0,1.0238076E0,9.412384E-2,9.895325E-3,8.4025574E-1,6.70026E0,3.7434082E0,2.5582228E0,3.783125E0,1.1691628E0,5.220848E0,2.8046227E-1,7.0420837E0,1.667619E1,8.723663E0,7.610259E0,2.502788E0,0E0,3.4000432E-1,3.4426632E0,2.226244E0,1.1874838E0,5.2380447E0,4.0555525E0,3.9423747E0,7.8474617E-1,5.959548E0,6.118307E-1,2.9544318E0,1.5773544E0,3.4945853E0,8.21144E-2,0E0,0E0,0E0,0E0,0E0,0E0,0E0,0E0,0E0,0E0,0E0,0E0,0E0,0E0,0E0,0E0,0E0,0E0,0E0,0E0,0E0,0E0,0E0,0E0,0E0,0E0,0E0,0E0,0E0,0E0,0E0,0E0,0E0,0E0,0E0,0E0,0E0,0E0,0E0,0E0,0E0,0E0,0E0,0E0,0E0,0E0,0E0,0E0,0E0,0E0,0E0,0E0,0E0,0E0,0E0,0E0,0E0],"parents":[2147483647,0,0,1,1,2,2,3,3,4,4,5,5,6,6,7,7,8,8,9,9,10,10,11,11,12,12,13,13,14,14,15,15,16,16,17,17,18,18,19,19,20,20,21,21,22,22,23,23,24,24,25,25,26,26,27,27,29,29,30,30,31,31,32,32,33,33,34,34,35,35,36,36,37,37,38,38,39,39,40,40,41,41,42,42,43,43,44,44,46,46,47,47,48,48,49,49,50,50,51,51,52,52,53,53,54,54,55,55,56,56,57,57,58,58,59,59],"right_children":[2,4,6,8,10,12,14,16,18,20,22,24,26,28,30,32,34,36,38,40,42,44,46,48,50,52,54,56,-1,58,60,62,64,66,68,70,72,74,76,78,80,82,84,86,88,-1,90,92,94,96,98,100,102,104,106,108,110,112,114,116,-1,-1,-1,-1,-1,-1,-1,-1,-1,-1,-1,-1,-1,-1,-1,-1,-1,-1,-1,-1,-1,-1,-1,-1,-1,-1,-1,-1,-1,-1,-1,-1,-1,-1,-1,-1,-1,-1,-1,-1,-1,-1,-1,-1,-1,-1,-1,-1,-1,-1,-1,-1,-1,-1,-1,-1,-1],"split_conditions":[2.5E0,-4.5E0,4.65E1,1.0685E3,2.5E3,1.45E1,1.3865E3,-9.5E0,1.0965E3,-1.5E0,3.7925E3,2.34E3,3.65E1,4.95E1,6.55E1,-1.35E1,1.435E2,1.0955E3,1.191E3,7.95E1,3.375E2,2.743E3,-1.5E0,2.2505E3,2.399E3,6.81E2,5.23E2,1.1895E3,2.9835984E-1,2.391E3,6.75E1,9.545E2,5.82E2,8.75E1,2.15E2,-1.15E1,-6.5E0,-1.15E1,1.198E3,-2.5E0,8.875E2,3.275E2,3.425E2,2.6885E3,2.9865E3,-2.651368E-1,3.938E3,2.365E2,3.5E0,2.3795E3,2.4205E3,2.65E1,9.495E2,1.435E2,1.534E3,7.13E2,1.208E3,2.2915E3,2.438E3,2.1705E3,2.9057026E-1,-1.9760785E-1,-2.7366883E-1,-1.7925674E-1,-1.4267579E-1,-3.5293154E-2,-2.1586144E-1,-7.165234E-2,-1.2045382E-1,-2.4225628E-1,-2.0908897E-3,-1.369531E-3,3.4769166E-1,-4.0708486E-2,-1.6652998E-1,8.94231E-2,-8.703267E-2,1.3905542E-1,2.9257879E-2,-1.01903744E-1,-7.174989E-2,-5.8560554E-2,1.0599676E-1,-2.9747212E-1,-6.8649516E-2,3.4179438E-3,-1.8063314E-1,1.7413719E-1,1.7135989E-2,-2.0929489E-1,-5.374363E-2,-7.0443796E-4,-2.884987E-2,6.632882E-2,-1.9230245E-1,8.622251E-2,2.0727819E-1,-1.541469E-1,5.850098E-3,6.581569E-3,4.0699746E-2,-2.35322E-2,1.1661211E-3,5.774316E-2,2.2004385E-1,6.420615E-2,-1.7900817E-2,2.813563E-1,1.4812747E-1,-2.818553E-1,1.9691767E-1,5.14771E-2,2.2254325E-1,-2.3584425E-1,4.5871664E-2,1.5690742E-1,2.5531737E-2],"split_indices":[0,0,0,1,1,0,1,0,1,0,1,1,0,0,0,0,1,1,1,1,1,1,0,1,1,1,1,1,0,1,0,1,1,1,1,0,0,0,1,0,1,1,1,1,1,0,1,1,0,1,1,0,1,1,1,1,1,1,1,1,0,0,0,0,0,0,0,0,0,0,0,0,0,0,0,0,0,0,0,0,0,0,0,0,0,0,0,0,0,0,0,0,0,0,0,0,0,0,0,0,0,0,0,0,0,0,0,0,0,0,0,0,0,0,0,0,0],"split_type":[0,0,0,0,0,0,0,0,0,0,0,0,0,0,0,0,0,0,0,0,0,0,0,0,0,0,0,0,0,0,0,0,0,0,0,0,0,0,0,0,0,0,0,0,0,0,0,0,0,0,0,0,0,0,0,0,0,0,0,0,0,0,0,0,0,0,0,0,0,0,0,0,0,0,0,0,0,0,0,0,0,0,0,0,0,0,0,0,0,0,0,0,0,0,0,0,0,0,0,0,0,0,0,0,0,0,0,0,0,0,0,0,0,0,0,0,0],"sum_hessian":[1.9618645E4,9.479052E3,1.0139594E4,3.331233E3,6.147819E3,9.74314E3,3.9645386E2,2.4489038E3,8.8232904E2,5.920987E3,2.2683205E2,4.43999E3,5.3031494E3,2.8414673E2,1.1230715E2,3.8729626E2,2.0616077E3,7.018784E1,8.1214124E2,2.9663862E3,2.9546006E3,2.1660027E2,1.0231783E1,4.1546094E3,2.853809E2,4.9213716E3,3.8177783E2,2.4421824E1,2.5972488E2,7.047841E1,4.1828735E1,7.443076E1,3.1286548E2,1.11342674E2,1.9502649E3,5.945168E1,1.0736166E1,1.1866663E2,6.934746E2,1.2996312E1,2.95339E3,5.651925E2,2.3894082E3,1.7559117E2,4.1009094E1,4.1389656E0,6.092817E0,4.127158E3,2.7451319E1,3.6317787E1,2.490631E2,2.0872148E3,2.8341565E3,4.9817493E1,3.3196036E2,2.1679586E1,2.7422383E0,4.2423656E1,2.8054756E1,2.1854708E0,3.9643265E1,6.687909E1,7.551677E0,1.8189897E2,1.3096652E2,2.3944487E1,8.7398186E1,1.5932603E2,1.7909388E3,3.2987163E0,5.615296E1,4.5662327E0,6.1699333E0,7.875021E0,1.1079161E2,1.4665524E1,6.788091E2,9.597626E0,3.3986864E0,1.7884946E3,1.1648954E3,5.0385596E2,6.133653E1,1.4185213E1,2.375223E3,1.5330614E2,2.2285038E1,2.7121601E1,1.3887494E1,1.6444951E0,4.448322E0,4.375524E2,3.6896057E3,2.8979747E0,2.4553343E1,2.4892765E1,1.1425022E1,1.9012836E1,2.3005025E2,1.7037689E3,3.8344604E2,8.161488E2,2.0180077E3,3.7454445E0,4.607205E1,2.0150356E2,1.3045679E2,1.1459934E1,1.0219651E1,1.0250987E0,1.7171397E0,3.7625248E1,4.7984095E0,3.6970274E0,2.4357729E1,1.056766E0,1.1287048E0],"tree_param":{"num_deleted":"0","num_feature":"2","num_nodes":"117","size_leaf_vector":"0"}},{"base_weights":[-1.0446697E-1,-2.3730522E-1,2.0214415E-3,-3.1220973E-1,-1.9517156E-1,-1.915735E-2,8.87515E-1,-3.5835955E-1,-2.3833318E-1,-2.3057206E-1,-1.4558993E-1,-3.643751E-2,9.844369E-2,9.5260555E-1,4.1513035E-1,-5.055594E-1,-3.3202508E-1,-7.4772984E-1,-2.2741379E-1,1.8983142E-1,-2.3749588E-1,-3.5726383E-2,-2.0690873E-1,-8.352775E-2,-1.2724143E-2,3.6234292E-1,6.1024617E-2,6.836299E-1,9.9647003E-1,1.1606558E-1,8.5271865E-1,-5.57479E-1,-4.3227524E-1,-5.517506E-1,-3.2108113E-1,-2.562726E-1,-7.793528E-2,1.0757823E-1,1.0684781E0,-9.4072926E-1,-2.308442E-1,-1.3787962E-1,3.5874432E-1,-2.6357493E-1,-5.127758E-2,-8.1964865E-2,-7.151982E-1,4.6959668E-1,-1.388515E-2,2.1310614E-1,7.366076E-1,1.1142194E-1,-1.323441E-2,9.256974E-1,1.0750021E-1,-5.575324E-1,2.541405E-1,-6.647423E-1,-4.896437E-1,-3.079675E-1,-5.325693E-1,-8.698368E-2,-7.670187E-1,1.88791E0,-3.2392752E-1,4.0893525E-1,-2.6236472E-1,3.271624E-1,-1.2788817E-1,4.537068E-1,-6.559229E-3,3.6091378E-1,1.2207195E0,1.5495814E-1,-2.3720022E-1,2.4283533E-1,-1.6313861E-1,1.3772303E0,2.773034E-1,-6.971431E-1,-2.5495306E-1,1.8685939E0,-6.507501E-2,-8.366748E-2,1.8396702E0,-3.212264E-2,6.7536074E-1,-5.8122617E-1,-1.2693636E-2,1.757476E-1,9.1057587E-1,4.8812735E-1,8.751811E-1,7.54247E-2,3.7768197E-1,-5.990219E-1,2.3087407E-3,3.696945E-1,-3.8088703E-1,2.9022723E-1,-1.3033651E0,4.30681E-1,-1.9681054E-1],"categories":[],"categories_nodes":[],"categories_segments":[],"categories_sizes":[],"default_left":[1,1,1,1,1,1,1,1,1,1,1,1,1,1,1,1,1,0,1,1,1,1,1,1,1,1,1,1,0,1,0,1,1,1,1,1,1,1,1,0,1,1,1,1,1,1,0,1,1,1,1,1,1,0,1,1,1,0,0,0,0,0,0,0,0,0,0,0,0,0,0,0,0,0,0,0,0,0,0,0,0,0,0,0,0,0,0,0,0,0,0,0,0,0,0,0,0,0,0,0,0,0,0],"id":12,"left_children":[1,3,5,7,9,11,13,15,17,19,21,23,25,27,29,31,33,-1,35,37,39,41,43,45,47,49,51,53,-1,55,-1,57,59,61,63,65,67,69,71,-1,73,75,77,79,81,83,-1,85,87,89,91,93,95,-1,97,99,101,-1,-1,-1,-1,-1,-1,-1,-1,-1,-1,-1,-1,-1,-1,-1,-1,-1,-1,-1,-1,-1,-1,-1,-1,-1,-1,-1,-1,-1,-1,-1,-1,-1,-1,-1,-1,-1,-1,-1,-1,-1,-1,-1,-1,-1,-1],"loss_changes":[2.6449872E2,2.6196136E1,1.9466832E2,1.0120331E1,9.316971E0,2.0605463E1,7.0599976E0,6.966629E0,6.2485657E0,9.087265E0,1.4960705E1,9.870081E0,1.2806087E1,1.8240051E0,3.9757905E0,8.1443787E-1,3.5839539E0,0E0,4.859642E0,3.5628035E0,1.4080353E1,3.216979E1,1.2560417E1,2.8639946E0,3.299407E0,8.842375E0,4.2639585E0,4.4967995E0,0E0,1.9695946E0,0E0,8.307533E-1,1.3255749E0,7.2184105E0,9.994461E0,3.947815E0,3.7750368E0,1.8852069E0,1.6598225E-2,0E0,7.46492E0,6.1351423E0,1.3241005E1,3.728508E0,1.0235408E1,9.819628E0,0E0,1.4824357E0,3.9588423E0,2.8780913E0,1.1403446E0,6.475563E0,4.20207E0,0E0,1.5342759E0,2.6901503E0,1.4379141E0,0E0,0E0,0E0,0E0,0E0,0E0,0E0,0E0,0E0,0E0,0E0,0E0,0E0,0E0,0E0,0E0,0E0,0E0,0E0,0E0,0E0,0E0,0E0,0E0,0E0,0E0,0E0,0E0,0E0,0E0,0E0,0E0,0E0,0E0,0E0,0E0,0E0,0E0,0E0,0E0,0E0,0E0,0E0,0E0,0E0,0E0],"parents":[2147483647,0,0,1,1,2,2,3,3,4,4,5,5,6,6,7,7,8,8,9,9,10,10,11,11,12,12,13,13,14,14,15,15,16,16,18,18,19,19,20,20,21,21,22,22,23,23,24,24,25,25,26,26,27,27,29,29,31,31,32,32,33,33,34,34,35,35,36,36,37,37,38,38,40,40,41,41,42,42,43,43,44,44,45,45,47,47,48,48,49,49,50,50,51,51,52,52,54,54,55,55,56,56],"right_children":[2,4,6,8,10,12,14,16,18,20,22,24,26,28,30,32,34,-1,36,38,40,42,44,46,48,50,52,54,-1,56,-1,58,60,62,64,66,68,70,72,-1,74,76,78,80,82,84,-1,86,88,90,92,94,96,-1,98,100,102,-1,-1,-1,-1,-1,-1,-1,-1,-1,-1,-1,-1,-1,-1,-1,-1,-1,-1,-1,-1,-1,-1,-1,-1,-1,-1,-1,-1,-1,-1,-1,-1,-1,-1,-1,-1,-1,-1,-1,-1,-1,-1,-1,-1,-1,-1],"split_conditions":[1.5E0,-4.5E0,5.25E1,9.145E2,9.1E2,2.85E1,2.175E3,-9.5E0,-1.45E1,9.9E1,1.128E3,9.5E0,4.485E2,5.95E1,6.75E1,-1.05E1,1.215E2,-2.2431897E-1,2.347E3,9.55E1,1.04E2,1.0755E3,2.26E3,3.7925E3,6.75E1,3.65E1,1.2725E3,1.122E3,2.9894102E-1,2.2835E3,2.558156E-1,3.265E2,4E2,8.75E1,1.225E2,9.195E2,2.399E3,6.75E1,-2.5E0,-2.8221878E-1,1.335E2,9.215E2,1.0775E3,1.1435E3,2.2805E3,3.538E3,-2.1455948E-1,1.45E1,7.65E1,4.405E2,4.05E1,4.15E1,1.305E3,2.7770922E-1,5.65E1,2.2225E3,2.6125E3,-1.994227E-1,-1.4689311E-1,-9.2390254E-2,-1.5977079E-1,-2.6095105E-2,-2.3010561E-1,5.6637305E-1,-9.717826E-2,1.2268058E-1,-7.8709416E-2,9.8148726E-2,-3.836645E-2,1.3611205E-1,-1.9677689E-3,1.0827414E-1,3.6621585E-1,4.6487443E-2,-7.116007E-2,7.28506E-2,-4.8941586E-2,4.1316912E-1,8.319102E-2,-2.0914294E-1,-7.648592E-2,5.605782E-1,-1.9522503E-2,-2.5100244E-2,5.519011E-1,-9.636793E-3,2.0260823E-1,-1.7436786E-1,-3.808091E-3,5.2724283E-2,2.7317277E-1,1.4643821E-1,2.6255435E-1,2.2627411E-2,1.1330459E-1,-1.7970657E-1,6.9262227E-4,1.1090835E-1,-1.1426611E-1,8.706817E-2,-3.9100954E-1,1.292043E-1,-5.9043165E-2],"split_indices":[0,0,0,1,1,0,1,0,0,1,1,0,1,0,0,0,1,0,1,1,1,1,1,1,1,0,1,1,0,1,0,1,1,1,1,1,1,1,0,0,1,1,1,1,1,1,0,0,1,1,0,0,1,0,0,1,1,0,0,0,0,0,0,0,0,0,0,0,0,0,0,0,0,0,0,0,0,0,0,0,0,0,0,0,0,0,0,0,0,0,0,0,0,0,0,0,0,0,0,0,0,0,0],"split_type":[0,0,0,0,0,0,0,0,0,0,0,0,0,0,0,0,0,0,0,0,0,0,0,0,0,0,0,0,0,0,0,0,0,0,0,0,0,0,0,0,0,0,0,0,0,0,0,0,0,0,0,0,0,0,0,0,0,0,0,0,0,0,0,0,0,0,0,0,0,0,0,0,0,0,0,0,0,0,0,0,0,0,0,0,0,0,0,0,0,0,0,0,0,0,0,0,0,0,0,0,0,0,0],"sum_hessian":[1.869709E4,8.318725E3,1.0378365E4,2.9924277E3,5.3262964E3,1.0136895E4,2.414708E2,1.8394772E3,1.1529507E3,3.105423E3,2.2208733E3,8.838819E3,1.2980758E3,2.1133418E2,3.0136604E1,2.7638596E2,1.5630912E3,2.2779802E1,1.1301709E3,4.988796E1,3.0555352E3,7.961004E2,1.424773E3,2.9594307E3,5.879388E3,1.6012257E2,1.1379532E3,3.195739E1,1.793768E2,1.8653393E1,1.1483211E1,1.5790665E2,1.1847931E2,7.181526E1,1.491276E3,9.466861E2,1.8348477E2,4.6643898E1,3.2440617E0,2.7314823E1,3.0282202E3,6.328629E2,1.6323747E2,1.0439655E3,3.8080743E2,2.9532534E3,6.1771965E0,1.3149562E1,5.866239E3,1.15597755E2,4.4524826E1,6.7759186E2,4.6036133E2,2.2075403E1,9.881988E0,2.656376E0,1.5997018E1,5.7766006E1,1.0014064E2,5.4723667E1,6.375564E1,2.3177898E1,4.863736E1,1.0668488E0,1.4902091E3,7.991179E0,9.386949E2,1.9532738E1,1.6395203E2,1.0829056E1,3.5814842E1,1.1712359E0,2.0728257E0,4.8701855E1,2.9795183E3,3.8839687E1,5.9402325E2,1.0908382E1,1.5232909E2,1.8798265E1,1.0251672E3,1.7579881E0,3.7904944E2,2.9515947E3,1.6587152E0,4.069846E0,9.079715E0,1.1274055E1,5.854965E3,1.1090912E2,4.6886406E0,1.7559992E1,2.6964832E1,5.980247E2,7.956716E1,1.0929072E1,4.4943225E2,6.5881305E0,3.2938566E0,1.5291348E0,1.1272411E0,1.1528668E1,4.468349E0],"tree_param":{"num_deleted":"0","num_feature":"2","num_nodes":"103","size_leaf_vector":"0"}},{"base_weights":[-7.672216E-2,-8.6477414E-2,8.480883E-1,-1.8788315E-1,-1.6107967E-2,9.735787E-1,4.8684126E-1,-2.2259559E-1,-1.3144149E-1,-3.314406E-2,5.177088E-2,1.4254539E-1,9.1979474E-1,-2.6543418E-1,-1.6640905E-1,-1.4211065E-1,2.4153978E-2,-6.960862E-2,-1.5839882E-2,3.591971E-2,2.4073559E-1,-4.7617382E-1,1.8155062E-1,-3.6469E-1,-2.3956227E-1,4.6375388E-1,-1.7130987E-1,1.3209274E-1,-1.4907666E-1,4.5303914E-1,-6.4178444E-2,-7.7304184E-2,7.21695E-2,-4.0997295E-3,-7.610747E-2,1.6236076E-1,2.0028181E-2,7.449779E-1,1.2826875E-1,2.5166214E-1,-1.4171073E-1,1.942638E-2,-3.769097E-1,-2.3485722E-1,-6.9048136E-1,-1.902096E-1,6.955638E-1,-6.5647656E-1,-1.6585816E-1,-1.1095683E-1,7.748665E-1,-5.445826E-1,-1.4404497E-1,2.553673E-1,2.6308951E0,-4.2189667E-1,-2.225323E-3,-7.4516386E-2,-6.313883E-1,3.1883255E-1,-7.064991E-2,-9.32427E-3,7.374451E-1,-3.6682394E-1,-5.7647713E-2,3.60049E-2,3.6264867E-1,2.168562E-2,-1.0671047E0,5.2678186E-1,9.410913E-1,-5.6260383E-1,1.7111966E-1,-5.2787524E-2,3.43448E-1,6.3333565E-1,-5.2307385E-1],"categories":[],"categories_nodes":[],"categories_segments":[],"categories_sizes":[],"default_left":[1,1,1,1,1,0,1,1,1,1,1,1,0,1,1,1,1,1,1,1,1,0,1,1,1,1,1,1,1,1,1,1,1,1,1,1,1,1,1,1,1,0,0,0,0,0,0,0,0,0,0,0,0,0,0,0,0,0,0,0,0,0,0,0,0,0,0,0,0,0,0,0,0,0,0,0,0],"id":13,"left_children":[1,3,5,7,9,-1,11,13,15,17,19,21,-1,23,25,27,29,31,33,35,37,-1,39,41,43,45,47,49,51,53,55,57,59,61,63,65,67,69,71,73,75,-1,-1,-1,-1,-1,-1,-1,-1,-1,-1,-1,-1,-1,-1,-1,-1,-1,-1,-1,-1,-1,-1,-1,-1,-1,-1,-1,-1,-1,-1,-1,-1,-1,-1,-1,-1],"loss_changes":[1.6272055E2,1.2730827E2,8.061188E0,1.42901E1,1.2182405E1,0E0,7.4028435E0,1.084491E1,4.6278305E0,5.3122816E0,6.3223996E0,7.944431E-1,0E0,6.4999695E0,6.1318703E0,4.999424E0,6.8335004E0,2.9620428E0,4.0412235E0,3.917471E0,9.171228E0,0E0,6.7754E-1,2.4879074E0,4.16111E0,2.4658833E0,5.036648E0,1.0259432E1,4.982147E0,1.2586956E1,3.319144E0,3.9238205E0,4.9553657E0,1.8532593E1,4.9763513E0,5.496838E0,3.148516E0,7.705059E-1,4.0873613E0,6.7855E-1,2.0123456E0,0E0,0E0,0E0,0E0,0E0,0E0,0E0,0E0,0E0,0E0,0E0,0E0,0E0,0E0,0E0,0E0,0E0,0E0,0E0,0E0,0E0,0E0,0E0,0E0,0E0,0E0,0E0,0E0,0E0,0E0,0E0,0E0,0E0,0E0,0E0,0E0],"parents":[2147483647,0,0,1,1,2,2,3,3,4,4,6,6,7,7,8,8,9,9,10,10,11,11,13,13,14,14,15,15,16,16,17,17,18,18,19,19,20,20,22,22,23,23,24,24,25,25,26,26,27,27,28,28,29,29,30,30,31,31,32,32,33,33,34,34,35,35,36,36,37,37,38,38,39,39,40,40],"right_children":[2,4,6,8,10,-1,12,14,16,18,20,22,-1,24,26,28,30,32,34,36,38,-1,40,42,44,46,48,50,52,54,56,58,60,62,64,66,68,70,72,74,76,-1,-1,-1,-1,-1,-1,-1,-1,-1,-1,-1,-1,-1,-1,-1,-1,-1,-1,-1,-1,-1,-1,-1,-1,-1,-1,-1,-1,-1,-1,-1,-1,-1,-1,-1,-1],"split_conditions":[5.25E1,5E-1,1.4475E3,-2.5E0,2.45E1,2.920736E-1,6.75E1,8.605E2,2.3365E3,7.5E0,4.25E1,1.4895E3,2.7593842E-1,-7.5E0,8.615E2,1.335E2,2.418E3,2.4555E3,1.4845E3,3.735E2,6.775E2,-1.4285216E-1,2.6125E3,9.1E1,8.525E2,-6.5E0,-1.45E1,1.135E2,1.555E2,2.407E3,2.4555E3,2.4465E3,2.5635E3,1.462E3,1.534E3,3.005E2,4.3725E3,4.65E1,7.825E2,5.45E1,5.55E1,5.827914E-3,-1.1307292E-1,-7.045717E-2,-2.0714442E-1,-5.7062883E-2,2.0866914E-1,-1.9694297E-1,-4.975745E-2,-3.3287052E-2,2.3245996E-1,-1.6337478E-1,-4.321349E-2,7.661019E-2,7.8926855E-1,-1.26569E-1,-6.6759693E-4,-2.2354916E-2,-1.894165E-1,9.564977E-2,-2.1194972E-2,-2.7972811E-3,2.2123355E-1,-1.10047184E-1,-1.7294314E-2,1.0801471E-2,1.0879461E-1,6.5056863E-3,-3.2013142E-1,1.5803456E-1,2.823274E-1,-1.6878116E-1,5.13359E-2,-1.5836257E-2,1.0303441E-1,1.900007E-1,-1.5692216E-1],"split_indices":[0,0,1,0,0,0,0,1,1,0,0,1,0,0,1,1,1,1,1,1,1,0,1,1,1,0,0,1,1,1,1,1,1,1,1,1,1,0,1,0,0,0,0,0,0,0,0,0,0,0,0,0,0,0,0,0,0,0,0,0,0,0,0,0,0,0,0,0,0,0,0,0,0,0,0,0,0],"split_type":[0,0,0,0,0,0,0,0,0,0,0,0,0,0,0,0,0,0,0,0,0,0,0,0,0,0,0,0,0,0,0,0,0,0,0,0,0,0,0,0,0,0,0,0,0,0,0,0,0,0,0,0,0,0,0,0,0,0,0,0,0,0,0,0,0,0,0,0,0,0,0,0,0,0,0,0,0],"sum_hessian":[1.802732E4,1.7840043E4,1.8727713E2,7.3076704E3,1.0532373E4,1.3773541E2,4.954172E1,4.5230103E3,2.78466E3,8.419721E3,2.1126523E3,2.8336798E1,2.1204922E1,2.5642285E3,1.9587817E3,2.60605E3,1.786099E2,2.7087122E3,5.7110083E3,1.9502473E3,1.6240498E2,1.0157977E0,2.7321001E1,5.274821E2,2.0367465E3,1.4393499E1,1.9443883E3,6.412016E1,2.54193E3,2.9798557E1,1.4881134E2,2.569687E3,1.3902504E2,4.780779E3,9.3022974E2,2.1671742E2,1.7335299E3,2.8591543E1,1.3381345E2,2.2633547E1,4.687454E0,1.6244976E1,5.1123715E2,2.0172189E3,1.9527567E1,3.8137925E0,1.0579707E1,2.0278925E1,1.9241094E3,4.7127426E1,1.6992735E1,3.0585537E1,2.5113442E3,2.8343254E1,1.4553026E0,2.1110289E1,1.2770105E2,2.5579517E3,1.1735477E1,5.0527206E1,8.849783E1,4.748312E3,3.246672E1,5.4413815E1,8.758159E2,1.3360785E2,8.310956E1,1.7318696E3,1.6603506E0,1.527863E1,1.3312914E1,7.1065965E0,1.2670685E2,5.3413644E0,1.7292181E1,1.3279461E0,3.359508E0],"tree_param":{"num_deleted":"0","num_feature":"2","num_nodes":"77","size_leaf_vector":"0"}},{"base_weights":[-5.5635523E-2,-6.267224E-2,8.4042853E-1,-1.5059085E-1,-1.5907638E-2,9.390302E-1,2.7260146E-1,-1.7492126E-1,-9.313126E-2,-2.3872206E-2,8.213781E-2,6.062865E-1,9.780381E-1,1.1772966E-3,7.516179E-1,-3.5272098E-1,-1.631279E-1,2.7400532E-1,-1.24652244E-1,-6.09653E-2,-9.624432E-3,4.479752E-1,5.5602137E-2,9.041691E-1,2.4136199E-2,-5.8664215E-1,1.7388257E-1,2.6962048E-1,8.4314376E-1,-5.649255E-1,-3.2967457E-1,-1.6081274E-1,-8.2072145E-1,1.7079599E-1,7.866138E-1,-1.4149405E-1,1.00099064E-1,6.664067E-1,-6.316339E-2,2.420034E-3,-4.3549232E-2,-9.392305E-2,5.351394E-1,1.06558755E-1,