{"learner":{"attributes":{"best_iteration":"99","best_ntree_limit":"100","scikit_learn":"{\"use_label_encoder\": null, \"n_estimators\": 100, \"objective\": \"binary:logistic\", \"max_depth\": null, \"max_leaves\": null, \"max_bin\": null, \"grow_policy\": null, \"learning_rate\": null, \"verbosity\": null, \"booster\": null, \"tree_method\": null, \"gamma\": null, \"min_child_weight\": null, \"max_delta_step\": null, \"subsample\": null, \"sampling_method\": null, \"colsample_bytree\": null, \"colsample_bylevel\": null, \"colsample_bynode\": null, \"reg_alpha\": null, \"reg_lambda\": null, \"scale_pos_weight\": null, \"base_score\": null, \"missing\": NaN, \"num_parallel_tree\": null, \"random_state\": null, \"n_jobs\": null, \"monotone_constraints\": null, \"interaction_constraints\": null, \"importance_type\": null, \"gpu_id\": null, \"validate_parameters\": null, \"predictor\": null, \"enable_categorical\": false, \"feature_types\": null, \"max_cat_to_onehot\": null, \"max_cat_threshold\": null, \"eval_metric\": null, \"early_stopping_rounds\": null, \"callbacks\": null, \"classes_\": [0.0, 1.0], \"n_classes_\": 2, \"_estimator_type\": \"classifier\"}"},"feature_names":["DEP_TIME","DEP_DELAY","DISTANCE"],"feature_types":["float","float","float"],"gradient_booster":{"model":{"gbtree_model_param":{"num_parallel_tree":"1","num_trees":"100","size_leaf_vector":"0"},"tree_info":[0,0,0,0,0,0,0,0,0,0,0,0,0,0,0,0,0,0,0,0,0,0,0,0,0,0,0,0,0,0,0,0,0,0,0,0,0,0,0,0,0,0,0,0,0,0,0,0,0,0,0,0,0,0,0,0,0,0,0,0,0,0,0,0,0,0,0,0,0,0,0,0,0,0,0,0,0,0,0,0,0,0,0,0,0,0,0,0,0,0,0,0,0,0,0,0,0,0,0,0],"trees":[{"base_weights":[-1.3456374E0,-1.7599441E0,1.5118065E0,-1.8378586E0,-9.390562E-1,4.9632952E-1,1.8597546E0,-1.8697857E0,-1.6452652E0,-1.1751549E0,-4.3428415E-1,9.845143E-1,1.21081084E-1,1.4941806E0,1.96387E0,-1.8877444E0,-1.8073503E0,-1.6978806E0,-1.5616479E0,-1.2900901E0,-9.7156984E-1,5.8956917E-2,-6.461178E-1,6.896552E-1,1.3748634E0,-2.4125737E-1,4.2738453E-1,1.6547385E0,8.495298E-1,1.798305E0,1.983113E0,-1.8935082E0,-1.7327838E0,-1.8130816E0,-1.5061729E0,-1.7058566E0,-1.4081633E0,-1.611003E0,-1.502924E0,-1.1480731E0,-1.3359011E0,-6.4702415E-1,-1.1093199E0,-2.706131E-1,3.0562153E-1,-5.226163E-1,-8.2936317E-1,8.669202E-1,3.6194897E-1,1.5152463E0,1.0414414E0,-7.6744184E-2,-5.814234E-1,5.767442E-1,5.3302433E-2,1.8191799E0,1.3958856E0,1.1495017E0,7.5383043E-1,1.8990211E0,1.3191489E0,1.9928924E0,1.885835E0,-1.9062302E0,-1.8647823E0,-1.6167756E0,-1.8240397E0,-1.7606101E0,-1.8298614E0,2.2222222E-1,-1.51693E0,-1.6264346E0,-1.7313838E0,-1.1325301E0,-1.5918367E0,-1.6226848E0,-1.2405063E0,-1.5078636E0,-8.5714287E-1,-1.3266761E0,-1.0746607E0,-1.3497752E0,-7.8350514E-1,8.510638E-2,-6.88239E-1,-9.7636175E-1,-1.1509497E0,-1.426492E-1,-6.0076046E-1,9.166667E-2,4.3456164E-1,-6.7636365E-1,-3.9717978E-1,-5.4765505E-1,-9.6E-1,7.378641E-1,1.1014493E0,2.0454545E-1,6.035503E-1,4.7619048E-1,1.5277338E0,7.794118E-1,1.2752613E0,-4.883227E-1,7.821229E-2,3.6363637E-1,-6.3117874E-1,3.816794E-1,8.102564E-1,4.3243244E-1,-1.436077E-1,1.6797088E0,1.8921078E0,1.2299465E0,1.6022857E0,9.959514E-1,1.7241379E0,9.488372E-1,5.96745E-1,1.4693878E0,9.4736844E-1,1.3972603E0,1.9451401E0],"categories":[],"categories_nodes":[],"categories_segments":[],"categories_sizes":[],"default_left":[1,1,1,1,1,1,1,1,1,1,1,1,1,1,1,1,1,1,1,1,1,1,1,1,1,1,1,1,1,1,1,1,1,1,1,1,1,1,1,1,1,1,1,1,1,1,1,1,1,1,1,1,1,1,1,1,1,1,1,0,1,0,1,0,0,0,0,0,0,0,0,0,0,0,0,0,0,0,0,0,0,0,0,0,0,0,0,0,0,0,0,0,0,0,0,0,0,0,0,0,0,0,0,0,0,0,0,0,0,0,0,0,0,0,0,0,0,0,0,0,0,0,0],"id":0,"left_children":[1,3,5,7,9,11,13,15,17,19,21,23,25,27,29,31,33,35,37,39,41,43,45,47,49,51,53,55,57,59,61,63,65,67,69,71,73,75,77,79,81,83,85,87,89,91,93,95,97,99,101,103,105,107,109,111,113,115,117,-1,119,-1,121,-1,-1,-1,-1,-1,-1,-1,-1,-1,-1,-1,-1,-1,-1,-1,-1,-1,-1,-1,-1,-1,-1,-1,-1,-1,-1,-1,-1,-1,-1,-1,-1,-1,-1,-1,-1,-1,-1,-1,-1,-1,-1,-1,-1,-1,-1,-1,-1,-1,-1,-1,-1,-1,-1,-1,-1,-1,-1,-1,-1],"loss_changes":[8.977225E4,4.234047E3,3.3920488E3,3.6882812E2,6.8391797E2,4.4906415E2,2.692754E2,5.475E1,3.5226562E1,9.028955E1,1.9142856E2,1.2168872E2,1.5409549E2,1.6311377E2,1.4158203E1,3.26875E1,1.73125E1,9.782227E0,7.251953E0,1.4714355E1,6.2575073E1,4.4895615E1,2.8568298E1,3.5063538E1,1.983606E1,3.5561073E1,4.1999557E1,5.1583496E1,8.291046E0,2.596753E1,9.746094E-1,1.0640625E1,1.2462402E1,6.8046875E0,4.478607E0,7.5791016E0,5.639282E0,5.7753906E0,3.6169434E0,6.654358E0,1.336792E1,1.2860138E1,4.369751E0,9.9057045E0,8.670876E0,1.454747E1,1.8399384E1,1.1127747E1,8.071772E0,3.4213257E0,7.506958E0,2.7462198E1,9.97477E0,2.4173874E1,1.6168818E1,4.6967773E0,1.5094238E1,4.9225693E0,6.9311523E0,0E0,4.5147095E0,0E0,1.0987183E1,0E0,0E0,0E0,0E0,0E0,0E0,0E0,0E0,0E0,0E0,0E0,0E0,0E0,0E0,0E0,0E0,0E0,0E0,0E0,0E0,0E0,0E0,0E0,0E0,0E0,0E0,0E0,0E0,0E0,0E0,0E0,0E0,0E0,0E0,0E0,0E0,0E0,0E0,0E0,0E0,0E0,0E0,0E0,0E0,0E0,0E0,0E0,0E0,0E0,0E0,0E0,0E0,0E0,0E0,0E0,0E0,0E0,0E0,0E0,0E0],"parents":[2147483647,0,0,1,1,2,2,3,3,4,4,5,5,6,6,7,7,8,8,9,9,10,10,11,11,12,12,13,13,14,14,15,15,16,16,17,17,18,18,19,19,20,20,21,21,22,22,23,23,24,24,25,25,26,26,27,27,28,28,29,29,30,30,31,31,32,32,33,33,34,34,35,35,36,36,37,37,38,38,39,39,40,40,41,41,42,42,43,43,44,44,45,45,46,46,47,47,48,48,49,49,50,50,51,51,52,52,53,53,54,54,55,55,56,56,57,57,58,58,60,60,62,62],"right_children":[2,4,6,8,10,12,14,16,18,20,22,24,26,28,30,32,34,36,38,40,42,44,46,48,50,52,54,56,58,60,62,64,66,68,70,72,74,76,78,80,82,84,86,88,90,92,94,96,98,100,102,104,106,108,110,112,114,116,118,-1,120,-1,122,-1,-1,-1,-1,-1,-1,-1,-1,-1,-1,-1,-1,-1,-1,-1,-1,-1,-1,-1,-1,-1,-1,-1,-1,-1,-1,-1,-1,-1,-1,-1,-1,-1,-1,-1,-1,-1,-1,-1,-1,-1,-1,-1,-1,-1,-1,-1,-1,-1,-1,-1,-1,-1,-1,-1,-1,-1,-1,-1,-1],"split_conditions":[2.15E1,9.5E0,3.15E1,1.5E0,1.65E1,6.56E2,4.15E1,-1.5E0,5.5E0,1.35E1,4.835E2,2.65E1,2.55E1,1.2475E3,4.65E1,2.3365E3,2.555E3,2.4805E3,7.5E0,4.24E2,4.9E2,1.85E1,1.1205E3,4.515E2,4.885E2,1.3905E3,1.4955E3,7.255E2,1.51E3,1.2725E3,1.8455E3,8.985E2,1.1465E3,9.025E2,3.495E2,1.0115E3,1.1555E3,2.4555E3,2.6585E3,1.05E1,2.5765E3,1.235E2,7.39E2,3.735E2,1.95E1,1.85E1,1.1505E3,2.45E1,2.45E1,6.26E2,1.5535E3,2.25E1,6.485E2,2.85E1,1.2215E3,3.45E1,3.65E1,3.95E1,1.427E3,5.697064E-1,2.0125E3,5.978677E-1,5.25E1,-5.718691E-1,-5.594347E-1,-4.850327E-1,-5.4721195E-1,-5.2818304E-1,-5.489584E-1,6.666667E-2,-4.5507902E-1,-4.879304E-1,-5.1941514E-1,-3.3975905E-1,-4.77551E-1,-4.8680547E-1,-3.721519E-1,-4.523591E-1,-2.5714287E-1,-3.9800286E-1,-3.2239822E-1,-4.049326E-1,-2.3505156E-1,2.5531916E-2,-2.064717E-1,-2.9290855E-1,-3.4528494E-1,-4.2794764E-2,-1.8022814E-1,2.7500002E-2,1.303685E-1,-2.029091E-1,-1.1915394E-1,-1.6429652E-1,-2.8800002E-1,2.2135924E-1,3.304348E-1,6.1363637E-2,1.810651E-1,1.4285715E-1,4.5832017E-1,2.3382355E-1,3.825784E-1,-1.4649682E-1,2.3463689E-2,1.0909092E-1,-1.8935363E-1,1.1450382E-1,2.4307694E-1,1.2972973E-1,-4.308231E-2,5.039127E-1,5.676324E-1,3.6898395E-1,4.8068574E-1,2.9878545E-1,5.172414E-1,2.846512E-1,1.790235E-1,4.4081634E-1,2.8421053E-1,4.191781E-1,5.8354205E-1],"split_indices":[1,1,1,1,1,2,1,1,1,1,2,1,1,2,1,2,2,2,1,2,2,1,2,2,2,2,2,2,2,2,2,2,0,0,0,0,0,2,2,1,2,2,2,2,1,1,0,1,1,0,0,1,0,1,0,1,1,1,0,0,2,0,1,0,0,0,0,0,0,0,0,0,0,0,0,0,0,0,0,0,0,0,0,0,0,0,0,0,0,0,0,0,0,0,0,0,0,0,0,0,0,0,0,0,0,0,0,0,0,0,0,0,0,0,0,0,0,0,0,0,0,0,0],"split_type":[0,0,0,0,0,0,0,0,0,0,0,0,0,0,0,0,0,0,0,0,0,0,0,0,0,0,0,0,0,0,0,0,0,0,0,0,0,0,0,0,0,0,0,0,0,0,0,0,0,0,0,0,0,0,0,0,0,0,0,0,0,0,0,0,0,0,0,0,0,0,0,0,0,0,0,0,0,0,0,0,0,0,0,0,0,0,0,0,0,0,0,0,0,0,0,0,0,0,0,0,0,0,0,0,0,0,0,0,0,0,0,0,0,0,0,0,0,0,0,0,0,0,0],"sum_hessian":[7.5827E4,6.622525E4,9.60175E3,6.048325E4,5.742E3,2.451E3,7.15075E3,5.1875E4,8.60825E3,3.91125E3,1.83075E3,1.0645E3,1.3865E3,1.5885E3,5.56225E3,4.026425E4,1.161075E4,5.27175E3,3.3365E3,2.4965E3,1.41475E3,5.5025E2,1.2805E3,6.08E2,4.565E2,6.3525E2,7.5125E2,1.2705E3,3.18E2,5.89E2,4.97325E3,3.88095E4,1.45475E3,1.1389E4,2.2175E2,5.12575E3,1.46E2,1.7985E3,1.538E3,6.1525E2,1.88125E3,4.2325E2,9.915E2,2.355E2,3.1475E2,7.6725E2,5.1325E2,3.935E2,2.145E2,3.1875E2,1.3775E2,4.29E2,2.0625E2,5.365E2,2.1475E2,7.7325E2,4.9725E2,7.425E1,2.4375E2,4.8425E2,1.0475E2,4.50125E3,4.72E2,2.6852E4,1.19575E4,6.4875E2,8.06E2,2.78525E3,8.60375E3,1.25E0,2.205E2,1.2625E3,3.86325E3,6.125E1,8.475E1,1.74025E3,5.825E1,1.525E3,1.3E1,1.7425E2,4.41E2,1.83375E3,4.75E1,2.25E1,4.0075E2,2.4225E2,7.4925E2,1.7075E2,6.475E1,1.19E2,1.9575E2,3.4275E2,4.245E2,1.6425E2,3.49E2,2.565E2,1.37E2,1.31E2,8.35E1,4.25E0,3.145E2,6.7E1,7.075E1,1.1675E2,3.1225E2,1E1,1.9625E2,2.9375E2,2.4275E2,7.3E1,1.4175E2,2.7375E2,4.995E2,2.795E2,2.1775E2,6.075E1,1.35E1,1.065E2,1.3725E2,7.25E1,3.225E1,5.375E1,4.1825E2],"tree_param":{"num_deleted":"0","num_feature":"3","num_nodes":"123","size_leaf_vector":"0"}},{"base_weights":[-1.0201495E0,-1.3425596E0,1.0949141E0,-1.4018463E0,-7.1217275E-1,2.996503E-1,1.4247772E0,-1.4342452E0,-1.2537628E0,-8.8778925E-1,-4.0095893E-1,6.7663324E-1,4.5319796E-2,1.1139205E0,1.5162863E0,-1.4397538E0,-1.292696E0,-1.3084377E0,-1.1767259E0,-9.712587E-1,-7.8192854E-1,-1.6839197E-1,-5.9173626E-1,3.7282518E-1,9.223146E-1,-2.0956445E-1,3.2397062E-1,1.384131E0,8.6247957E-1,1.3701673E0,1.5335399E0,-1.4623839E0,-1.40964E0,-1.3193698E0,-1.0053383E0,-1.3159992E0,-1.0367118E0,-1.0057979E0,-1.1919352E0,-8.897945E-1,-1.0231923E0,-5.626184E-1,-8.556898E-1,-2.784232E-1,2.371479E-2,-6.9920176E-1,-4.0842703E-1,4.9289238E-1,8.3739296E-2,7.7215755E-1,1.1561882E0,-9.733811E-2,-4.048302E-1,4.9250907E-1,9.827558E-2,1.4603897E0,1.2609999E0,1.0052866E0,5.377527E-1,1.4536163E0,9.5397353E-1,1.54474E0,1.4625865E0,-1.4312083E0,-1.4748241E0,-1.3622415E0,-1.4213738E0,-1.2461259E0,-1.3825542E0,-6.151589E-1,-1.4038533E0,-1.2603393E0,-1.3342774E0,-8.3230275E-1,-1.1943069E0,4.9000606E-1,-1.0163976E0,-1.1165737E0,-1.2271311E0,-9.103408E-1,-3.9329886E-1,-1.1224399E0,-9.567149E-1,-4.8992413E-1,-9.433213E-1,-7.24099E-1,-9.423359E-1,-1.7250438E-1,-4.1729772E-1,4.3001705E-1,-8.942825E-2,-5.81317E-1,-8.287389E-1,2.5293216E-1,-4.3913338E-1,3.2717118E-1,5.5963016E-1,-1.1839372E0,1.2290069E-1,9.036597E-1,4.8846298E-1,-1.2453644E-1,1.1730397E0,-3.1392127E-1,7.214873E-2,6.309321E-1,-4.3139982E-1,3.4619424E-1,6.7234963E-1,6.0310125E-2,7.5773525E-1,1.1127138E0,1.4794655E0,1.0697305E0,1.375639E0,8.038218E-1,1.1161343E0,2.2925557E-1,6.2858677E-1,1.5249689E0,1.3520994E0,1.0316113E0,5.440399E-1,1.2388369E0,1.53941E0],"categories":[],"categories_nodes":[],"categories_segments":[],"categories_sizes":[],"default_left":[1,1,1,1,1,1,1,1,1,1,1,1,1,1,1,1,1,1,1,1,1,1,1,1,1,1,1,1,1,1,1,1,1,1,1,1,1,1,1,1,1,1,1,1,1,1,1,1,1,1,1,1,1,1,1,1,1,1,1,1,1,0,1,0,0,0,0,0,0,0,0,0,0,0,0,0,0,0,0,0,0,0,0,0,0,0,0,0,0,0,0,0,0,0,0,0,0,0,0,0,0,0,0,0,0,0,0,0,0,0,0,0,0,0,0,0,0,0,0,0,0,0,0,0,0],"id":1,"left_children":[1,3,5,7,9,11,13,15,17,19,21,23,25,27,29,31,33,35,37,39,41,43,45,47,49,51,53,55,57,59,61,63,65,67,69,71,73,75,77,79,81,83,85,87,89,91,93,95,97,99,101,103,105,107,109,111,113,115,117,119,121,-1,123,-1,-1,-1,-1,-1,-1,-1,-1,-1,-1,-1,-1,-1,-1,-1,-1,-1,-1,-1,-1,-1,-1,-1,-1,-1,-1,-1,-1,-1,-1,-1,-1,-1,-1,-1,-1,-1,-1,-1,-1,-1,-1,-1,-1,-1,-1,-1,-1,-1,-1,-1,-1,-1,-1,-1,-1,-1,-1,-1,-1,-1,-1],"loss_changes":[4.8237055E4,2.2929688E3,2.4541367E3,2.6735938E2,2.8813184E2,2.6310678E2,1.8643652E2,3.4023438E1,4.0913086E1,2.9048828E1,8.446353E1,8.217612E1,1.1654118E2,1.0125122E2,1.07734375E1,2.8125E1,1.1963135E1,1.0728516E1,9.703613E0,7.052246E0,2.366034E1,1.8191225E1,2.033252E1,1.71744E1,2.054956E1,1.8742905E1,2.9767075E1,4.967285E0,3.580188E1,1.7669556E1,1.3623047E0,7.6835938E0,8.652344E0,5.604492E0,2.2688736E1,4.1416016E0,4.2914276E0,6.032715E0,8.830566E0,7.194824E0,6.465454E0,1.0013588E1,1.2029053E1,7.9751472E0,1.4483171E1,9.57254E0,8.015411E0,3.6904602E0,7.430977E0,1.3543106E1,5.2552185E0,2.0050308E1,8.87212E0,1.1568382E1,8.375213E0,1.2817993E0,4.770172E0,1.1232849E1,6.623993E0,1.2348633E0,2.4479141E0,0E0,9.099487E0,0E0,0E0,0E0,0E0,0E0,0E0,0E0,0E0,0E0,0E0,0E0,0E0,0E0,0E0,0E0,0E0,0E0,0E0,0E0,0E0,0E0,0E0,0E0,0E0,0E0,0E0,0E0,0E0,0E0,0E0,0E0,0E0,0E0,0E0,0E0,0E0,0E0,0E0,0E0,0E0,0E0,0E0,0E0,0E0,0E0,0E0,0E0,0E0,0E0,0E0,0E0,0E0,0E0,0E0,0E0,0E0,0E0,0E0,0E0,0E0,0E0,0E0],"parents":[2147483647,0,0,1,1,2,2,3,3,4,4,5,5,6,6,7,7,8,8,9,9,10,10,11,11,12,12,13,13,14,14,15,15,16,16,17,17,18,18,19,19,20,20,21,21,22,22,23,23,24,24,25,25,26,26,27,27,28,28,29,29,30,30,31,31,32,32,33,33,34,34,35,35,36,36,37,37,38,38,39,39,40,40,41,41,42,42,43,43,44,44,45,45,46,46,47,47,48,48,49,49,50,50,51,51,52,52,53,53,54,54,55,55,56,56,57,57,58,58,59,59,60,60,62,62],"right_children":[2,4,6,8,10,12,14,16,18,20,22,24,26,28,30,32,34,36,38,40,42,44,46,48,50,52,54,56,58,60,62,64,66,68,70,72,74,76,78,80,82,84,86,88,90,92,94,96,98,100,102,104,106,108,110,112,114,116,118,120,122,-1,124,-1,-1,-1,-1,-1,-1,-1,-1,-1,-1,-1,-1,-1,-1,-1,-1,-1,-1,-1,-1,-1,-1,-1,-1,-1,-1,-1,-1,-1,-1,-1,-1,-1,-1,-1,-1,-1,-1,-1,-1,-1,-1,-1,-1,-1,-1,-1,-1,-1,-1,-1,-1,-1,-1,-1,-1,-1,-1,-1,-1,-1,-1],"split_conditions":[2.05E1,9.5E0,3.15E1,5E-1,1.55E1,6.215E2,4.15E1,2.3365E3,4.5E0,1.25E1,6.81E2,2.45E1,2.55E1,7.32E2,4.65E1,-3.5E0,2.743E3,2.4805E3,2.365E2,1.3275E3,4.225E2,1.85E1,1.85E1,4.555E2,2.85E1,1.2475E3,1.163E3,4.615E2,1.51E3,1.367E3,1.556E3,8.795E2,8.045E2,1.2055E3,1.525E3,1.0025E3,1.2015E3,5.31E2,1.1435E3,2.444E3,1.6425E3,1.9585E3,1.337E3,4.15E2,2.385E2,1.146E3,7.065E2,2.305E2,4.585E2,4.525E2,6.27E2,2.25E1,2.36E2,2.85E1,2.2225E3,8.315E2,3.45E1,3.45E1,3.35E1,6.775E2,2.4515E3,4.63422E-1,6.15E1,-4.293625E-1,-4.4244725E-1,-4.0867248E-1,-4.2641217E-1,-3.738378E-1,-4.1476628E-1,-1.8454768E-1,-4.2115602E-1,-3.781018E-1,-4.0028325E-1,-2.4969083E-1,-3.5829207E-1,1.4700182E-1,-3.049193E-1,-3.349721E-1,-3.6813936E-1,-2.7310225E-1,-1.1798967E-1,-3.3673197E-1,-2.8701448E-1,-1.4697725E-1,-2.829964E-1,-2.1722971E-1,-2.8270078E-1,-5.1751316E-2,-1.2518932E-1,1.2900512E-1,-2.6828477E-2,-1.7439511E-1,-2.4862169E-1,7.587965E-2,-1.3174002E-1,9.8151356E-2,1.6788906E-1,-3.5518116E-1,3.6870208E-2,2.7109793E-1,1.465389E-1,-3.7360933E-2,3.519119E-1,-9.417639E-2,2.164462E-2,1.8927963E-1,-1.2941995E-1,1.0385828E-1,2.017049E-1,1.8093038E-2,2.2732058E-1,3.3381414E-1,4.4383967E-1,3.2091916E-1,4.126917E-1,2.4114655E-1,3.348403E-1,6.8776675E-2,1.8857604E-1,4.5749068E-1,4.0562984E-1,3.094834E-1,1.6321197E-1,3.7165108E-1,4.6182302E-1],"split_indices":[1,1,1,1,1,2,1,2,1,1,2,1,1,2,1,1,2,2,2,0,2,1,1,2,1,2,2,2,2,2,2,0,0,0,0,0,0,0,0,2,0,0,0,2,2,2,0,2,2,2,0,1,0,1,0,0,1,1,1,2,2,0,1,0,0,0,0,0,0,0,0,0,0,0,0,0,0,0,0,0,0,0,0,0,0,0,0,0,0,0,0,0,0,0,0,0,0,0,0,0,0,0,0,0,0,0,0,0,0,0,0,0,0,0,0,0,0,0,0,0,0,0,0,0,0],"split_type":[0,0,0,0,0,0,0,0,0,0,0,0,0,0,0,0,0,0,0,0,0,0,0,0,0,0,0,0,0,0,0,0,0,0,0,0,0,0,0,0,0,0,0,0,0,0,0,0,0,0,0,0,0,0,0,0,0,0,0,0,0,0,0,0,0,0,0,0,0,0,0,0,0,0,0,0,0,0,0,0,0,0,0,0,0,0,0,0,0,0,0,0,0,0,0,0,0,0,0,0,0,0,0,0,0,0,0,0,0,0,0,0,0,0,0,0,0,0,0,0,0,0,0,0,0],"sum_hessian":[7.073418E4,6.137833E4,9.355853E3,5.6100918E4,5.277409E3,2.743495E3,6.612358E3,4.6022957E4,1.0077958E4,3.3724812E3,1.904928E3,1.1045736E3,1.6389215E3,1.5068289E3,5.105529E3,4.4290164E4,1.7327957E3,5.8851562E3,4.192802E3,1.8810942E3,1.4913871E3,8.5929175E2,1.0456362E3,4.949898E2,6.0958386E2,8.560935E2,7.82828E2,7.2413434E2,7.826945E2,5.476854E2,4.5578433E3,2.5260076E4,1.9030088E4,1.5823263E3,1.5046945E2,5.7220825E3,1.6307391E2,3.480801E2,3.844722E3,7.393953E2,1.1416989E3,3.7752905E2,1.113858E3,5.460732E2,3.1321863E2,6.5741223E2,3.8822403E2,3.4923544E2,1.4575438E2,3.7385455E2,2.3572928E2,5.4459393E2,3.1149954E2,4.4748502E2,3.3534296E2,4.4047482E2,2.8365952E2,5.421669E2,2.4052763E2,4.541362E2,9.354925E1,3.918529E3,6.3931445E2,7.23782E3,1.8022256E4,3.799491E3,1.5230596E4,7.424244E2,8.3990186E2,7.7315125E1,7.3154335E1,1.4318479E3,4.2902344E3,7.372717E1,8.934673E1,2.1310017E0,3.4594913E2,1.2343854E3,2.6103364E3,7.0921277E2,3.0182554E1,4.5159863E2,6.901002E2,3.1891916E2,5.8609905E1,4.459475E2,6.679105E2,3.1106656E2,2.3500659E2,6.761373E1,2.4560489E2,3.470596E2,3.103526E2,1.690406E1,3.7131998E2,1.019582E2,2.4727724E2,3.4917629E0,1.4226262E2,2.5395323E2,1.1990133E2,2.9784007E0,2.3275089E2,2.387056E2,3.0588834E2,7.221912E0,3.0427762E2,2.48354E2,1.9913103E2,3.181201E2,1.722289E1,2.5996225E1,4.144786E2,1.10172905E2,1.734866E2,1.953576E2,3.4680927E2,5.551331E1,1.8501431E2,2.584552E2,1.9568098E2,7.737801E1,1.6171236E1,1.6777945E2,4.71535E2],"tree_param":{"num_deleted":"0","num_feature":"3","num_nodes":"125","size_leaf_vector":"0"}},{"base_weights":[-8.4397244E-1,-1.1210904E0,8.5056335E-1,-1.1845906E0,-6.2646466E-1,2.0942989E-1,1.2226552E0,-1.2200258E0,-1.0694642E0,-7.547363E-1,-3.691046E-1,5.713593E-1,6.42538E-2,9.171764E-1,1.3069805E0,-1.2258531E0,-1.0718131E0,-1.1058817E0,-9.883204E-1,-8.420253E-1,-6.734874E-1,-2.0855066E-1,-5.238407E-1,3.7289548E-1,9.376E-1,-1.7173022E-1,2.6925233E-1,1.0827875E0,5.310465E-1,1.1976008E0,1.3376783E0,-1.2481049E0,-1.2043602E0,-1.1005934E0,-7.801411E-1,-1.1130264E0,-8.414285E-1,-8.7339497E-1,-1.0234354E0,-6.4755076E-1,-8.5955495E-1,-5.740823E-1,-7.4413186E-1,-2.9008844E-1,-7.154964E-2,-5.9838146E-1,-3.966804E-1,2.6859176E-1,4.7191346E-1,6.814785E-1,9.961223E-1,-6.6833846E-2,-2.8725603E-1,1.3528319E-1,4.4388485E-1,1.1891356E0,8.8153565E-1,6.705146E-1,3.8400868E-1,1.2785667E0,8.3508843E-1,-1.2128376E0,-1.2618895E0,-1.1698662E0,-1.2164035E0,-1.0241743E0,-1.1652033E0,-4.7962633E-1,-1.2507701E0,-1.0563338E0,-1.1326421E0,-7.542328E-1,-1.036699E0,-8.8779867E-1,1.1491609E-1,-7.949815E-1,-1.039006E0,-7.7346575E-1,-4.1398498E-1,-8.6969507E-1,-6.007311E-1,-2.999632E-1,-6.122264E-1,-7.863401E-1,-5.061402E-1,5.8438633E-2,-3.2246745E-1,7.447421E-2,-2.0242022E-1,-6.3645935E-1,-3.6646825E-1,5.887827E-1,-4.151255E-1,2.7834877E-1,-9.8130655E-1,5.2885056E-1,2.2324054E-1,4.0275925E-1,9.11081E-1,3.119318E-1,1.0244565E0,-3.877911E-4,-2.3635644E-1,-3.9025646E-1,-1.2048485E-1,2.3229174E-1,-1.1579969E-1,7.0442456E-1,3.3543345E-1,1.256414E0,1.0768563E0,5.2426773E-1,9.235391E-1,3.5323903E-1,8.016123E-1,1.1936804E-1,5.166418E-1,1.32856E0,1.2077631E0,9.496153E-1,6.27186E-1],"categories":[],"categories_nodes":[],"categories_segments":[],"categories_sizes":[],"default_left":[1,1,1,1,1,1,1,1,1,1,1,1,1,1,1,1,1,1,1,1,1,1,1,1,1,1,1,1,1,1,0,1,1,1,1,1,1,1,1,1,1,1,1,1,1,1,1,1,1,1,1,1,1,1,1,1,1,1,1,1,1,0,0,0,0,0,0,0,0,0,0,0,0,0,0,0,0,0,0,0,0,0,0,0,0,0,0,0,0,0,0,0,0,0,0,0,0,0,0,0,0,0,0,0,0,0,0,0,0,0,0,0,0,0,0,0,0,0,0,0,0],"id":2,"left_children":[1,3,5,7,9,11,13,15,17,19,21,23,25,27,29,31,33,35,37,39,41,43,45,47,49,51,53,55,57,59,-1,61,63,65,67,69,71,73,75,77,79,81,83,85,87,89,91,93,95,97,99,101,103,105,107,109,111,113,115,117,119,-1,-1,-1,-1,-1,-1,-1,-1,-1,-1,-1,-1,-1,-1,-1,-1,-1,-1,-1,-1,-1,-1,-1,-1,-1,-1,-1,-1,-1,-1,-1,-1,-1,-1,-1,-1,-1,-1,-1,-1,-1,-1,-1,-1,-1,-1,-1,-1,-1,-1,-1,-1,-1,-1,-1,-1,-1,-1,-1,-1],"loss_changes":[2.888666E4,1.6597734E3,2.0624092E3,1.8982031E2,1.9835767E2,1.66864E2,1.3972852E2,2.9621094E1,3.1515625E1,2.7906006E1,4.9662384E1,6.5738495E1,1.09773346E2,7.5321045E1,1.2786133E1,1.49765625E1,1.0582764E1,1.3438477E1,1.2938965E1,6.027588E0,1.4209412E1,1.0981117E1,9.426331E0,5.980644E0,4.1009216E0,1.2765804E1,2.8346008E1,1.6708435E1,7.0883408E0,2.6775024E1,0E0,6.6835938E0,5.8691406E0,4.9198E0,1.7198257E1,7.038086E0,2.6955566E0,1.16188965E1,8.492432E0,4.495697E0,4.119507E0,8.915802E0,1.180719E1,6.982689E0,7.0627556E0,5.4253693E0,7.146984E0,3.8135223E0,4.1584167E0,3.6312714E0,4.6705933E0,6.243065E0,8.5721245E0,1.6797298E1,1.4644829E1,2.725708E0,3.8782349E0,7.3076096E0,6.1409645E0,1.1334229E0,3.5967178E0,0E0,0E0,0E0,0E0,0E0,0E0,0E0,0E0,0E0,0E0,0E0,0E0,0E0,0E0,0E0,0E0,0E0,0E0,0E0,0E0,0E0,0E0,0E0,0E0,0E0,0E0,0E0,0E0,0E0,0E0,0E0,0E0,0E0,0E0,0E0,0E0,0E0,0E0,0E0,0E0,0E0,0E0,0E0,0E0,0E0,0E0,0E0,0E0,0E0,0E0,0E0,0E0,0E0,0E0,0E0,0E0,0E0,0E0,0E0,0E0],"parents":[2147483647,0,0,1,1,2,2,3,3,4,4,5,5,6,6,7,7,8,8,9,9,10,10,11,11,12,12,13,13,14,14,15,15,16,16,17,17,18,18,19,19,20,20,21,21,22,22,23,23,24,24,25,25,26,26,27,27,28,28,29,29,31,31,32,32,33,33,34,34,35,35,36,36,37,37,38,38,39,39,40,40,41,41,42,42,43,43,44,44,45,45,46,46,47,47,48,48,49,49,50,50,51,51,52,52,53,53,54,54,55,55,56,56,57,57,58,58,59,59,60,60],"right_children":[2,4,6,8,10,12,14,16,18,20,22,24,26,28,30,32,34,36,38,40,42,44,46,48,50,52,54,56,58,60,-1,62,64,66,68,70,72,74,76,78,80,82,84,86,88,90,92,94,96,98,100,102,104,106,108,110,112,114,116,118,120,-1,-1,-1,-1,-1,-1,-1,-1,-1,-1,-1,-1,-1,-1,-1,-1,-1,-1,-1,-1,-1,-1,-1,-1,-1,-1,-1,-1,-1,-1,-1,-1,-1,-1,-1,-1,-1,-1,-1,-1,-1,-1,-1,-1,-1,-1,-1,-1,-1,-1,-1,-1,-1,-1,-1,-1,-1,-1,-1,-1],"split_conditions":[1.95E1,7.5E0,3.25E1,-5E-1,1.45E1,4.805E2,4.15E1,2.3365E3,3.5E0,1.05E1,7.45E2,2.65E1,2.45E1,1.0835E3,5.25E1,-4.5E0,2.743E3,2.4805E3,1.0145E3,2.365E2,6.505E2,1.75E1,1.75E1,2.25E1,2.75E1,1.5465E3,2.85E1,7.255E2,1.602E3,1.3695E3,4.013035E-1,8.555E2,8.455E2,1.1455E3,1.72E3,9.435E2,1.7215E3,2.6125E3,2.15E2,1.7095E3,2.4515E3,9.225E2,1.9705E3,1.835E2,3.92E2,1.9485E3,5.23E2,2.3185E3,4.12E2,3.22E2,7.275E2,1.402E3,2.25E1,1.305E3,7.805E2,4.615E2,7.625E2,3.45E1,1.8825E3,6.775E2,2.0165E3,-3.6385128E-1,-3.7856686E-1,-3.5095987E-1,-3.6492106E-1,-3.0725232E-1,-3.49561E-1,-1.438879E-1,-3.7523106E-1,-3.1690013E-1,-3.3979267E-1,-2.2626986E-1,-3.1100973E-1,-2.663396E-1,3.447483E-2,-2.3849446E-1,-3.117018E-1,-2.3203973E-1,-1.241955E-1,-2.6090854E-1,-1.8021932E-1,-8.998896E-2,-1.8366793E-1,-2.3590204E-1,-1.5184206E-1,1.753159E-2,-9.674024E-2,2.2342263E-2,-6.072607E-2,-1.9093782E-1,-1.0994048E-1,1.7663482E-1,-1.24537654E-1,8.350463E-2,-2.94392E-1,1.5865517E-1,6.697217E-2,1.2082778E-1,2.733243E-1,9.357954E-2,3.0733696E-1,-1.1633734E-4,-7.090694E-2,-1.1707694E-1,-3.6145456E-2,6.968752E-2,-3.4739908E-2,2.1132737E-1,1.0063004E-1,3.7692425E-1,3.2305688E-1,1.5728033E-1,2.7706173E-1,1.0597172E-1,2.404837E-1,3.5810415E-2,1.5499255E-1,3.98568E-1,3.6232895E-1,2.848846E-1,1.8815582E-1],"split_indices":[1,1,1,1,1,2,1,2,1,1,2,1,1,2,1,1,2,2,0,2,2,1,1,1,1,0,1,2,2,2,0,0,0,0,0,0,0,2,2,0,2,0,2,2,2,0,0,0,2,2,0,2,1,2,2,2,2,1,2,2,2,0,0,0,0,0,0,0,0,0,0,0,0,0,0,0,0,0,0,0,0,0,0,0,0,0,0,0,0,0,0,0,0,0,0,0,0,0,0,0,0,0,0,0,0,0,0,0,0,0,0,0,0,0,0,0,0,0,0,0,0],"split_type":[0,0,0,0,0,0,0,0,0,0,0,0,0,0,0,0,0,0,0,0,0,0,0,0,0,0,0,0,0,0,0,0,0,0,0,0,0,0,0,0,0,0,0,0,0,0,0,0,0,0,0,0,0,0,0,0,0,0,0,0,0,0,0,0,0,0,0,0,0,0,0,0,0,0,0,0,0,0,0,0,0,0,0,0,0,0,0,0,0,0,0,0,0,0,0,0,0,0,0,0,0,0,0,0,0,0,0,0,0,0,0,0,0,0,0,0,0,0,0,0,0],"sum_hessian":[6.151208E4,5.2866785E4,8.645296E3,4.6850688E4,6.0160947E3,3.1754297E3,5.469866E3,3.5816895E4,1.1033794E4,4.0136875E3,2.0024072E3,9.082337E2,2.267196E3,1.1858519E3,4.284014E3,3.445494E4,1.3619529E3,7.607083E3,3.4267112E3,1.9304083E3,2.083279E3,9.8388153E2,1.0185257E3,5.9034644E2,3.1788727E2,1.0540216E3,1.2131744E3,8.286429E2,3.5720908E2,9.4760516E2,3.336409E3,1.6900523E4,1.7554418E4,1.2371094E3,1.2484348E2,7.403847E3,2.0323582E2,8.080314E2,2.61868E3,1.6275374E2,1.7676545E3,8.692575E2,1.2140216E3,6.1609045E2,3.6779105E2,6.3978265E2,3.7874304E2,2.8930768E2,3.0103876E2,6.1477413E1,2.5640985E2,5.5325226E2,5.0076935E2,6.8751935E2,5.256551E2,5.3894055E2,2.8970227E2,1.8149637E2,1.757127E2,7.725353E2,1.7506992E2,4.7743853E3,1.2126139E4,4.5682456E3,1.2986173E4,5.744803E2,6.626291E2,7.742423E1,4.7419254E1,1.9173284E3,5.486519E3,1.4385957E2,5.9376244E1,7.965245E2,1.150689E1,1.7041281E2,2.448267E3,1.0424425E2,5.8509487E1,1.6987413E3,6.8913185E1,1.07265724E2,7.6199176E2,1.0291891E3,1.8483246E2,5.2302486E1,5.6378796E2,1.7403537E2,1.9375569E2,5.480533E2,9.172938E1,6.390627E0,3.7235242E2,2.8783804E2,1.4696281E0,2.4403651E2,5.700224E1,2.9012587E1,3.246483E1,1.067393E1,2.4573592E2,3.9818283E2,1.5506941E2,3.0874417E2,1.9202519E2,4.9597058E2,1.9154874E2,1.528819E2,3.727732E2,3.3063287E2,2.0830771E2,3.1895002E1,2.5780728E2,5.4147076E1,1.2734929E2,5.9297455E1,1.1641525E2,4.4239993E2,3.3013535E2,1.1058472E2,6.448519E1],"tree_param":{"num_deleted":"0","num_feature":"3","num_nodes":"121","size_leaf_vector":"0"}},{"base_weights":[-7.20548E-1,-9.7014445E-1,6.654549E-1,-1.0334433E0,-5.013042E-1,1.6034149E-1,1.1142336E0,-1.0748812E0,-9.0357256E-1,-6.1122304E-1,-3.243237E-1,-9.5308106E-4,4.3054754E-1,8.649288E-1,1.208036E0,-1.0997471E0,-1.0271109E0,-9.4385684E-1,-8.163251E-1,-6.998748E-1,-5.603869E-1,-1.492652E-1,-3.8817334E-1,2.0652501E-1,-1.1344074E-1,7.0299894E-1,2.4439244E-1,9.948065E-1,4.444558E-1,1.218832E0,1.051183E0,-1.1460603E0,-1.0823803E0,-1.0344203E0,-7.229592E-1,-9.516703E-1,-6.722919E-1,-7.0373356E-1,-8.517153E-1,-5.743542E-1,-7.3369455E-1,-4.5047766E-1,-6.107677E-1,3.2533363E-1,-1.7222437E-1,-4.4054735E-1,-2.9932466E-1,7.300486E-2,3.0958775E-1,-1.9262879E-1,-1.693291E-2,8.294849E-1,5.2614814E-1,3.1998795E-1,-2.069493E-2,1.1228809E0,8.087147E-1,1.4038897E-1,5.1772445E-1,1.1663175E0,1.2285708E0,7.2437924E-1,1.2114992E0,-1.093357E0,-1.1592851E0,-1.0430717E0,-1.097486E0,-1.0427393E0,-9.527767E-1,1.080331E0,-7.538748E-1,-8.8988143E-1,-9.7343683E-1,-1.0391419E0,-6.229109E-1,-7.369467E-1,-2.6599854E-1,-6.6411704E-1,-8.705049E-1,-6.957542E-1,-2.9288712E-1,-6.969255E-1,-8.612674E-1,3.7347534E-1,-4.6608892E-1,-4.7545326E-1,-6.4905214E-1,-3.3531245E-2,1.1128825E0,-1.288038E-1,-4.5031956E-1,-3.5716516E-1,-4.945597E-1,-2.2215794E-1,-4.1802487E-1,1.3150638E-1,-1.22139335E-1,-4.262465E-1,3.2279563E-1,-1.3090071E-1,-3.3884516E-1,6.599781E-2,-1.4630575E-1,4.5447776E-1,8.806258E-1,3.9497468E-1,6.849528E-1,2.5622037E-1,4.558052E-1,2.6238996E-1,-2.6501906E-1,8.4600705E-1,1.1384641E0,5.3676677E-1,8.8632864E-1,1.1828291E0,-5.890129E-2,5.9901595E-1,2.1117689E-1,1.2072831E0,8.881815E-1,-3.1809846E-1,7.4478453E-1],"categories":[],"categories_nodes":[],"categories_segments":[],"categories_sizes":[],"default_left":[1,1,1,1,1,1,1,1,1,1,1,1,1,1,1,1,1,1,1,1,1,1,1,1,1,1,1,1,1,1,1,1,1,1,1,1,1,1,1,1,1,1,1,1,1,1,1,1,1,1,1,1,1,1,1,1,1,1,1,1,0,1,0,0,0,0,0,0,0,0,0,0,0,0,0,0,0,0,0,0,0,0,0,0,0,0,0,0,0,0,0,0,0,0,0,0,0,0,0,0,0,0,0,0,0,0,0,0,0,0,0,0,0,0,0,0,0,0,0,0,0,0,0],"id":3,"left_children":[1,3,5,7,9,11,13,15,17,19,21,23,25,27,29,31,33,35,37,39,41,43,45,47,49,51,53,55,57,59,61,63,65,67,69,71,73,75,77,79,81,83,85,87,89,91,93,95,97,99,101,103,105,107,109,111,113,115,117,119,-1,121,-1,-1,-1,-1,-1,-1,-1,-1,-1,-1,-1,-1,-1,-1,-1,-1,-1,-1,-1,-1,-1,-1,-1,-1,-1,-1,-1,-1,-1,-1,-1,-1,-1,-1,-1,-1,-1,-1,-1,-1,-1,-1,-1,-1,-1,-1,-1,-1,-1,-1,-1,-1,-1,-1,-1,-1,-1,-1,-1,-1,-1],"loss_changes":[1.804949E4,1.3115547E3,1.8047568E3,2.0865625E2,1.0214685E2,1.6331458E2,9.755127E1,3.3941406E1,3.2367676E1,1.4228638E1,2.2495483E1,5.4811295E1,7.086969E1,6.269629E1,3.9023438E0,1.43671875E1,2.175586E1,1.3032715E1,1.1297241E1,4.5807495E0,1.1169983E1,5.949726E0,6.7452545E0,1.1339111E1,1.1634844E1,1.227002E1,1.6712963E1,2.0125488E1,6.046192E0,2.8320312E-2,9.830582E0,2.4091797E0,7.2441406E0,5.7197266E0,1.4242844E1,7.5546875E0,2.6790695E0,1.0268311E1,7.4121094E0,8.499542E0,3.7369995E0,8.579498E0,7.01886E0,7.1889887E0,6.179734E0,4.001297E0,4.9560394E0,4.137165E0,4.663269E0,7.504656E0,7.38547E0,5.917816E0,4.720459E0,5.5018387E0,1.29290495E1,1.281189E0,7.193344E0,1.1434003E1,5.3795166E0,4.2460938E0,0E0,1.7206917E0,0E0,0E0,0E0,0E0,0E0,0E0,0E0,0E0,0E0,0E0,0E0,0E0,0E0,0E0,0E0,0E0,0E0,0E0,0E0,0E0,0E0,0E0,0E0,0E0,0E0,0E0,0E0,0E0,0E0,0E0,0E0,0E0,0E0,0E0,0E0,0E0,0E0,0E0,0E0,0E0,0E0,0E0,0E0,0E0,0E0,0E0,0E0,0E0,0E0,0E0,0E0,0E0,0E0,0E0,0E0,0E0,0E0,0E0,0E0,0E0,0E0],"parents":[2147483647,0,0,1,1,2,2,3,3,4,4,5,5,6,6,7,7,8,8,9,9,10,10,11,11,12,12,13,13,14,14,15,15,16,16,17,17,18,18,19,19,20,20,21,21,22,22,23,23,24,24,25,25,26,26,27,27,28,28,29,29,30,30,31,31,32,32,33,33,34,34,35,35,36,36,37,37,38,38,39,39,40,40,41,41,42,42,43,43,44,44,45,45,46,46,47,47,48,48,49,49,50,50,51,51,52,52,53,53,54,54,55,55,56,56,57,57,58,58,59,59,61,61],"right_children":[2,4,6,8,10,12,14,16,18,20,22,24,26,28,30,32,34,36,38,40,42,44,46,48,50,52,54,56,58,60,62,64,66,68,70,72,74,76,78,80,82,84,86,88,90,92,94,96,98,100,102,104,106,108,110,112,114,116,118,120,-1,122,-1,-1,-1,-1,-1,-1,-1,-1,-1,-1,-1,-1,-1,-1,-1,-1,-1,-1,-1,-1,-1,-1,-1,-1,-1,-1,-1,-1,-1,-1,-1,-1,-1,-1,-1,-1,-1,-1,-1,-1,-1,-1,-1,-1,-1,-1,-1,-1,-1,-1,-1,-1,-1,-1,-1,-1,-1,-1,-1,-1,-1],"split_conditions":[1.85E1,7.5E0,3.45E1,-5E-1,1.35E1,2.65E1,4.65E1,8.985E2,3.5E0,9.5E0,4.18E2,5.745E2,6.795E2,1.2475E3,2.175E3,-6.5E0,2.6125E3,2.4805E3,1.0145E3,3.955E2,1.2125E3,1.04E2,1.65E1,2.15E1,2.25E1,4.485E2,1.718E3,7.34E2,1.012E3,5.45E1,6.55E1,7.585E2,9.065E2,2.3365E3,3.285E2,9.435E2,7.505E2,2.34E3,2.365E2,3.275E2,1.8295E3,1.32E2,3.755E2,9.9E1,2.0195E3,1.3355E3,1.0745E3,1.9245E3,6.425E2,1.7795E3,1.157E3,9.495E2,3.05E1,3.15E1,1.4295E3,8.365E2,3.65E1,2.26E2,2.4055E3,1.385E3,3.6857125E-1,1.6E1,3.6344978E-1,-3.280071E-1,-3.4778553E-1,-3.1292152E-1,-3.292458E-1,-3.128218E-1,-2.85833E-1,3.240993E-1,-2.2616245E-1,-2.6696444E-1,-2.9203105E-1,-3.1174257E-1,-1.8687329E-1,-2.2108401E-1,-7.979956E-2,-1.9923513E-1,-2.611515E-1,-2.0872626E-1,-8.786614E-2,-2.0907767E-1,-2.5838023E-1,1.12042606E-1,-1.3982669E-1,-1.4263599E-1,-1.9471565E-1,-1.0059373E-2,3.3386475E-1,-3.8641144E-2,-1.3509588E-1,-1.0714955E-1,-1.4836791E-1,-6.664739E-2,-1.2540747E-1,3.9451916E-2,-3.6641803E-2,-1.2787396E-1,9.683869E-2,-3.9270215E-2,-1.0165355E-1,1.9799344E-2,-4.3891728E-2,1.3634333E-1,2.6418775E-1,1.1849241E-1,2.0548585E-1,7.686611E-2,1.3674156E-1,7.871699E-2,-7.950572E-2,2.5380212E-1,3.4153923E-1,1.6103004E-1,2.6589862E-1,3.5484874E-1,-1.7670387E-2,1.7970479E-1,6.335307E-2,3.6218494E-1,2.6645446E-1,-9.542954E-2,2.2343537E-1],"split_indices":[1,1,1,1,1,1,1,2,1,1,2,2,2,2,2,1,2,2,0,2,0,2,1,1,1,2,2,2,0,1,1,0,0,2,0,0,0,2,2,2,0,2,2,2,0,0,2,0,0,0,2,0,1,1,0,0,1,0,2,2,0,0,0,0,0,0,0,0,0,0,0,0,0,0,0,0,0,0,0,0,0,0,0,0,0,0,0,0,0,0,0,0,0,0,0,0,0,0,0,0,0,0,0,0,0,0,0,0,0,0,0,0,0,0,0,0,0,0,0,0,0,0,0],"split_type":[0,0,0,0,0,0,0,0,0,0,0,0,0,0,0,0,0,0,0,0,0,0,0,0,0,0,0,0,0,0,0,0,0,0,0,0,0,0,0,0,0,0,0,0,0,0,0,0,0,0,0,0,0,0,0,0,0,0,0,0,0,0,0,0,0,0,0,0,0,0,0,0,0,0,0,0,0,0,0,0,0,0,0,0,0,0,0,0,0,0,0,0,0,0,0,0,0,0,0,0,0,0,0,0,0,0,0,0,0,0,0,0,0,0,0,0,0,0,0,0,0,0,0],"sum_hessian":[5.2172125E4,4.4210785E4,7.961339E3,3.8950773E4,5.2600146E3,3.7462185E3,4.2151206E3,2.9523445E4,9.427326E3,3.2432483E3,2.0167665E3,2.346509E3,1.3997094E3,1.1551692E3,3.0599512E3,1.9402074E4,1.0121371E4,6.4427373E3,2.9845884E3,1.1773433E3,2.065905E3,5.39885E2,1.4768815E3,8.246485E2,1.5218606E3,5.670355E2,8.326738E2,8.8151624E2,2.7365295E2,2.8565657E3,2.0338557E2,5.2736006E3,1.4128474E4,9.881502E3,2.398694E2,6.2601167E3,1.826207E2,7.1876605E2,2.2658223E3,2.5370593E2,9.236373E2,6.5245996E2,1.4134451E3,2.430458E1,5.1558044E2,9.2667316E2,5.5020825E2,3.599863E2,4.6466217E2,8.3539435E2,6.8646625E2,3.284404E2,2.3859514E2,6.4774725E2,1.8492654E2,5.191716E2,3.6234464E2,5.3702442E1,2.199505E2,4.6576715E2,2.3907986E3,6.875249E1,1.3463309E2,1.0746333E3,4.1989673E3,3.941601E3,1.0186873E4,8.957052E3,9.2444977E2,3.4708662E0,2.3639853E2,1.6416979E3,4.618419E3,1.9287903E1,1.633328E2,6.674405E2,5.132559E1,2.0958981E2,2.0562327E3,1.7622581E2,7.748012E1,7.22004E2,2.016333E2,1.1705892E1,6.40754E2,3.1467154E2,1.0987734E3,1.7354174E1,6.9504075E0,4.4721707E2,6.836337E1,3.6728513E2,5.5938806E2,3.3518008E2,2.1502817E2,2.77209E2,8.2777306E1,7.641975E0,4.570202E2,5.887411E2,2.4665321E2,4.1861502E2,2.678512E2,4.0601734E1,2.8783868E2,1.3257483E2,1.060203E2,4.427555E2,2.0499178E2,8.563364E1,9.929291E1,3.0609484E1,4.885621E2,8.220972E1,2.8013492E2,7.8268476E0,4.5875595E1,1.7309454E2,4.685597E1,4.0306097E2,6.27062E1,1.0398345E0,6.7712654E1],"tree_param":{"num_deleted":"0","num_feature":"3","num_nodes":"123","size_leaf_vector":"0"}},{"base_weights":[-6.200575E-1,-8.498151E-1,5.1546925E-1,-9.292566E-1,-4.758266E-1,1.1732354E-1,1.0433985E0,-9.7234446E-1,-8.274233E-1,-6.0242176E-1,-3.30548E-1,-8.5136015E-3,3.9185596E-1,7.776034E-1,1.129809E0,-1.0016581E0,-9.155716E-1,-8.580979E-1,-7.473538E-1,-6.6022485E-1,-5.3388625E-1,-2.4043168E-1,-4.045766E-1,1.20469525E-1,-1.0559382E-1,7.8583413E-1,2.8132755E-1,9.244321E-1,3.6610264E-1,1.1471388E0,9.7346777E-1,-1.0472273E0,-9.8186207E-1,-9.3387043E-1,-7.80322E-1,-8.652807E-1,-5.4803175E-1,-6.865906E-1,-7.942418E-1,-2.031504E-1,-6.687288E-1,-3.2968718E-1,-5.4854655E-1,-3.1581822E-1,-1.2889257E-1,-4.3004254E-1,-1.5799432E-1,3.1502593E-2,2.4985692E-1,-1.1519408E-1,3.9923897E-1,6.1950636E-1,8.931978E-1,3.6422902E-1,9.9004E-2,1.0548205E0,7.473944E-1,3.1935567E-1,7.7490133E-1,6.4655733E-1,1.1327099E0,-9.8404163E-1,-1.0633645E0,-9.367122E-1,-9.9982643E-1,-8.8422334E-1,-9.513312E-1,-6.423074E-1,-9.0158224E-1,-7.9599094E-1,-8.8855875E-1,-4.143623E-1,-9.1146946E-1,-6.9188166E-1,4.9723324E-1,-1.3187814E-1,-7.963638E-1,-4.2412886E-1,9.799492E-1,-6.8359077E-1,-4.1101253E-1,-4.337424E-1,8.3387643E-4,-5.560958E-1,-1.719636E-1,-2.9231173E-1,-6.2383884E-1,5.229538E-1,-1.379974E-1,-3.502821E-1,-5.375441E-1,1.7131211E-1,-3.5359925E-1,1.4106101E-1,-5.1502265E-2,6.574262E-1,2.348253E-1,-7.485509E-2,-2.5520247E-1,7.872175E-1,-3.774431E-1,5.7283145E-1,1.12236E0,3.7189996E-1,9.341631E-1,2.8568462E-1,5.051257E-1,3.123801E-1,-7.915745E-2,1.1010222E0,9.4586694E-1,3.6320835E-1,7.7896774E-1,4.0096936E-1,-4.1130075E-1,1.004074E0,-7.7413574E-2,7.3191106E-1,3.0522552E-1],"categories":[],"categories_nodes":[],"categories_segments":[],"categories_sizes":[],"default_left":[1,1,1,1,1,1,1,1,1,1,1,1,1,1,1,1,1,1,1,1,1,1,1,1,1,1,1,1,1,0,1,1,1,1,1,1,1,1,1,1,1,1,1,1,1,1,1,1,1,1,1,1,1,1,1,1,1,1,1,1,0,0,0,0,0,0,0,0,0,0,0,0,0,0,0,0,0,0,0,0,0,0,0,0,0,0,0,0,0,0,0,0,0,0,0,0,0,0,0,0,0,0,0,0,0,0,0,0,0,0,0,0,0,0,0,0,0,0,0],"id":4,"left_children":[1,3,5,7,9,11,13,15,17,19,21,23,25,27,29,31,33,35,37,39,41,43,45,47,49,51,53,55,57,-1,59,61,63,65,67,69,71,73,75,77,79,81,83,85,87,89,91,93,95,97,99,101,103,105,107,109,111,113,115,117,-1,-1,-1,-1,-1,-1,-1,-1,-1,-1,-1,-1,-1,-1,-1,-1,-1,-1,-1,-1,-1,-1,-1,-1,-1,-1,-1,-1,-1,-1,-1,-1,-1,-1,-1,-1,-1,-1,-1,-1,-1,-1,-1,-1,-1,-1,-1,-1,-1,-1,-1,-1,-1,-1,-1,-1,-1,-1,-1],"loss_changes":[1.1481029E4,1.0869395E3,1.5565526E3,1.3164648E2,1.17770874E2,1.4589427E2,7.224805E1,3.4373047E1,2.1418457E1,1.3221191E1,1.9842773E1,3.6284496E1,5.757875E1,4.705194E1,5.386963E0,1.1576172E1,1.7171387E1,1.3973145E1,6.5646973E0,7.0724487E0,4.52771E0,1.1314911E1,1.0227234E1,1.4316952E1,8.05868E0,4.629593E0,1.5654655E1,1.2540802E1,3.7259521E0,0E0,1.208136E1,3.2543945E0,6.9785156E0,4.676758E0,1.3947327E1,9.51709E0,6.8899727E0,7.1984863E0,1.8657227E0,9.646863E0,6.690674E0,3.7101088E0,4.0720825E0,5.6473083E0,3.31464E0,1.2548492E1,1.0048058E1,6.7234335E0,2.9510307E0,9.148449E0,9.661819E0,2.1059113E0,3.3709412E0,7.748932E0,1.2412107E1,6.2020874E-1,2.72937E0,1.13927765E1,4.1083956E0,2.1934319E0,0E0,0E0,0E0,0E0,0E0,0E0,0E0,0E0,0E0,0E0,0E0,0E0,0E0,0E0,0E0,0E0,0E0,0E0,0E0,0E0,0E0,0E0,0E0,0E0,0E0,0E0,0E0,0E0,0E0,0E0,0E0,0E0,0E0,0E0,0E0,0E0,0E0,0E0,0E0,0E0,0E0,0E0,0E0,0E0,0E0,0E0,0E0,0E0,0E0,0E0,0E0,0E0,0E0,0E0,0E0,0E0,0E0,0E0,0E0],"parents":[2147483647,0,0,1,1,2,2,3,3,4,4,5,5,6,6,7,7,8,8,9,9,10,10,11,11,12,12,13,13,14,14,15,15,16,16,17,17,18,18,19,19,20,20,21,21,22,22,23,23,24,24,25,25,26,26,27,27,28,28,30,30,31,31,32,32,33,33,34,34,35,35,36,36,37,37,38,38,39,39,40,40,41,41,42,42,43,43,44,44,45,45,46,46,47,47,48,48,49,49,50,50,51,51,52,52,53,53,54,54,55,55,56,56,57,57,58,58,59,59],"right_children":[2,4,6,8,10,12,14,16,18,20,22,24,26,28,30,32,34,36,38,40,42,44,46,48,50,52,54,56,58,-1,60,62,64,66,68,70,72,74,76,78,80,82,84,86,88,90,92,94,96,98,100,102,104,106,108,110,112,114,116,118,-1,-1,-1,-1,-1,-1,-1,-1,-1,-1,-1,-1,-1,-1,-1,-1,-1,-1,-1,-1,-1,-1,-1,-1,-1,-1,-1,-1,-1,-1,-1,-1,-1,-1,-1,-1,-1,-1,-1,-1,-1,-1,-1,-1,-1,-1,-1,-1,-1,-1,-1,-1,-1,-1,-1,-1,-1,-1,-1],"split_conditions":[1.75E1,4.5E0,3.65E1,-1.5E0,1.05E1,2.75E1,4.65E1,8.985E2,1.5E0,7.5E0,6.745E2,6.615E2,4.485E2,1.2475E3,1.8455E3,-6.5E0,2.3365E3,2.555E3,1.3015E3,1.295E2,2.225E2,1.45E1,2.34E3,2.25E1,2.242E3,3.05E1,1.2495E3,7.24E2,2.5745E3,3.4414166E-1,6.35E1,7.585E2,9.065E2,8.155E2,1.1465E3,9.025E2,1.721E3,2.8035E3,8E1,1.135E2,2.34E3,1.906E3,2.5845E3,2.1135E3,8.75E1,1.155E3,1.2205E3,3.46E2,1.11E2,1.619E3,2.292E3,4.255E2,8.51E2,3.25E1,1.4305E3,5.23E2,7.625E2,2.4515E3,2.0345E3,2.5855E3,3.3981296E-1,-2.952125E-1,-3.1900936E-1,-2.8101367E-1,-2.9994795E-1,-2.65267E-1,-2.8539938E-1,-1.9269224E-1,-2.7047467E-1,-2.3879729E-1,-2.6656765E-1,-1.243087E-1,-2.7344084E-1,-2.075645E-1,1.4916998E-1,-3.9563444E-2,-2.3890914E-1,-1.2723866E-1,2.9398477E-1,-2.0507725E-1,-1.2330376E-1,-1.3012272E-1,2.5016294E-4,-1.6682874E-1,-5.1589083E-2,-8.769352E-2,-1.8715166E-1,1.5688615E-1,-4.1399222E-2,-1.05084635E-1,-1.6126323E-1,5.1393636E-2,-1.0607978E-1,4.2318303E-2,-1.545068E-2,1.9722787E-1,7.0447594E-2,-2.2456527E-2,-7.656074E-2,2.3616526E-1,-1.1323293E-1,1.7184944E-1,3.36708E-1,1.1156999E-1,2.8024894E-1,8.5705385E-2,1.5153772E-1,9.3714036E-2,-2.3747236E-2,3.3030668E-1,2.837601E-1,1.0896251E-1,2.3369034E-1,1.2029081E-1,-1.2339023E-1,3.012222E-1,-2.3224073E-2,2.1957333E-1,9.156766E-2],"split_indices":[1,1,1,1,1,1,1,2,1,1,2,2,2,2,2,1,2,2,0,2,2,1,2,1,0,1,2,2,2,0,1,0,0,0,0,0,0,2,2,2,2,0,2,0,2,2,0,2,2,2,2,2,0,1,0,2,2,2,0,2,0,0,0,0,0,0,0,0,0,0,0,0,0,0,0,0,0,0,0,0,0,0,0,0,0,0,0,0,0,0,0,0,0,0,0,0,0,0,0,0,0,0,0,0,0,0,0,0,0,0,0,0,0,0,0,0,0,0,0],"split_type":[0,0,0,0,0,0,0,0,0,0,0,0,0,0,0,0,0,0,0,0,0,0,0,0,0,0,0,0,0,0,0,0,0,0,0,0,0,0,0,0,0,0,0,0,0,0,0,0,0,0,0,0,0,0,0,0,0,0,0,0,0,0,0,0,0,0,0,0,0,0,0,0,0,0,0,0,0,0,0,0,0,0,0,0,0,0,0,0,0,0,0,0,0,0,0,0,0,0,0,0,0,0,0,0,0,0,0,0,0,0,0,0,0,0,0,0,0,0,0],"sum_hessian":[4.4003508E4,3.6598566E4,7.4049414E3,3.0185223E4,6.413343E3,4.2220454E3,3.1828962E3,2.120457E4,8.980652E3,3.4253555E3,2.987987E3,2.8957107E3,1.3263348E3,7.8334875E2,2.3995474E3,1.3973149E4,7.231422E3,6.4861045E3,2.494548E3,1.8534856E3,1.5718698E3,1.3494846E3,1.6385026E3,1.243425E3,1.6522855E3,2.8923785E2,1.0370969E3,5.7642615E2,2.0692264E2,2.1544038E3,2.4514366E2,4.2160757E3,9.757073E3,6.3644297E3,8.669919E2,6.3375044E3,1.4860011E2,1.0933263E3,1.4012218E3,3.430927E1,1.8191764E3,1.06865166E2,1.4650046E3,8.0414874E2,5.453358E2,1.484451E3,1.5405151E2,7.375371E2,5.0588797E2,1.6222083E3,3.0077242E1,1.1611802E2,1.7311984E2,7.1224536E2,3.2485162E2,3.2909158E2,2.4733455E2,1.8728717E2,1.9635464E1,8.195573E1,1.6318793E2,8.7031805E2,3.3457573E3,2.792302E3,6.9647715E3,1.6693967E3,4.695033E3,4.0842825E2,4.5856363E2,1.6025468E3,4.7349575E3,1.1020699E2,3.8393116E1,1.0888751E3,4.4511147E0,4.6762733E0,1.3965455E3,2.945011E1,4.859159E0,1.7184257E3,1.00750626E2,8.103978E1,2.5825386E1,1.4357461E3,2.9258574E1,7.4894244E2,5.5206295E1,6.734745E0,5.386011E2,8.54624E2,6.29827E2,5.7452614E1,9.65989E1,3.1761563E2,4.1992148E2,1.6473986E1,4.89414E2,1.2605541E3,3.6165417E2,2.004869E1,1.0028552E1,1.0821287E2,7.905153E0,1.3347445E1,1.597724E2,4.5925577E2,2.5298956E2,1.4747453E2,1.7737709E2,2.2470157E2,1.0439002E2,1.973245E1,2.276021E2,1.6887518E2,1.841199E1,1.5334287E1,4.3011775E0,6.464601E1,1.730972E1],"tree_param":{"num_deleted":"0","num_feature":"3","num_nodes":"119","size_leaf_vector":"0"}},{"base_weights":[-5.306857E-1,-7.517318E-1,3.663159E-1,-8.3806086E-1,-4.426352E-1,7.58921E-2,1.0120165E0,-8.757761E-1,-7.340441E-1,-5.3800267E-1,-2.9859006E-1,-2.1846164E-2,3.633474E-1,8.1263477E-1,1.0953016E0,-9.105036E-1,-8.100699E-1,-7.394336E-1,-2.6898572E-1,-4.6401504E-1,-5.771543E-1,-3.5213935E-1,-2.369576E-1,-8.350551E-2,8.152936E-2,6.327272E-1,1.967801E-1,9.331269E-1,3.2247034E-1,1.1053234E0,9.533244E-1,-9.6561325E-1,-8.8698167E-1,-8.3142716E-1,-6.593556E-1,-7.909676E-1,-7.081333E-1,-9.110279E-2,-9.2152447E-1,-4.8790264E-1,-1.3745499E-1,-6.288809E-1,-4.9404502E-1,-3.6070693E-1,2.994047E-2,4.14621E-1,-2.4660826E-1,-3.7992E-2,-2.2265764E-1,2.4880777E-1,2.8870033E-2,5.03602E-1,8.1352335E-1,2.789995E-1,9.201804E-2,1.0503024E0,7.88908E-1,-2.8953055E-1,4.0557626E-1,6.1511075E-1,1.0899006E0,-8.894118E-1,-9.8552155E-1,-8.340544E-1,-9.0841657E-1,-7.8243196E-1,-8.542033E-1,-5.8752316E-1,-9.2900246E-1,-8.130227E-1,-7.399826E-1,-5.916952E-1,-7.3196286E-1,5.9017364E-2,-7.827069E-1,7.745048E-2,-5.002689E-1,4.2309684E-1,-2.7298406E-1,-4.325829E-1,-6.4924806E-1,-4.77366E-1,-6.9672155E-1,-3.1803092E-1,-4.7909406E-1,-7.3521453E-1,2.35352E-1,-1.4019358E-1,6.469187E-1,-1.6391541E-1,-3.0235142E-1,5.013291E-2,-7.893714E-2,-4.2811442E-2,-3.2086825E-1,2.2888052E-1,8.8697207E-1,6.4844444E-2,-1.2493771E-1,6.299362E-1,3.7098485E-1,-3.3309043E-3,8.4145314E-1,1.677701E-1,3.630108E-1,3.857965E-2,4.544383E-1,3.2332593E-1,1.0532775E0,1.5828319E-1,8.173813E-1,4.8528367E-1,-7.10583E-1,5.4879075E-1,1.2737899E-1,-4.098884E-1,7.000274E-1],"categories":[],"categories_nodes":[],"categories_segments":[],"categories_sizes":[],"default_left":[1,1,1,1,1,1,1,1,1,1,1,1,1,1,1,1,1,1,1,1,1,1,1,1,1,1,1,1,1,0,1,1,1,1,1,1,1,1,0,1,1,1,1,1,1,1,1,1,1,1,1,1,1,1,1,1,1,1,1,1,0,0,0,0,0,0,0,0,0,0,0,0,0,0,0,0,0,0,0,0,0,0,0,0,0,0,0,0,0,0,0,0,0,0,0,0,0,0,0,0,0,0,0,0,0,0,0,0,0,0,0,0,0,0,0,0,0],"id":5,"left_children":[1,3,5,7,9,11,13,15,17,19,21,23,25,27,29,31,33,35,37,39,41,43,45,47,49,51,53,55,57,-1,59,61,63,65,67,69,71,73,-1,75,77,79,81,83,85,87,89,91,93,95,97,99,101,103,105,107,109,111,113,115,-1,-1,-1,-1,-1,-1,-1,-1,-1,-1,-1,-1,-1,-1,-1,-1,-1,-1,-1,-1,-1,-1,-1,-1,-1,-1,-1,-1,-1,-1,-1,-1,-1,-1,-1,-1,-1,-1,-1,-1,-1,-1,-1,-1,-1,-1,-1,-1,-1,-1,-1,-1,-1,-1,-1,-1,-1],"loss_changes":[7.400423E3,7.986406E2,1.3837754E3,9.117383E1,8.9671875E1,1.430458E2,3.712549E1,3.8445312E1,1.5427246E1,1.112561E1,8.521057E0,2.4230028E1,5.7841812E1,3.976642E1,1.2398682E0,1.36953125E1,1.8593506E1,9.379883E0,8.388749E0,1.059021E1,1.0729309E1,4.5707245E0,7.7432556E0,1.5070713E1,1.250429E1,1.1103073E1,6.8627434E0,8.364685E0,7.0033903E0,0E0,4.5747757E0,4.2009277E0,8.182617E0,5.1396484E0,1.3844055E1,2.0073242E0,1.0230835E1,6.11646E0,0E0,8.936401E0,7.2959633E0,6.032776E0,3.0134735E0,6.7314606E0,5.119844E0,2.4244888E0,5.4728546E0,6.4820023E0,1.0347443E1,4.1199474E0,5.991664E0,4.6301804E0,4.6533356E0,4.121498E0,6.8219204E0,3.02063E-1,4.32164E0,5.8159275E0,4.695896E0,3.3297882E0,0E0,0E0,0E0,0E0,0E0,0E0,0E0,0E0,0E0,0E0,0E0,0E0,0E0,0E0,0E0,0E0,0E0,0E0,0E0,0E0,0E0,0E0,0E0,0E0,0E0,0E0,0E0,0E0,0E0,0E0,0E0,0E0,0E0,0E0,0E0,0E0,0E0,0E0,0E0,0E0,0E0,0E0,0E0,0E0,0E0,0E0,0E0,0E0,0E0,0E0,0E0,0E0,0E0,0E0,0E0,0E0,0E0],"parents":[2147483647,0,0,1,1,2,2,3,3,4,4,5,5,6,6,7,7,8,8,9,9,10,10,11,11,12,12,13,13,14,14,15,15,16,16,17,17,18,18,19,19,20,20,21,21,22,22,23,23,24,24,25,25,26,26,27,27,28,28,30,30,31,31,32,32,33,33,34,34,35,35,36,36,37,37,39,39,40,40,41,41,42,42,43,43,44,44,45,45,46,46,47,47,48,48,49,49,50,50,51,51,52,52,53,53,54,54,55,55,56,56,57,57,58,58,59,59],"right_children":[2,4,6,8,10,12,14,16,18,20,22,24,26,28,30,32,34,36,38,40,42,44,46,48,50,52,54,56,58,-1,60,62,64,66,68,70,72,74,-1,76,78,80,82,84,86,88,90,92,94,96,98,100,102,104,106,108,110,112,114,116,-1,-1,-1,-1,-1,-1,-1,-1,-1,-1,-1,-1,-1,-1,-1,-1,-1,-1,-1,-1,-1,-1,-1,-1,-1,-1,-1,-1,-1,-1,-1,-1,-1,-1,-1,-1,-1,-1,-1,-1,-1,-1,-1,-1,-1,-1,-1,-1,-1,-1,-1,-1,-1,-1,-1,-1,-1],"split_conditions":[1.55E1,2.5E0,3.95E1,-1.5E0,9.5E0,2.85E1,5.25E1,8.985E2,2.6125E3,1.1515E3,1.25E1,2.25E1,7.255E2,1.552E3,2.175E3,-6.5E0,2.3365E3,-5E-1,1.818E3,2.34E3,6.5E0,2.5845E3,1.07E2,1.16E3,4.515E2,3.35E1,1.2475E3,7.375E2,8.525E2,3.3159703E-1,6.75E1,7.585E2,9.065E2,8.565E2,1.8225E3,1.0125E3,3.375E2,3.7925E3,-2.7645734E-1,1.32E2,2.418E3,2.365E2,2.125E3,1.1335E3,9.205E2,1.376E3,1.3395E3,3.92E2,1.2085E3,4.475E2,1.602E3,4.485E2,7.105E2,9.485E2,2.52E3,6.75E1,7.625E2,1.771E3,2.3895E3,2.232E3,3.269702E-1,-2.6682356E-1,-2.9565647E-1,-2.5021634E-1,-2.7252498E-1,-2.347296E-1,-2.56261E-1,-1.7625695E-1,-2.7870074E-1,-2.4390681E-1,-2.2199479E-1,-1.7750856E-1,-2.1958886E-1,1.770521E-2,-2.3481208E-1,2.3235144E-2,-1.5008067E-1,1.2692906E-1,-8.189522E-2,-1.2977488E-1,-1.9477443E-1,-1.432098E-1,-2.0901647E-1,-9.540928E-2,-1.4372823E-1,-2.2056437E-1,7.06056E-2,-4.2058077E-2,1.9407563E-1,-4.9174625E-2,-9.0705425E-2,1.5039874E-2,-2.3681143E-2,-1.2843433E-2,-9.626048E-2,6.866416E-2,2.6609164E-1,1.9453334E-2,-3.7481315E-2,1.8898088E-1,1.1129546E-1,-9.992713E-4,2.5243595E-1,5.0331034E-2,1.08903244E-1,1.1573896E-2,1.363315E-1,9.699778E-2,3.1598327E-1,4.748496E-2,2.452144E-1,1.455851E-1,-2.131749E-1,1.6463724E-1,3.8213696E-2,-1.2296652E-1,2.1000823E-1],"split_indices":[1,1,1,1,1,1,1,2,2,0,1,1,2,2,2,1,2,1,0,2,1,2,2,2,2,1,2,2,0,0,1,0,0,0,0,2,2,2,0,2,2,2,0,2,0,0,0,2,0,2,2,2,0,2,2,2,2,2,2,2,0,0,0,0,0,0,0,0,0,0,0,0,0,0,0,0,0,0,0,0,0,0,0,0,0,0,0,0,0,0,0,0,0,0,0,0,0,0,0,0,0,0,0,0,0,0,0,0,0,0,0,0,0,0,0,0,0],"split_type":[0,0,0,0,0,0,0,0,0,0,0,0,0,0,0,0,0,0,0,0,0,0,0,0,0,0,0,0,0,0,0,0,0,0,0,0,0,0,0,0,0,0,0,0,0,0,0,0,0,0,0,0,0,0,0,0,0,0,0,0,0,0,0,0,0,0,0,0,0,0,0,0,0,0,0,0,0,0,0,0,0,0,0,0,0,0,0,0,0,0,0,0,0,0,0,0,0,0,0,0,0,0,0,0,0,0,0,0,0,0,0,0,0,0,0,0,0],"sum_hessian":[3.7320938E4,2.994245E4,7.378489E3,2.3404096E4,6.538352E3,5.090153E3,2.288336E3,1.717076E4,6.2333374E3,3.9322239E3,2.6061282E3,3.7992769E3,1.2908759E3,6.7740576E2,1.6109302E3,1.1225119E4,5.9456396E3,6.161344E3,7.1993034E1,1.3651863E3,2.5670376E3,1.3919874E3,1.2141407E3,2.379934E3,1.4193429E3,4.9215042E2,7.9872534E2,5.430176E2,1.3438817E2,1.4983782E3,1.12552E2,3.3459172E3,7.8792026E3,5.203721E3,7.4191846E2,2.3189934E3,3.842351E3,5.7467052E1,1.4525981E1,1.2716705E3,9.351577E1,1.5782059E3,9.8883154E2,1.3615135E3,3.0473932E1,1.7107973E1,1.1970327E3,1.7943242E3,5.8560986E2,3.3893903E2,1.0804039E3,2.893099E2,2.0284052E2,4.4657834E2,3.52147E2,2.9613232E2,2.4688528E2,1.577028E1,1.186179E2,3.3959465E1,7.859254E1,7.0253845E2,2.6433787E3,2.2826848E3,5.5965176E3,1.6625817E3,3.5411394E3,5.8836127E2,1.5355724E2,1.6083196E3,7.1067377E2,6.571509E2,3.1852002E3,4.7969433E1,9.497619E0,2.7107826E1,1.2445626E3,1.7794682E1,7.5721085E1,1.5044637E2,1.4277596E3,9.167445E2,7.208707E1,1.00347034E3,3.5804312E2,5.903659E0,2.4570272E1,5.166033E0,1.1941941E1,4.8358838E2,7.1344434E2,5.6914575E2,1.2251785E3,2.073466E2,3.7826324E2,3.2999335E2,8.945685E0,8.7607526E2,2.0432864E2,1.4624426E2,1.4306566E2,6.7353163E0,1.961052E2,1.9345044E2,2.5312791E2,3.0785992E2,4.4287086E1,1.6539613E0,2.9447836E2,1.0948906E1,2.3593639E2,5.498844E0,1.0271437E1,7.766414E1,4.0953754E1,2.305357E0,3.1654108E1],"tree_param":{"num_deleted":"0","num_feature":"3","num_nodes":"117","size_leaf_vector":"0"}},{"base_weights":[-4.4811782E-1,-6.696964E-1,2.2410664E-1,-7.567983E-1,-4.29386E-1,1.2297313E-2,9.495264E-1,-8.0992424E-1,-6.9143957E-1,-4.9923766E-1,-2.944304E-1,-8.4713496E-2,2.0152907E-1,6.2972987E-1,1.0297372E0,-8.498843E-1,-7.302221E-1,-6.977966E-1,-1.8033609E-1,-5.1120204E-1,-2.145383E-1,-2.5792143E-1,-3.9036658E-1,-1.3950962E-1,-1.6669394E-2,4.8419282E-1,1.3068734E-1,8.1710404E-1,2.7928096E-1,1.0659271E0,8.351989E-1,-7.87998E-1,-8.764367E-1,-7.533619E-1,-5.8587646E-1,-6.231857E-1,-7.268164E-1,-8.371009E-2,-9.244078E-1,-5.642836E-1,-4.541323E-1,5.532963E-2,-3.5888523E-1,-2.9045808E-1,-1.0463499E-1,-4.4829497E-1,-1.3765894E-1,-5.3578496E-2,-1.7353305E-1,7.565616E-2,-5.693508E-2,3.001637E-1,7.507847E-1,6.7292035E-2,2.390023E-1,9.656698E-1,6.417051E-1,3.92373E-1,5.2945863E-2,4.5728344E-1,1.037604E0,-9.214719E-1,-7.7643013E-1,-9.3639535E-1,-8.5004544E-1,-6.6325617E-1,-7.72042E-1,-3.9939174E-1,-7.6720715E-1,-6.5233386E-1,-5.082886E-1,-7.660129E-1,-6.766266E-1,-2.8420535E-1,4.2048243E-1,-5.188503E-1,-1.048276E0,-4.6235788E-1,-5.8450884E-1,4.204981E-1,-4.5942408E-1,-1.19274065E-1,6.0390604E-1,-4.8581854E-1,7.7970706E-2,-2.1883236E-1,-4.0000346E-1,-2.0415783E-1,4.8098397E-3,-4.621504E-1,1.4997478E-1,8.590014E-2,-2.9552135E-1,-4.10076E-1,-3.0699654E-2,-1.8521364E-1,5.8520712E-2,8.2495525E-2,-1.04327E0,-1.9329868E-2,-1.8530115E-1,2.0867017E-1,4.0172076E-1,2.0181768E-1,7.9528546E-1,1.7871971E-1,2.5648188E-2,3.217784E-1,8.373716E-2,1.5771867E-1,9.723197E-1,-9.0792733E-1,6.6438764E-1,-3.9424714E-2,5.288927E-1,-4.971519E-1,2.3226827E-1,-4.6041602E-1,4.8889473E-1,7.888524E-1,1.0670716E0],"categories":[],"categories_nodes":[],"categories_segments":[],"categories_sizes":[],"default_left":[1,1,1,1,1,1,1,1,1,1,1,1,1,1,1,1,1,1,1,1,1,1,1,1,1,1,1,1,1,0,1,1,1,1,1,1,1,1,1,1,1,1,1,1,1,1,1,1,1,1,1,1,1,1,1,1,1,1,1,1,1,0,0,0,0,0,0,0,0,0,0,0,0,0,0,0,0,0,0,0,0,0,0,0,0,0,0,0,0,0,0,0,0,0,0,0,0,0,0,0,0,0,0,0,0,0,0,0,0,0,0,0,0,0,0,0,0,0,0,0,0],"id":6,"left_children":[1,3,5,7,9,11,13,15,17,19,21,23,25,27,29,31,33,35,37,39,41,43,45,47,49,51,53,55,57,-1,59,61,63,65,67,69,71,73,75,77,79,81,83,85,87,89,91,93,95,97,99,101,103,105,107,109,111,113,115,117,119,-1,-1,-1,-1,-1,-1,-1,-1,-1,-1,-1,-1,-1,-1,-1,-1,-1,-1,-1,-1,-1,-1,-1,-1,-1,-1,-1,-1,-1,-1,-1,-1,-1,-1,-1,-1,-1,-1,-1,-1,-1,-1,-1,-1,-1,-1,-1,-1,-1,-1,-1,-1,-1,-1,-1,-1,-1,-1,-1,-1],"loss_changes":[4.7732007E3,5.0413965E2,1.2207062E3,6.0856445E1,6.0315674E1,1.129213E2,4.540747E1,3.0436523E1,2.566455E1,1.4281494E1,7.5697327E0,1.5160194E1,4.1681572E1,2.3582413E1,9.20459E0,9.97168E0,1.045874E1,1.6521973E1,7.030551E0,1.2024048E1,6.7244434E0,7.8957977E0,8.746857E0,6.5761147E0,6.7522154E0,2.025254E1,1.1439569E1,5.523758E0,3.2517433E0,0E0,1.7082123E1,2.3078613E0,6.375244E0,4.2161865E0,1.5092163E1,7.0443726E0,1.057373E1,9.075906E0,2.1923065E-2,4.0509033E0,9.258484E0,5.8999605E0,6.2633142E0,1.0194244E1,3.0489612E0,4.123329E0,4.0364175E0,5.2100368E0,4.383259E0,4.3077674E0,6.100402E0,2.2261543E0,3.9875183E0,4.885142E0,7.8841705E0,5.217972E-1,4.5082016E0,5.037154E0,4.431524E0,2.5992775E0,2.480774E-1,0E0,0E0,0E0,0E0,0E0,0E0,0E0,0E0,0E0,0E0,0E0,0E0,0E0,0E0,0E0,0E0,0E0,0E0,0E0,0E0,0E0,0E0,0E0,0E0,0E0,0E0,0E0,0E0,0E0,0E0,0E0,0E0,0E0,0E0,0E0,0E0,0E0,0E0,0E0,0E0,0E0,0E0,0E0,0E0,0E0,0E0,0E0,0E0,0E0,0E0,0E0,0E0,0E0,0E0,0E0,0E0,0E0,0E0,0E0,0E0],"parents":[2147483647,0,0,1,1,2,2,3,3,4,4,5,5,6,6,7,7,8,8,9,9,10,10,11,11,12,12,13,13,14,14,15,15,16,16,17,17,18,18,19,19,20,20,21,21,22,22,23,23,24,24,25,25,26,26,27,27,28,28,30,30,31,31,32,32,33,33,34,34,35,35,36,36,37,37,38,38,39,39,40,40,41,41,42,42,43,43,44,44,45,45,46,46,47,47,48,48,49,49,50,50,51,51,52,52,53,53,54,54,55,55,56,56,57,57,58,58,59,59,60,60],"right_children":[2,4,6,8,10,12,14,16,18,20,22,24,26,28,30,32,34,36,38,40,42,44,46,48,50,52,54,56,58,-1,60,62,64,66,68,70,72,74,76,78,80,82,84,86,88,90,92,94,96,98,100,102,104,106,108,110,112,114,116,118,120,-1,-1,-1,-1,-1,-1,-1,-1,-1,-1,-1,-1,-1,-1,-1,-1,-1,-1,-1,-1,-1,-1,-1,-1,-1,-1,-1,-1,-1,-1,-1,-1,-1,-1,-1,-1,-1,-1,-1,-1,-1,-1,-1,-1,-1,-1,-1,-1,-1,-1,-1,-1,-1,-1,-1,-1,-1,-1,-1,-1],"split_conditions":[1.25E1,5E-1,3.95E1,-3.5E0,7.5E0,2.45E1,4.65E1,9.145E2,2.6025E3,2.4555E3,1.1305E3,1.85E1,4.515E2,1.135E3,1.556E3,9.125E2,2.3365E3,9.005E2,3.7925E3,3.5E0,2.5635E3,9.43E2,2.3795E3,4.225E2,4.82E2,3.05E1,3.15E1,6.665E2,2.0085E3,3.1977814E-1,6.15E1,5.385E2,-7.5E0,7.055E2,1.1555E3,-5E-1,1.5355E3,2.743E3,4.078E3,3.375E2,8.75E1,5.5E0,2.743E3,5.86E2,1.4525E3,2.2505E3,1.3065E3,7.795E2,2.4465E3,2.3195E3,1.9065E3,1.6375E3,8.315E2,7.595E2,1.7495E3,6.395E2,6.31E2,1.1015E3,2.3125E3,1.588E3,6.75E1,-2.7644157E-1,-2.3292905E-1,-2.8091863E-1,-2.5501364E-1,-1.9897686E-1,-2.3161261E-1,-1.19817525E-1,-2.3016216E-1,-1.9570017E-1,-1.5248659E-1,-2.2980388E-1,-2.02988E-1,-8.5261606E-2,1.2614474E-1,-1.556551E-1,-3.144828E-1,-1.3870737E-1,-1.7535266E-1,1.2614943E-1,-1.3782723E-1,-3.578222E-2,1.8117182E-1,-1.4574556E-1,2.3391213E-2,-6.564971E-2,-1.2000104E-1,-6.1247353E-2,1.442952E-3,-1.3864513E-1,4.4992436E-2,2.5770044E-2,-8.865641E-2,-1.230228E-1,-9.209896E-3,-5.5564094E-2,1.7556215E-2,2.4748659E-2,-3.12981E-1,-5.7989606E-3,-5.559035E-2,6.260105E-2,1.2051623E-1,6.0545307E-2,2.3858565E-1,5.3615917E-2,7.6944567E-3,9.653352E-2,2.5121149E-2,4.7315605E-2,2.9169592E-1,-2.723782E-1,1.9931631E-1,-1.1827415E-2,1.5866782E-1,-1.4914557E-1,6.968048E-2,-1.3812481E-1,1.4666842E-1,2.3665573E-1,3.2012147E-1],"split_indices":[1,1,1,1,1,1,1,2,2,2,2,1,2,2,2,0,2,0,2,1,2,2,2,2,2,1,1,2,2,0,1,0,1,0,0,1,0,2,2,2,2,1,2,2,0,0,0,0,2,0,0,0,0,2,0,0,0,0,2,2,1,0,0,0,0,0,0,0,0,0,0,0,0,0,0,0,0,0,0,0,0,0,0,0,0,0,0,0,0,0,0,0,0,0,0,0,0,0,0,0,0,0,0,0,0,0,0,0,0,0,0,0,0,0,0,0,0,0,0,0,0],"split_type":[0,0,0,0,0,0,0,0,0,0,0,0,0,0,0,0,0,0,0,0,0,0,0,0,0,0,0,0,0,0,0,0,0,0,0,0,0,0,0,0,0,0,0,0,0,0,0,0,0,0,0,0,0,0,0,0,0,0,0,0,0,0,0,0,0,0,0,0,0,0,0,0,0,0,0,0,0,0,0,0,0,0,0,0,0,0,0,0,0,0,0,0,0,0,0,0,0,0,0,0,0,0,0,0,0,0,0,0,0,0,0,0,0,0,0,0,0,0,0,0,0],"sum_hessian":[3.2043535E4,2.4099773E4,7.9437617E3,1.7686902E4,6.412871E3,6.1492964E3,1.7944652E3,9.750194E3,7.936708E3,4.2239155E3,2.1889556E3,4.0655962E3,2.0837002E3,3.616069E2,1.4328583E3,6.4877754E3,3.262419E3,7.8388447E3,9.7863174E1,4.052803E3,1.711128E2,1.5882338E3,6.0072174E2,2.251448E3,1.8141481E3,4.163997E2,1.6673005E3,2.3475768E2,1.2684923E2,1.2043363E3,2.2852199E2,1.9570696E3,4.530706E3,2.8080479E3,4.5437125E2,2.201415E3,5.6374297E3,8.759986E1,1.0263315E1,2.0951646E3,1.9576384E3,5.9844845E1,1.1126795E2,1.3094039E3,2.7882983E2,4.8806763E2,1.1265409E2,6.39322E2,1.612126E3,5.5065875E2,1.2634894E3,2.4760391E2,1.6879578E2,1.0527571E3,6.1454346E2,1.2466167E2,1.10096016E2,8.4095795E1,4.2753433E1,8.084101E1,1.4768098E2,1.4981335E2,1.8072562E3,1.3741881E3,3.1565178E3,4.88452E2,2.3195957E3,2.2558104E2,2.287902E2,1.7522188E3,4.4919638E2,3.1573723E3,2.4800574E3,6.2988438E1,2.4611425E1,3.6152701E0,6.648045E0,3.5085947E2,1.744305E3,1.1301224E1,1.9463372E3,4.5989613E1,1.3855232E1,8.612988E1,2.5138067E1,7.9354553E2,5.158584E2,1.4558124E2,1.332486E2,4.772426E2,1.0825008E1,4.681385E1,6.584024E1,3.7534626E1,6.017874E2,1.5350596E3,7.7066444E1,5.48234E2,2.4247718E0,9.781021E2,2.8538727E2,1.3186263E2,1.15741295E2,1.30720825E1,1.557237E2,2.8551215E2,7.6724493E2,4.0014352E2,2.1439995E2,1.2194425E0,1.2344222E2,1.0252496E0,1.0907076E2,2.0372116E1,6.372368E1,1.0074878E1,3.267856E1,2.2402418E0,7.860077E1,1.8582926E1,1.2909805E2],"tree_param":{"num_deleted":"0","num_feature":"3","num_nodes":"121","size_leaf_vector":"0"}},{"base_weights":[-3.7134337E-1,-5.944792E-1,1.237735E-1,-6.7940706E-1,-4.107754E-1,-2.4690142E-2,8.8907355E-1,-7.252561E-1,-5.990813E-1,-4.7907346E-1,-3.2318366E-1,-9.1074206E-2,1.4878768E-1,6.1362725E-1,1.0272633E0,-7.677186E-1,-6.5619844E-1,-6.1201215E-1,-1.8763433E-1,-4.897468E-1,-1.9469632E-1,-2.3668487E-1,-3.6898157E-1,-1.6321406E-1,-3.0769646E-2,3.036986E-1,6.1531983E-2,8.270442E-1,2.4963006E-1,1.0447645E0,8.033378E-1,-6.949441E-1,-7.996779E-1,-5.7612246E-1,-6.857109E-1,-5.6038696E-1,-6.464772E-1,-4.88102E-3,-8.763331E-1,-4.0332597E-1,-5.2667105E-1,1.8390486E-1,-3.0761215E-1,-2.510834E-1,4.7197828E-1,-1.9719093E-1,-3.8865456E-1,-9.720136E-2,-2.0704727E-1,9.6255046E-4,-1.2813328E-1,1.6611168E-1,5.34334E-1,6.471683E-2,-1.5177891E0,9.6687865E-1,6.5834403E-1,4.1532534E-1,1.1050625E-1,4.0299007E-1,1.0167317E0,-8.117515E-1,-6.775898E-1,-8.7208956E-1,-7.68626E-1,-6.2090945E-1,-5.082782E-1,-7.2958905E-1,-6.0455436E-1,-5.816224E-1,-4.0333313E-1,-6.8702847E-1,-5.9096897E-1,1.1153632E-1,-8.2628155E-1,-9.340876E-1,-5.635823E-1,1.1048965E-1,-4.246877E-1,4.8264284E-2,-5.3076214E-1,-1.1284012E-1,5.5327404E-1,-1.2079268E-1,-5.0001603E-1,1.9974993E-1,-2.624297E-1,7.781299E-1,-6.5987813E-1,2.5654492E-1,-2.2956122E-1,-4.472733E-1,-3.2512262E-1,-1.1135759E-1,1.7466745E-1,-1.3243313E-2,-2.2901478E-1,-1.6717812E-2,1.4500366E-1,-1.5587574E-1,1.6435649E-1,6.833276E-2,2.5681478E-1,-1.2898575E-2,5.795285E-1,4.9363665E-2,4.5141536E-1,6.7192036E-1,9.9603003E-1,5.378859E-1,9.064002E-1,-7.904577E-2,5.157604E-1,-4.2866814E-1,1.8929954E-1,-4.6611664E-1,4.995357E-1],"categories":[],"categories_nodes":[],"categories_segments":[],"categories_sizes":[],"default_left":[1,1,1,1,1,1,1,1,1,1,1,1,1,1,1,1,1,1,1,1,1,1,1,1,1,1,1,1,1,0,1,1,1,1,1,1,1,1,1,1,1,1,1,1,1,1,1,1,1,1,1,1,1,1,0,1,1,1,1,1,0,0,0,0,0,0,0,0,0,0,0,0,0,0,0,0,0,0,0,0,0,0,0,0,0,0,0,0,0,0,0,0,0,0,0,0,0,0,0,0,0,0,0,0,0,0,0,0,0,0,0,0,0,0,0,0,0],"id":7,"left_children":[1,3,5,7,9,11,13,15,17,19,21,23,25,27,29,31,33,35,37,39,41,43,45,47,49,51,53,55,57,-1,59,61,63,65,67,69,71,73,75,77,79,81,83,85,87,89,91,93,95,97,99,101,103,105,-1,107,109,111,113,115,-1,-1,-1,-1,-1,-1,-1,-1,-1,-1,-1,-1,-1,-1,-1,-1,-1,-1,-1,-1,-1,-1,-1,-1,-1,-1,-1,-1,-1,-1,-1,-1,-1,-1,-1,-1,-1,-1,-1,-1,-1,-1,-1,-1,-1,-1,-1,-1,-1,-1,-1,-1,-1,-1,-1,-1,-1],"loss_changes":[3.090811E3,3.0059717E2,9.8759766E2,4.8128906E1,3.633423E1,8.385952E1,5.312549E1,2.409961E1,2.5409302E1,1.0300781E1,1.0511017E1,2.2905434E1,2.722305E1,3.6638428E1,2.840454E0,1.151416E1,7.1708984E0,7.9127197E0,1.8575562E1,1.0319702E1,5.424357E0,9.597069E0,5.8290253E0,6.9175415E0,8.86624E0,2.2946297E1,6.5891695E0,6.4065247E0,4.0282574E0,0E0,5.7749557E0,2.675537E0,7.4230957E0,2.3231812E0,7.8706055E0,6.000061E0,5.8569336E0,1.1344252E1,3.264427E-2,1.0938553E1,5.4572144E0,3.2927146E0,3.4295158E0,4.7129097E0,7.043758E0,2.7258458E0,5.6897736E0,3.7089205E0,6.1275673E0,5.516817E0,5.749419E0,4.027775E0,6.704605E0,7.629587E0,0E0,7.1606445E-1,3.6493378E0,4.0279636E0,4.2204604E0,2.4838772E0,0E0,0E0,0E0,0E0,0E0,0E0,0E0,0E0,0E0,0E0,0E0,0E0,0E0,0E0,0E0,0E0,0E0,0E0,0E0,0E0,0E0,0E0,0E0,0E0,0E0,0E0,0E0,0E0,0E0,0E0,0E0,0E0,0E0,0E0,0E0,0E0,0E0,0E0,0E0,0E0,0E0,0E0,0E0,0E0,0E0,0E0,0E0,0E0,0E0,0E0,0E0,0E0,0E0,0E0,0E0,0E0,0E0],"parents":[2147483647,0,0,1,1,2,2,3,3,4,4,5,5,6,6,7,7,8,8,9,9,10,10,11,11,12,12,13,13,14,14,15,15,16,16,17,17,18,18,19,19,20,20,21,21,22,22,23,23,24,24,25,25,26,26,27,27,28,28,30,30,31,31,32,32,33,33,34,34,35,35,36,36,37,37,38,38,39,39,40,40,41,41,42,42,43,43,44,44,45,45,46,46,47,47,48,48,49,49,50,50,51,51,52,52,53,53,55,55,56,56,57,57,58,58,59,59],"right_children":[2,4,6,8,10,12,14,16,18,20,22,24,26,28,30,32,34,36,38,40,42,44,46,48,50,52,54,56,58,-1,60,62,64,66,68,70,72,74,76,78,80,82,84,86,88,90,92,94,96,98,100,102,104,106,-1,108,110,112,114,116,-1,-1,-1,-1,-1,-1,-1,-1,-1,-1,-1,-1,-1,-1,-1,-1,-1,-1,-1,-1,-1,-1,-1,-1,-1,-1,-1,-1,-1,-1,-1,-1,-1,-1,-1,-1,-1,-1,-1,-1,-1,-1,-1,-1,-1,-1,-1,-1,-1,-1,-1,-1,-1,-1,-1,-1,-1],"split_conditions":[9.5E0,-5E-1,3.95E1,8.985E2,3.5E0,2.45E1,5.25E1,-3.5E0,2.6125E3,2.4805E3,1.1505E3,1.55E1,7.095E2,1.135E3,2.175E3,9.125E2,9.005E2,1.0025E3,1.9295E3,1.0025E3,2.5635E3,2.6125E3,2.365E2,1.3285E3,1.1565E3,3.05E1,4.3725E3,6.665E2,1.7245E3,3.1342936E-1,6.75E1,-9.5E0,-7.5E0,5.555E2,1.6565E3,2.3365E3,-3.5E0,3.7925E3,-2.5E0,1.885E2,9.9E1,2.555E3,1.2075E3,1.32E2,3.7925E3,1.2265E3,6.5E0,2.444E3,2.365E2,1.0125E3,2.5475E3,1.5535E3,8.315E2,2.5725E3,-4.5533675E-1,4.05E1,4.65E1,1.21E3,8.525E2,2.232E3,3.0501953E-1,-2.4352546E-1,-2.0327695E-1,-2.6162687E-1,-2.305878E-1,-1.8627284E-1,-1.5248346E-1,-2.1887672E-1,-1.8136631E-1,-1.7448673E-1,-1.2099994E-1,-2.0610856E-1,-1.772907E-1,3.3460896E-2,-2.4788447E-1,-2.802263E-1,-1.690747E-1,3.3146895E-2,-1.2740631E-1,1.4479286E-2,-1.5922865E-1,-3.3852037E-2,1.6598222E-1,-3.6237806E-2,-1.5000482E-1,5.9924982E-2,-7.8728914E-2,2.3343897E-1,-1.9796345E-1,7.696348E-2,-6.886837E-2,-1.34182E-1,-9.7536795E-2,-3.340728E-2,5.2400235E-2,-3.972994E-3,-6.870444E-2,-5.015344E-3,4.35011E-2,-4.6762723E-2,4.9306948E-2,2.049983E-2,7.7044435E-2,-3.8695724E-3,1.7385855E-1,1.48091E-2,1.3542461E-1,2.0157611E-1,2.9880902E-1,1.6136578E-1,2.7192008E-1,-2.3713732E-2,1.5472813E-1,-1.2860045E-1,5.6789864E-2,-1.39835E-1,1.4986072E-1],"split_indices":[1,1,1,2,1,1,1,1,2,2,0,1,2,2,2,0,0,0,0,0,2,2,2,0,2,1,2,2,2,0,1,1,1,2,0,2,1,2,1,2,2,2,0,2,2,0,1,2,2,2,2,0,0,2,0,1,1,2,0,2,0,0,0,0,0,0,0,0,0,0,0,0,0,0,0,0,0,0,0,0,0,0,0,0,0,0,0,0,0,0,0,0,0,0,0,0,0,0,0,0,0,0,0,0,0,0,0,0,0,0,0,0,0,0,0,0,0],"split_type":[0,0,0,0,0,0,0,0,0,0,0,0,0,0,0,0,0,0,0,0,0,0,0,0,0,0,0,0,0,0,0,0,0,0,0,0,0,0,0,0,0,0,0,0,0,0,0,0,0,0,0,0,0,0,0,0,0,0,0,0,0,0,0,0,0,0,0,0,0,0,0,0,0,0,0,0,0,0,0,0,0,0,0,0,0,0,0,0,0,0,0,0,0,0,0,0,0,0,0,0,0,0,0,0,0,0,0,0,0,0,0,0,0,0,0,0,0],"sum_hessian":[2.7974965E4,1.928399E4,8.690976E3,1.3185515E4,6.0984746E3,7.2797207E3,1.4112546E3,8.389093E3,4.7964224E3,3.424114E3,2.6743608E3,5.2653325E3,2.0143885E3,4.7329703E2,9.3795764E2,5.188586E3,3.2005063E3,4.649802E3,1.4662073E2,3.299552E3,1.2456206E2,9.2793384E2,1.7464269E3,2.3966328E3,2.8686995E3,7.2491583E2,1.2894728E3,2.975607E2,1.7573633E2,8.665644E2,7.1393265E1,1.590226E3,3.59836E3,8.67431E2,2.3330754E3,1.8683944E3,2.7814072E3,1.166686E2,2.9952127E1,9.91314E2,2.308238E3,2.8471119E1,9.609094E1,9.1008844E2,1.7845358E1,1.80579E2,1.5658479E3,9.57643E2,1.4389899E3,2.16431E3,7.0438934E2,4.5512723E2,2.6978864E2,1.2878347E3,1.6380152E0,1.6011285E2,1.3744786E2,7.9302475E1,9.643386E1,2.5827276E1,4.556599E1,1.997803E2,1.3904456E3,1.0718279E3,2.5265322E3,5.1759296E2,3.4983804E2,1.5091483E3,8.239271E2,1.6434747E3,2.2491968E2,1.6006697E3,1.1807375E3,1.0294272E2,1.3725889E1,2.3606188E1,6.3459396E0,3.9401966E1,9.5191205E2,1.623245E1,2.2920056E3,1.6172728E1,1.2298391E1,4.9578873E1,4.651207E1,2.1934631E1,8.881538E2,1.42920685E1,3.5532892E0,1.1563774E1,1.6901521E2,8.1127325E2,7.545747E2,9.1080756E2,4.683543E1,1.4666551E2,1.2923243E3,1.928482E3,2.3582808E2,6.437931E2,6.059626E1,2.198644E2,2.3526283E2,2.0635902E1,2.4915274E2,1.2397407E3,4.8094006E1,1.6564116E1,1.4354874E2,9.465231E1,4.279554E1,1.3426457E1,6.5876015E1,1.1729522E1,8.470434E1,2.1994865E0,2.3627789E1],"tree_param":{"num_deleted":"0","num_feature":"3","num_nodes":"117","size_leaf_vector":"0"}},{"base_weights":[-3.0104247E-1,-5.1403326E-1,7.163484E-2,-6.0306937E-1,-3.74552E-1,-3.0160531E-2,8.720478E-1,-6.5348274E-1,-5.1615775E-1,-4.3957362E-1,-2.9295266E-1,-1.1112529E-1,7.4042976E-2,5.740678E-1,1.0007715E0,-7.402079E-1,-6.1932105E-1,-5.436169E-1,-3.496481E-1,-3.3374542E-1,-4.6554253E-1,-1.9895975E-1,-3.2829115E-1,-1.5799114E-1,-5.9828263E-2,3.7124943E-2,2.7068496E-1,8.0621344E-1,2.126708E-1,1.0237863E0,7.2862196E-1,-5.968768E-1,-7.696771E-1,-5.456154E-1,-6.5128136E-1,-4.8453748E-1,-5.9282154E-1,-2.766272E-1,-6.867279E-1,-2.8265816E-1,-5.5713457E-1,-4.8195702E-1,-1.9910775E-1,-4.425902E-1,-1.7238104E-1,-3.3876377E-1,-5.86373E-2,-9.565337E-2,-2.0182924E-1,-3.2984205E-2,-1.3788192E-1,1.6265512E-1,9.1274185E-3,6.0484743E-1,1.271035E-1,9.4905734E-1,6.3339025E-1,3.631264E-1,-2.6796345E-2,3.2011914E-1,9.8755604E-1,-6.0683304E-1,4.974187E-1,-8.76989E-1,-7.3949593E-1,3.4311962E-1,-5.556936E-1,-6.993534E-1,-5.915712E-1,-5.489253E-1,-2.605705E-1,-5.776632E-1,-6.5874034E-1,-3.3378682E-1,1.9828369E-1,-7.880735E-1,-4.3206778E-1,-3.1745902E-1,2.2213776E-1,-6.059029E-1,8.078787E-2,1.916295E-1,-4.8686564E-1,1.08649574E-1,-3.9327836E-1,-1.6294922E-1,-5.4116017E-1,-1.8521523E-1,3.1231266E-1,-2.2946827E-1,-3.6449057E-1,6.243691E-1,-2.6646334E-1,-5.278807E-2,-1.8461487E-1,-3.7952337E-1,-1.6488472E-1,-4.9739856E-2,1.5244302E-1,-1.8425263E-1,1.6782673E-1,5.7800904E-2,3.496929E-1,-1.502493E0,1.1820402E-2,7.4203116E-1,4.3596998E-1,-9.850144E-2,1.745893E-1,4.3882734E-1,9.7437304E-1,2.6226562E-1,7.13531E-1,-7.006021E-2,4.3145248E-1,-1.5351935E-1,4.5690373E-1,-3.394037E-1,4.089595E-1],"categories":[],"categories_nodes":[],"categories_segments":[],"categories_sizes":[],"default_left":[1,1,1,1,1,1,1,1,1,1,1,1,1,1,1,1,1,1,1,1,1,1,1,1,1,1,1,1,1,0,1,1,1,1,1,1,1,1,1,1,1,1,1,1,1,1,1,1,1,1,1,1,1,1,1,1,1,1,1,1,0,0,0,0,0,0,0,0,0,0,0,0,0,0,0,0,0,0,0,0,0,0,0,0,0,0,0,0,0,0,0,0,0,0,0,0,0,0,0,0,0,0,0,0,0,0,0,0,0,0,0,0,0,0,0,0,0,0,0],"id":8,"left_children":[1,3,5,7,9,11,13,15,17,19,21,23,25,27,29,31,33,35,37,39,41,43,45,47,49,51,53,55,57,-1,59,61,63,65,67,69,71,73,75,77,79,81,83,85,87,89,91,93,95,97,99,101,103,105,107,109,111,113,115,117,-1,-1,-1,-1,-1,-1,-1,-1,-1,-1,-1,-1,-1,-1,-1,-1,-1,-1,-1,-1,-1,-1,-1,-1,-1,-1,-1,-1,-1,-1,-1,-1,-1,-1,-1,-1,-1,-1,-1,-1,-1,-1,-1,-1,-1,-1,-1,-1,-1,-1,-1,-1,-1,-1,-1,-1,-1,-1,-1],"loss_changes":[1.9760637E3,1.9650195E2,7.3774817E2,4.2020508E1,3.263257E1,6.778618E1,3.8611572E1,1.7656982E1,1.605841E1,9.283203E0,9.040009E0,1.086013E1,2.5495138E1,2.5881409E1,3.7141113E0,6.817505E0,9.992676E0,8.575745E0,1.2261864E1,7.6056747E0,1.1953613E1,4.7903767E0,5.601898E0,6.4357605E0,4.521704E0,1.0398421E1,2.6560139E1,4.0577774E0,4.4346304E0,0E0,5.923666E0,3.551422E0,3.968628E0,1.2146576E1,8.366699E0,1.991452E1,1.2771606E0,1.1399122E1,1.9668388E0,9.832001E0,3.9558334E0,8.671936E0,9.699224E0,1.931961E0,4.283386E0,5.3040466E0,1.0902192E1,3.7165442E0,9.035793E0,5.0057907E0,7.86312E0,1.0561644E1,9.871236E0,3.535839E0,4.190868E0,8.810959E-1,2.4422379E0,2.2646933E0,3.0319889E0,1.5664256E0,0E0,0E0,0E0,0E0,0E0,0E0,0E0,0E0,0E0,0E0,0E0,0E0,0E0,0E0,0E0,0E0,0E0,0E0,0E0,0E0,0E0,0E0,0E0,0E0,0E0,0E0,0E0,0E0,0E0,0E0,0E0,0E0,0E0,0E0,0E0,0E0,0E0,0E0,0E0,0E0,0E0,0E0,0E0,0E0,0E0,0E0,0E0,0E0,0E0,0E0,0E0,0E0,0E0,0E0,0E0,0E0,0E0,0E0,0E0],"parents":[2147483647,0,0,1,1,2,2,3,3,4,4,5,5,6,6,7,7,8,8,9,9,10,10,11,11,12,12,13,13,14,14,15,15,16,16,17,17,18,18,19,19,20,20,21,21,22,22,23,23,24,24,25,25,26,26,27,27,28,28,30,30,31,31,32,32,33,33,34,34,35,35,36,36,37,37,38,38,39,39,40,40,41,41,42,42,43,43,44,44,45,45,46,46,47,47,48,48,49,49,50,50,51,51,52,52,53,53,54,54,55,55,56,56,57,57,58,58,59,59],"right_children":[2,4,6,8,10,12,14,16,18,20,22,24,26,28,30,32,34,36,38,40,42,44,46,48,50,52,54,56,58,-1,60,62,64,66,68,70,72,74,76,78,80,82,84,86,88,90,92,94,96,98,100,102,104,106,108,110,112,114,116,118,-1,-1,-1,-1,-1,-1,-1,-1,-1,-1,-1,-1,-1,-1,-1,-1,-1,-1,-1,-1,-1,-1,-1,-1,-1,-1,-1,-1,-1,-1,-1,-1,-1,-1,-1,-1,-1,-1,-1,-1,-1,-1,-1,-1,-1,-1,-1,-1,-1,-1,-1,-1,-1,-1,-1,-1,-1,-1,-1],"split_conditions":[7.5E0,-1.5E0,4.15E1,8.985E2,1.5E0,1.95E1,5.25E1,-6.5E0,2.3365E3,8.045E2,1.0155E3,1.35E1,3.35E1,1.1715E3,2.175E3,7.125E2,9.065E2,1.128E3,1.8225E3,1.4895E3,2.3365E3,6.035E2,2.4635E3,1.3275E3,1.1205E3,3.94E2,7.39E2,6.775E2,1.7205E3,3.071359E-1,6.75E1,7.105E2,-1.05E1,9.35E1,1.5435E3,1.0685E3,1.7265E3,2.7395E3,-3.5E0,7.575E2,2.605E3,9.9E1,1.2055E3,6E2,1.0095E3,3.375E2,2.5E3,1.1035E3,1.4525E3,1.0185E3,1.9795E3,3.075E2,3.965E2,4.615E2,1.0115E3,8.365E2,7.825E2,7.225E2,2.211E3,2.232E3,2.9626682E-1,-1.8204992E-1,1.4922562E-1,-2.6309672E-1,-2.2184879E-1,1.0293589E-1,-1.667081E-1,-2.0980603E-1,-1.7747137E-1,-1.6467759E-1,-7.817115E-2,-1.7329895E-1,-1.976221E-1,-1.0013605E-1,5.9485108E-2,-2.3642205E-1,-1.2962034E-1,-9.523771E-2,6.664133E-2,-1.8177088E-1,2.423636E-2,5.748885E-2,-1.4605969E-1,3.2594875E-2,-1.1798351E-1,-4.8884768E-2,-1.6234806E-1,-5.556457E-2,9.36938E-2,-6.884048E-2,-1.0934717E-1,1.8731073E-1,-7.993901E-2,-1.5836421E-2,-5.538446E-2,-1.13857016E-1,-4.9465418E-2,-1.4921958E-2,4.5732908E-2,-5.5275794E-2,5.034802E-2,1.7340273E-2,1.0490788E-1,-4.5074794E-1,3.5461208E-3,2.2260936E-1,1.30791E-1,-2.9550431E-2,5.2376796E-2,1.3164821E-1,2.9231194E-1,7.867969E-2,2.1405931E-1,-2.1018064E-2,1.2943575E-1,-4.6055805E-2,1.3707112E-1,-1.0182111E-1,1.22687854E-1],"split_indices":[1,1,1,2,1,1,1,1,2,0,0,1,1,2,2,0,0,2,0,2,2,0,2,0,2,2,2,2,0,0,1,0,1,2,0,2,0,2,1,0,2,2,0,2,0,2,2,2,0,2,0,2,2,2,0,0,2,0,0,2,0,0,0,0,0,0,0,0,0,0,0,0,0,0,0,0,0,0,0,0,0,0,0,0,0,0,0,0,0,0,0,0,0,0,0,0,0,0,0,0,0,0,0,0,0,0,0,0,0,0,0,0,0,0,0,0,0,0,0],"split_type":[0,0,0,0,0,0,0,0,0,0,0,0,0,0,0,0,0,0,0,0,0,0,0,0,0,0,0,0,0,0,0,0,0,0,0,0,0,0,0,0,0,0,0,0,0,0,0,0,0,0,0,0,0,0,0,0,0,0,0,0,0,0,0,0,0,0,0,0,0,0,0,0,0,0,0,0,0,0,0,0,0,0,0,0,0,0,0,0,0,0,0,0,0,0,0,0,0,0,0,0,0,0,0,0,0,0,0,0,0,0,0,0,0,0,0,0,0,0,0],"sum_hessian":[2.489326E4,1.5840051E4,9.05321E3,9.666341E3,6.1737104E3,8.032598E3,1.02061194E3,6.113603E3,3.5527375E3,3.4334304E3,2.7402798E3,4.52031E3,3.5122878E3,3.0953497E2,7.110769E2,1.7218162E3,4.391787E3,3.0478506E3,5.048869E2,6.792425E2,2.754188E3,7.5056494E2,1.989715E3,2.3610938E3,2.1592163E3,2.9581135E3,5.5417444E2,1.8772063E2,1.21814354E2,6.530858E2,5.7991104E1,2.9726172E2,1.4245544E3,1.3338289E3,3.057958E3,1.3898821E3,1.6579684E3,4.1648526E2,8.840165E1,5.546613E2,1.2458119E2,2.593593E3,1.6059486E2,7.22886E1,6.7827637E2,1.915082E3,7.463286E1,9.761667E2,1.384927E3,1.6077163E3,5.5149994E2,5.385686E2,2.419545E3,1.6558641E2,3.8858804E2,1.0031532E2,8.7405304E1,7.449393E1,4.7320423E1,2.3365395E1,3.462571E1,2.9502298E2,2.2387524E0,3.0654584E2,1.1180085E3,1.4585496E1,1.3192434E3,1.6881406E3,1.3698174E3,1.0784033E3,3.114788E2,1.3559297E3,3.0203873E2,3.7200806E2,4.4477207E1,6.1737663E1,2.6663984E1,5.192361E2,3.5425243E1,1.1578014E2,8.801053E0,1.848824E1,2.5751047E3,6.229644E1,9.829842E1,1.9531435E1,5.275716E1,6.6138153E2,1.6894833E1,3.667849E2,1.5482971E3,1.6943825E1,5.7689034E1,6.5982794E2,3.163387E2,2.3678352E2,1.1481436E3,1.4751499E3,1.3256638E2,4.7920947E2,7.229048E1,3.4594138E2,1.9262724E2,3.3123877E0,2.4162324E3,8.949407E1,7.609234E1,6.738201E1,3.2120602E2,5.608672E0,9.470665E1,1.6281187E1,7.1124115E1,1.0145598E1,6.434833E1,3.8037674E1,9.282751E0,2.438959E0,2.0926435E1],"tree_param":{"num_deleted":"0","num_feature":"3","num_nodes":"119","size_leaf_vector":"0"}},{"base_weights":[-2.3855498E-1,-4.4531646E-1,2.8056934E-2,-5.296562E-1,-3.4288386E-1,-3.5097193E-2,9.163128E-1,-5.825062E-1,-4.386064E-1,-3.90128E-1,-2.7742758E-1,-7.038532E-2,1.7436472E-1,1.005209E0,6.163639E-1,-7.5129306E-1,-5.6130093E-1,-4.6410802E-1,-2.9937878E-1,-2.8029612E-1,-4.3869078E-1,1.2398373E0,-2.8277543E-1,-1.5382838E-1,-2.6607497E-2,5.13876E-1,1.1479752E-1,8.059671E-1,1.0195239E0,2.5800315E-1,9.930819E-1,-6.0210633E-1,-7.794026E-1,-4.6583262E-1,-5.910525E-1,-8.7819564E-1,-4.5528865E-1,-2.4675764E-1,-7.0662946E-1,-3.1208548E-1,3.3444047E-1,-1.0348692E0,-4.3139055E-1,1.527163E-1,2.5385804E0,-1.7065045E-1,-3.4003007E-1,-1.3994569E-1,-3.1331074E-1,1.126978E-2,-5.7915565E-2,3.5710543E-1,8.413435E-1,2.0611636E-1,2.1033172E-2,9.074587E-1,3.4597903E-1,4.4272843E-1,-1.662389E-2,-8.19943E-1,-4.6620953E-1,-7.9776525E-1,-6.5892833E-1,-6.674965E-1,-4.4461963E-1,-5.7877547E-1,-7.7717423E-1,-1.5193683E-1,-9.360172E-1,-3.8668194E-1,-5.015416E-1,1.2179841E-1,-2.971404E-1,1.1738668E-2,-7.891472E-1,-2.2157039E-1,-4.1070968E-1,9.882437E-2,7.4214506E-1,-3.5994446E-1,-4.811972E-1,-3.689268E-1,5.117276E-1,3.2607198E0,3.7937722E-1,-2.5631556E-1,1.07178874E-1,-3.9456937E-1,-1.4646406E-1,-1.5265314E-1,1.6414301E-1,-4.4161817E-1,-7.662005E-2,4.6398006E-3,3.4009495E-1,-1.8850599E-1,-3.6286037E-2,-1.9807155E-1,3.90763E-1,3.8110048E-1,8.859622E-1,1.4798641E-1,3.6300975E-1,-8.054681E-1,3.933988E-2,6.247273E-2,7.4927855E-1,2.552615E-1,6.3328403E-1,2.5801116E-1,-5.047839E-1],"categories":[],"categories_nodes":[],"categories_segments":[],"categories_sizes":[],"default_left":[1,1,1,1,1,1,1,1,1,1,1,1,1,1,1,1,1,1,1,1,1,1,1,1,1,1,1,1,0,1,0,1,1,1,1,1,1,1,1,1,1,0,1,1,1,1,1,1,1,1,1,1,1,1,1,0,1,1,1,0,0,0,0,0,0,0,0,0,0,0,0,0,0,0,0,0,0,0,0,0,0,0,0,0,0,0,0,0,0,0,0,0,0,0,0,0,0,0,0,0,0,0,0,0,0,0,0,0,0,0,0],"id":9,"left_children":[1,3,5,7,9,11,13,15,17,19,21,23,25,27,29,31,33,35,37,39,41,43,45,47,49,51,53,55,-1,57,-1,59,61,63,65,67,69,71,73,75,77,-1,79,81,83,85,87,89,91,93,95,97,99,101,103,-1,105,107,109,-1,-1,-1,-1,-1,-1,-1,-1,-1,-1,-1,-1,-1,-1,-1,-1,-1,-1,-1,-1,-1,-1,-1,-1,-1,-1,-1,-1,-1,-1,-1,-1,-1,-1,-1,-1,-1,-1,-1,-1,-1,-1,-1,-1,-1,-1,-1,-1,-1,-1,-1,-1],"loss_changes":[1.2451346E3,1.0972168E2,5.535222E2,3.3308716E1,1.7665222E1,6.810794E1,1.6845032E1,1.5363525E1,8.970978E0,1.7668549E1,1.9928238E1,2.8799839E1,2.6809738E1,6.148071E-1,2.030767E1,1.5825806E0,1.0864624E1,7.513214E0,8.398205E0,2.0143959E1,9.612427E0,1.1839473E1,1.5382141E1,5.963127E0,6.135103E0,9.865242E0,9.684561E0,1.4850273E0,0E0,4.0361295E0,0E0,2.0443287E0,3.7763977E-1,3.7098083E0,6.3742676E0,1.7101021E0,6.5450134E0,6.642811E0,2.6908169E0,8.617752E0,4.816582E0,0E0,7.9577637E0,1.270896E0,4.8159294E0,1.94248E1,1.67397E1,9.67654E0,6.539688E0,5.1036515E0,7.9931355E0,2.6120987E0,9.636917E-1,5.1734333E0,8.495942E0,0E0,9.343953E-1,1.5357199E0,4.5410075E0,0E0,0E0,0E0,0E0,0E0,0E0,0E0,0E0,0E0,0E0,0E0,0E0,0E0,0E0,0E0,0E0,0E0,0E0,0E0,0E0,0E0,0E0,0E0,0E0,0E0,0E0,0E0,0E0,0E0,0E0,0E0,0E0,0E0,0E0,0E0,0E0,0E0,0E0,0E0,0E0,0E0,0E0,0E0,0E0,0E0,0E0,0E0,0E0,0E0,0E0,0E0,0E0],"parents":[2147483647,0,0,1,1,2,2,3,3,4,4,5,5,6,6,7,7,8,8,9,9,10,10,11,11,12,12,13,13,14,14,15,15,16,16,17,17,18,18,19,19,20,20,21,21,22,22,23,23,24,24,25,25,26,26,27,27,29,29,31,31,32,32,33,33,34,34,35,35,36,36,37,37,38,38,39,39,40,40,42,42,43,43,44,44,45,45,46,46,47,47,48,48,49,49,50,50,51,51,52,52,53,53,54,54,56,56,57,57,58,58],"right_children":[2,4,6,8,10,12,14,16,18,20,22,24,26,28,30,32,34,36,38,40,42,44,46,48,50,52,54,56,-1,58,-1,60,62,64,66,68,70,72,74,76,78,-1,80,82,84,86,88,90,92,94,96,98,100,102,104,-1,106,108,110,-1,-1,-1,-1,-1,-1,-1,-1,-1,-1,-1,-1,-1,-1,-1,-1,-1,-1,-1,-1,-1,-1,-1,-1,-1,-1,-1,-1,-1,-1,-1,-1,-1,-1,-1,-1,-1,-1,-1,-1,-1,-1,-1,-1,-1,-1,-1,-1,-1,-1,-1,-1],"split_conditions":[4.5E0,-2.5E0,4.65E1,9.115E2,8.97E2,2.85E1,1.3865E3,-9.5E0,2.3365E3,3.375E2,9.02E2,1.15E1,4.485E2,4.95E1,6.55E1,7.085E2,8.015E2,-1.35E1,2.1105E3,3.355E2,3.425E2,5E-1,1.128E3,2.0365E3,6.795E2,3.65E1,1.088E3,1.0335E3,3.0585718E-1,1.7195E3,2.9792458E-1,5.535E2,7.24E2,5.385E2,2.1015E3,4.485E2,1.0965E3,2.399E3,2.3795E3,2.365E2,5E-1,-3.1046078E-1,1.1385E3,1.0395E3,1.585E3,1.0685E3,2.3365E3,1.9585E3,9.53E2,6.71E2,8.27E2,7.275E2,9.205E2,9.485E2,1.0965E3,2.7223763E-1,1.208E3,5.25E1,2.4E3,-2.4598292E-1,-1.3986287E-1,-2.3932959E-1,-1.976785E-1,-2.0024896E-1,-1.333859E-1,-1.7363265E-1,-2.3315229E-1,-4.558105E-2,-2.8080517E-1,-1.16004586E-1,-1.504625E-1,3.6539525E-2,-8.914212E-2,3.5216005E-3,-2.3674417E-1,-6.647112E-2,-1.2321291E-1,2.9647311E-2,2.2264352E-1,-1.0798334E-1,-1.4435917E-1,-1.1067804E-1,1.5351827E-1,9.78216E-1,1.1381317E-1,-7.689467E-2,3.2153662E-2,-1.18370816E-1,-4.393922E-2,-4.5795944E-2,4.9242906E-2,-1.3248546E-1,-2.2986015E-2,1.3919403E-3,1.0202849E-1,-5.65518E-2,-1.0885811E-2,-5.942147E-2,1.1722891E-1,1.1433015E-1,2.6578867E-1,4.4395924E-2,1.0890293E-1,-2.4164043E-1,1.1801965E-2,1.874182E-2,2.2478357E-1,7.657845E-2,1.8998522E-1,7.740335E-2,-1.5143518E-1],"split_indices":[1,1,1,2,2,1,2,1,2,2,2,1,2,1,1,0,0,1,0,2,2,1,2,0,2,1,2,2,0,0,0,0,2,0,0,0,2,2,2,2,1,0,0,0,0,2,2,0,2,2,2,0,0,2,2,0,2,1,2,0,0,0,0,0,0,0,0,0,0,0,0,0,0,0,0,0,0,0,0,0,0,0,0,0,0,0,0,0,0,0,0,0,0,0,0,0,0,0,0,0,0,0,0,0,0,0,0,0,0,0,0],"split_type":[0,0,0,0,0,0,0,0,0,0,0,0,0,0,0,0,0,0,0,0,0,0,0,0,0,0,0,0,0,0,0,0,0,0,0,0,0,0,0,0,0,0,0,0,0,0,0,0,0,0,0,0,0,0,0,0,0,0,0,0,0,0,0,0,0,0,0,0,0,0,0,0,0,0,0,0,0,0,0,0,0,0,0,0,0,0,0,0,0,0,0,0,0,0,0,0,0,0,0,0,0,0,0,0,0,0,0,0,0,0,0],"sum_hessian":[2.258622E4,1.2720565E4,9.865656E3,6.9741245E3,5.7464404E3,9.211676E3,6.5398065E2,4.4093257E3,2.564799E3,3.3346462E3,2.4117942E3,7.8841016E3,1.3275737E3,5.026566E2,1.5132408E2,4.8828717E2,3.9210386E3,2.1657722E3,3.9902676E2,1.024458E3,2.3101882E3,7.660128E0,2.404134E3,2.7121238E3,5.171978E3,1.9701775E2,1.130556E3,3.7534668E1,4.6512192E2,7.841503E1,7.290905E1,8.097035E1,4.073168E2,9.35575E2,2.9854634E3,4.3109657E1,2.1226626E3,3.5479E2,4.4236763E1,9.74554E2,4.9903957E1,2.624351E1,2.2839448E3,4.778142E0,2.8819861E0,8.1400415E2,1.59013E3,2.4966702E3,2.1545384E2,2.3407366E3,2.8312412E3,1.3464757E2,6.2370174E1,5.7213995E2,5.584161E2,2.9953049E1,7.58162E0,4.6515026E1,3.1900005E1,2.9173277E1,5.1797073E1,3.485665E2,5.8750305E1,8.6146484E1,8.494285E2,2.8045774E3,1.808861E2,3.44662E0,3.9663036E1,8.585464E2,1.2641162E3,4.2497578E1,3.1229245E2,4.646226E0,3.9590534E1,5.0986124E2,4.6469275E2,3.2414005E1,1.7489952E1,9.415492E2,1.3423955E3,1.9366184E0,2.8415236E0,1.7773926E0,1.1045935E0,6.222261E2,1.9177803E2,1.2397725E3,3.5035754E2,2.3970007E3,9.9669395E1,1.3915411E2,7.629973E1,2.295468E3,4.5268555E1,4.0120584E2,2.4300354E3,7.417191E0,1.27230385E2,6.355389E0,5.6014786E1,4.1888403E2,1.5325589E2,1.1168927E1,5.4724713E2,5.130178E0,2.4514425E0,2.4626883E1,2.1888145E1,2.0716515E1,1.118349E1],"tree_param":{"num_deleted":"0","num_feature":"3","num_nodes":"111","size_leaf_vector":"0"}},{"base_weights":[-1.8479769E-1,-3.7598646E-1,8.1452085E-3,-4.5891172E-1,-3.0373713E-1,-3.6375396E-2,8.7428564E-1,-5.000337E-1,-3.4218994E-1,-3.4464577E-1,-2.3666352E-1,-1.0211006E-1,3.841777E-2,9.8770154E-1,5.3576386E-1,-4.1195464E-1,-5.4801387E-1,4.3102913E-2,-3.710834E-1,-3.523384E-1,1.8149072E-1,-1.0743344E-1,-2.649656E-1,-1.4089504E-1,-6.2281895E-2,1.2979523E-2,2.250485E-1,7.4415755E-1,1.006669E0,2.0165668E-1,9.7140956E-1,-5.594992E-1,-3.9249018E-1,-7.6936245E-1,-5.2714604E-1,-1.0408676E-1,1.0826945E0,-3.3695894E-1,-5.898016E-1,-3.3914864E-1,-5.523559E-1,3.046426E-1,-7.762084E-1,-1.6135971E-1,2.771763E-1,-3.60585E-1,-1.810559E-1,-7.1335725E-2,-1.6545098E-1,-6.681863E-2,2.686945E-1,9.419415E-2,-2.5976722E-3,5.7417315E-1,1.0615428E-1,8.18268E-1,2.3970218E-2,2.65607E-1,-3.507151E-1,-5.7853526E-1,3.428775E-1,-4.1529495E-1,-2.6327315E-1,-8.3132976E-1,-6.780646E-1,-5.806262E-1,-4.645882E-1,2.6681706E-1,-3.1453755E-1,1.7992405E0,2.269671E-1,-3.5311466E-1,3.7883615E-1,-7.2667116E-1,-3.901571E-1,-3.559247E-1,8.117177E-3,-7.8380305E-1,-3.6878493E-1,-2.737594E-1,4.773738E-1,1.1118038E-1,-2.2395183E-1,-4.822179E-2,6.1919606E-1,-2.7065462E-1,-4.607792E-1,1.33943325E-2,-2.6698303E-1,6.9278013E-3,-2.0012262E-1,-4.9052534E-1,-1.5333591E-1,-5.703963E-2,-2.6549613E-1,6.0449034E-1,-1.8996277E-1,2.151719E-2,4.46539E-1,-6.8095183E-1,2.4283605E-3,1.163513E-1,6.1754745E-1,9.984948E-1,8.890811E-2,9.035054E-1,3.1355068E-1,-9.4684917E-1,6.8703455E-1,1.0785117E-1,4.861701E-1,1.8782942E-1,-9.9950236E-1],"categories":[],"categories_nodes":[],"categories_segments":[],"categories_sizes":[],"default_left":[1,1,1,1,1,1,1,1,1,1,1,1,1,1,1,1,1,1,1,1,1,1,1,1,1,1,1,1,0,1,0,1,1,1,1,1,1,1,1,1,1,1,0,1,1,1,1,1,1,1,1,1,1,1,1,1,1,1,1,0,0,0,0,0,0,0,0,0,0,0,0,0,0,0,0,0,0,0,0,0,0,0,0,0,0,0,0,0,0,0,0,0,0,0,0,0,0,0,0,0,0,0,0,0,0,0,0,0,0,0,0,0,0],"id":10,"left_children":[1,3,5,7,9,11,13,15,17,19,21,23,25,27,29,31,33,35,37,39,41,43,45,47,49,51,53,55,-1,57,-1,59,61,63,65,67,69,71,73,75,77,79,-1,81,83,85,87,89,91,93,95,97,99,101,103,105,107,109,111,-1,-1,-1,-1,-1,-1,-1,-1,-1,-1,-1,-1,-1,-1,-1,-1,-1,-1,-1,-1,-1,-1,-1,-1,-1,-1,-1,-1,-1,-1,-1,-1,-1,-1,-1,-1,-1,-1,-1,-1,-1,-1,-1,-1,-1,-1,-1,-1,-1,-1,-1,-1,-1,-1],"loss_changes":[7.7048566E2,6.271582E1,4.009392E2,2.3265137E1,1.5310059E1,4.8625034E1,1.8986969E1,1.5023804E1,1.4212357E1,1.4157379E1,7.755707E0,8.122234E0,2.196248E1,1.0042725E0,1.8689465E1,3.4464417E0,1.0370544E1,1.3862068E1,8.655899E0,8.867584E0,6.2324486E0,8.010108E0,1.3937485E1,4.541939E0,3.9200573E0,5.152667E0,2.2973196E1,1.64884E0,0E0,2.7316847E0,0E0,2.7136269E0,3.223755E0,5.611038E-1,6.873596E0,6.299072E0,6.4786835E0,1.2028534E1,4.05529E0,1.877652E1,8.664734E0,4.702865E0,0E0,5.7814884E0,5.326711E0,7.21611E0,1.5568361E1,7.030175E0,7.681778E0,4.9670973E0,5.557479E0,1.6775383E1,1.1656028E1,2.7229958E0,6.3005714E0,9.3475914E-1,3.1911564E0,2.2966914E0,3.0463023E0,0E0,0E0,0E0,0E0,0E0,0E0,0E0,0E0,0E0,0E0,0E0,0E0,0E0,0E0,0E0,0E0,0E0,0E0,0E0,0E0,0E0,0E0,0E0,0E0,0E0,0E0,0E0,0E0,0E0,0E0,0E0,0E0,0E0,0E0,0E0,0E0,0E0,0E0,0E0,0E0,0E0,0E0,0E0,0E0,0E0,0E0,0E0,0E0,0E0,0E0,0E0,0E0,0E0,0E0],"parents":[2147483647,0,0,1,1,2,2,3,3,4,4,5,5,6,6,7,7,8,8,9,9,10,10,11,11,12,12,13,13,14,14,15,15,16,16,17,17,18,18,19,19,20,20,21,21,22,22,23,23,24,24,25,25,26,26,27,27,29,29,31,31,32,32,33,33,34,34,35,35,36,36,37,37,38,38,39,39,40,40,41,41,43,43,44,44,45,45,46,46,47,47,48,48,49,49,50,50,51,51,52,52,53,53,54,54,55,55,56,56,57,57,58,58],"right_children":[2,4,6,8,10,12,14,16,18,20,22,24,26,28,30,32,34,36,38,40,42,44,46,48,50,52,54,56,-1,58,-1,60,62,64,66,68,70,72,74,76,78,80,-1,82,84,86,88,90,92,94,96,98,100,102,104,106,108,110,112,-1,-1,-1,-1,-1,-1,-1,-1,-1,-1,-1,-1,-1,-1,-1,-1,-1,-1,-1,-1,-1,-1,-1,-1,-1,-1,-1,-1,-1,-1,-1,-1,-1,-1,-1,-1,-1,-1,-1,-1,-1,-1,-1,-1,-1,-1,-1,-1,-1,-1,-1,-1,-1,-1],"split_conditions":[2.5E0,-3.5E0,4.65E1,1.0685E3,-5E-1,1.65E1,1.3865E3,9.395E2,1.0965E3,2.6125E3,3.375E2,9.5E0,3.45E1,4.95E1,6.55E1,-9.5E0,-1.05E1,1.0955E3,1.8225E3,2.0375E3,3.7925E3,3.275E2,8.97E2,1.0145E3,2.2425E3,3.465E2,7.34E2,1.1895E3,3.0200073E-1,2.1515E3,2.9142287E-1,9.315E2,9.175E2,5.675E2,1.5435E3,9.375E2,-5.5E0,2.821E3,-5.5E0,1.9385E3,2.1425E3,8.81E2,-2.3286253E-1,8.215E2,5E-1,6.015E2,1.106E3,1.1175E3,1.0415E3,2.1165E3,2.3225E3,3.24E2,3.575E2,8.365E2,2.26E2,2.0325E3,1.215E3,5.35E1,5.35E1,-1.7356059E-1,1.0286326E-1,-1.2458849E-1,-7.898195E-2,-2.4939893E-1,-2.0341939E-1,-1.7418787E-1,-1.3937646E-1,8.004512E-2,-9.436127E-2,5.3977215E-1,6.809013E-2,-1.05934404E-1,1.1365085E-1,-2.1800135E-1,-1.1704714E-1,-1.06777415E-1,2.4351531E-3,-2.3514092E-1,-1.1063548E-1,-8.2127824E-2,1.4321215E-1,3.3354115E-2,-6.718555E-2,-1.4466537E-2,1.8575883E-1,-8.119639E-2,-1.3823377E-1,4.0182997E-3,-8.009491E-2,2.0783404E-3,-6.003679E-2,-1.4715761E-1,-4.6000775E-2,-1.711189E-2,-7.9648845E-2,1.813471E-1,-5.6988835E-2,6.455157E-3,1.339617E-1,-2.0428556E-1,7.2850817E-4,3.4905393E-2,1.8526424E-1,2.9954845E-1,2.6672436E-2,2.7105162E-1,9.406521E-2,-2.8405476E-1,2.0611037E-1,3.2355353E-2,1.4585105E-1,5.6348827E-2,-2.9985073E-1],"split_indices":[1,1,1,2,1,1,2,0,2,2,2,1,1,1,1,1,1,2,0,0,2,2,2,0,0,2,2,2,0,0,0,0,2,2,0,0,1,2,1,0,0,0,0,0,1,2,2,2,0,0,0,2,2,0,0,0,2,1,1,0,0,0,0,0,0,0,0,0,0,0,0,0,0,0,0,0,0,0,0,0,0,0,0,0,0,0,0,0,0,0,0,0,0,0,0,0,0,0,0,0,0,0,0,0,0,0,0,0,0,0,0,0,0],"split_type":[0,0,0,0,0,0,0,0,0,0,0,0,0,0,0,0,0,0,0,0,0,0,0,0,0,0,0,0,0,0,0,0,0,0,0,0,0,0,0,0,0,0,0,0,0,0,0,0,0,0,0,0,0,0,0,0,0,0,0,0,0,0,0,0,0,0,0,0,0,0,0,0,0,0,0,0,0,0,0,0,0,0,0,0,0,0,0,0,0,0,0,0,0,0,0,0,0,0,0,0,0,0,0,0,0,0,0,0,0,0,0,0,0],"sum_hessian":[2.0885785E4,1.0490104E4,1.0395682E4,4.8817026E3,5.608401E3,9.888366E3,5.0731528E2,3.6074773E3,1.2742252E3,3.4811104E3,2.1272905E3,5.2626934E3,4.625673E3,3.785657E2,1.2874957E2,1.2755281E3,2.3319492E3,8.885511E1,1.1853701E3,3.431272E3,4.983821E1,3.8304843E2,1.7442422E3,2.6649788E3,2.5977146E3,4.071752E3,5.539207E2,3.0259987E1,3.4830573E2,7.369443E1,5.5055145E1,1.4542592E2,1.1301022E3,1.9781602E2,2.1341333E3,7.862319E1,1.0231918E1,1.0275865E3,1.5778363E2,3.2215303E3,2.0974185E2,4.4763863E1,5.0743456E0,3.364545E2,4.659395E1,8.136961E2,9.30546E2,6.963477E2,1.9686311E3,2.5633762E3,3.4338387E1,6.5447534E2,3.4172766E3,1.3974373E2,4.14177E2,2.7313154E1,2.9468334E0,6.651309E1,7.181338E0,1.4277293E2,2.652985E0,9.58694E2,1.7140823E2,1.13007774E2,8.480825E1,1.1460785E3,9.880547E2,2.8364698E1,5.0258495E1,4.968742E0,5.263177E0,1.005401E3,2.2185516E1,9.204253E1,6.5741104E1,3.0730496E3,1.484806E2,9.132679E1,1.1841506E2,1.0159434E1,3.460443E1,6.26941E1,2.737604E2,2.4317373E1,2.2276575E1,4.3076202E2,3.8293405E2,2.8544275E2,6.451033E2,4.3372202E2,2.6262573E2,6.9313225E1,1.8993179E3,2.4443513E3,1.19025E2,1.964083E1,1.4697557E1,5.434424E2,1.1103292E2,2.4143837E1,3.3931328E3,1.2412339E1,1.2733138E2,6.7741933E0,4.0740283E2,2.2690952E1,4.622201E0,1.0221996E0,1.9246339E0,3.9645775E1,2.6867313E1,4.312289E0,2.8690486E0],"tree_param":{"num_deleted":"0","num_feature":"3","num_nodes":"113","size_leaf_vector":"0"}},{"base_weights":[-1.404335E-1,-3.0651298E-1,1.5155915E-3,-3.9363587E-1,-2.5537077E-1,-3.0722326E-2,8.263902E-1,-3.083018E-1,-4.487343E-1,-3.0013812E-1,-1.9037181E-1,-6.988634E-2,4.2749334E-2,9.696626E-1,4.5510945E-1,-3.3380884E-1,1.6768416E-2,-6.7684096E-1,-4.2187893E-1,2.352662E-1,-3.0795598E-1,-8.542608E-2,-2.4889503E-1,-1.1865179E-1,-4.3766677E-2,2.2907535E-2,2.0372361E-1,6.7696744E-1,9.946864E-1,1.5276118E-1,9.4821376E-1,-6.4863753E-1,-3.2606348E-1,-1.4131805E-1,1.4025322E0,-7.642242E-1,-6.100219E-1,-4.5895296E-1,-3.094487E-1,-2.5727108E-2,8.534628E-1,-9.556719E-1,-3.0181292E-1,-1.7307755E-1,2.3753415E-1,-3.1130633E-1,-7.021401E-2,-7.563895E-2,-1.6133785E-1,-2.2499362E-2,-1.07517295E-1,5.2269667E-2,-4.2467013E-2,7.101454E-1,1.2433863E-1,9.4391674E-1,3.6333522E-1,3.065323E-1,-4.5634355E-2,4.2181733E-1,9.6803296E-1,-1.22553416E-1,-7.1446395E-1,-2.7017313E-1,-3.7492055E-1,4.7152585E-1,-2.4226698E-1,1.869768E0,1.8611494E-1,-2.447793E-1,-7.9545784E-1,3.779E-2,-6.406702E-1,-5.234219E-1,-3.9030084E-1,8.69499E-2,-3.453012E-1,2.9163164E-1,-3.710821E-1,1.0724899E0,-6.4227915E-1,-1.5798642E-1,-3.252794E-1,2.3338273E-1,-1.9928142E-1,1.1984582E0,1.6230072E-1,-7.1287787E-1,-3.034239E-1,1.8180823E0,-8.374682E-2,-8.227218E-2,6.31629E-1,-2.6336503E-1,-1.20574206E-1,-4.11344E-2,6.546875E-2,-3.3833423E-1,-7.675198E-2,3.3413056E-2,3.044262E-1,-1.278264E-1,5.001282E-2,1.4417674E-1,7.900918E-1,2.6130787E-1,-1.7923433E-2,6.66075E-1,-9.546433E-2,6.69904E-1,1.7113361E-1,-1.4307555E0,4.5516904E-2,4.152982E-2,5.786768E-1],"categories":[],"categories_nodes":[],"categories_segments":[],"categories_sizes":[],"default_left":[1,1,1,1,1,1,1,1,1,1,1,1,1,1,1,1,1,1,1,1,1,1,1,1,1,1,1,1,0,1,1,1,1,1,1,1,1,1,1,1,1,0,1,1,1,1,1,1,1,1,1,1,1,1,1,0,1,1,1,1,0,0,0,0,0,0,0,0,0,0,0,0,0,0,0,0,0,0,0,0,0,0,0,0,0,0,0,0,0,0,0,0,0,0,0,0,0,0,0,0,0,0,0,0,0,0,0,0,0,0,0,0,0,0,0],"id":11,"left_children":[1,3,5,7,9,11,13,15,17,19,21,23,25,27,29,31,33,35,37,39,41,43,45,47,49,51,53,55,-1,57,59,61,63,65,67,69,71,73,75,77,79,-1,81,83,85,87,89,91,93,95,97,99,101,103,105,-1,107,109,111,113,-1,-1,-1,-1,-1,-1,-1,-1,-1,-1,-1,-1,-1,-1,-1,-1,-1,-1,-1,-1,-1,-1,-1,-1,-1,-1,-1,-1,-1,-1,-1,-1,-1,-1,-1,-1,-1,-1,-1,-1,-1,-1,-1,-1,-1,-1,-1,-1,-1,-1,-1,-1,-1,-1,-1],"loss_changes":[4.6270087E2,4.01994E1,2.8145636E2,1.5582703E1,1.6534851E1,2.9312954E1,2.0735016E1,1.0909592E1,1.2147461E1,1.4198273E1,1.4278389E1,8.458439E0,1.1309773E1,1.4240417E0,1.666196E1,2.7620544E0,2.1367641E1,7.723694E-1,7.437744E0,7.949708E0,1.294812E1,2.3679958E1,1.6641083E1,4.242054E0,5.8663864E0,6.057949E0,1.553414E1,1.8074865E0,0E0,2.1822705E0,3.6685944E-2,8.9140797E-1,3.1540985E0,5.5365663E0,5.327883E0,1.2323837E0,2.5092049E0,5.8390503E0,6.482361E0,4.001254E0,5.476962E0,0E0,1.1075806E1,7.0481777E0,1.2722786E1,3.288086E0,1.0069601E1,5.47531E0,4.8012943E0,5.325628E0,7.6614037E0,1.0343252E1,7.7293367E0,2.2592068E0,6.5741863E0,0E0,1.9297576E0,1.8616967E0,4.0932145E0,1.7401195E-1,0E0,0E0,0E0,0E0,0E0,0E0,0E0,0E0,0E0,0E0,0E0,0E0,0E0,0E0,0E0,0E0,0E0,0E0,0E0,0E0,0E0,0E0,0E0,0E0,0E0,0E0,0E0,0E0,0E0,0E0,0E0,0E0,0E0,0E0,0E0,0E0,0E0,0E0,0E0,0E0,0E0,0E0,0E0,0E0,0E0,0E0,0E0,0E0,0E0,0E0,0E0,0E0,0E0,0E0,0E0],"parents":[2147483647,0,0,1,1,2,2,3,3,4,4,5,5,6,6,7,7,8,8,9,9,10,10,11,11,12,12,13,13,14,14,15,15,16,16,17,17,18,18,19,19,20,20,21,21,22,22,23,23,24,24,25,25,26,26,27,27,29,29,30,30,31,31,32,32,33,33,34,34,35,35,36,36,37,37,38,38,39,39,40,40,42,42,43,43,44,44,45,45,46,46,47,47,48,48,49,49,50,50,51,51,52,52,53,53,54,54,56,56,57,57,58,58,59,59],"right_children":[2,4,6,8,10,12,14,16,18,20,22,24,26,28,30,32,34,36,38,40,42,44,46,48,50,52,54,56,-1,58,60,62,64,66,68,70,72,74,76,78,80,-1,82,84,86,88,90,92,94,96,98,100,102,104,106,-1,108,110,112,114,-1,-1,-1,-1,-1,-1,-1,-1,-1,-1,-1,-1,-1,-1,-1,-1,-1,-1,-1,-1,-1,-1,-1,-1,-1,-1,-1,-1,-1,-1,-1,-1,-1,-1,-1,-1,-1,-1,-1,-1,-1,-1,-1,-1,-1,-1,-1,-1,-1,-1,-1,-1,-1,-1,-1],"split_conditions":[1.5E0,-4.5E0,4.65E1,9.575E2,9.1E2,1.95E1,1.3865E3,2.3365E3,-1.05E1,9.9E1,1.128E3,7.5E0,3.65E1,4.95E1,6.55E1,-1.35E1,9.355E2,5.675E2,1.0685E3,1.654E3,1.04E2,1.0755E3,2.26E3,1.3415E3,1.155E3,1.8125E3,5.23E2,7.13E2,2.9840595E-1,1.7195E3,6.75E1,4.485E2,7.055E2,2.399E3,2.5605E3,9.1E1,5.895E2,1.5435E3,1.0965E3,1.0125E3,2.2095E3,-2.867016E-1,2.365E2,9.215E2,1.0775E3,1.1435E3,2.2805E3,2.7395E3,1.5475E3,9.43E2,1.219E3,1.7395E3,2.0165E3,9.355E2,1.2475E3,2.8317502E-1,1.7585E3,1.7255E3,1.7305E3,1.322E3,2.904099E-1,-3.6766026E-2,-2.143392E-1,-8.1051946E-2,-1.1247617E-1,1.4145777E-1,-7.26801E-2,5.6093043E-1,5.5834483E-2,-7.3433794E-2,-2.3863736E-1,1.1337001E-2,-1.9220106E-1,-1.5702657E-1,-1.17090255E-1,2.608497E-2,-1.0359037E-1,8.748949E-2,-1.1132463E-1,3.2174698E-1,-1.9268376E-1,-4.7395926E-2,-9.758383E-2,7.001482E-2,-5.978443E-2,3.5953748E-1,4.869022E-2,-2.1386337E-1,-9.102718E-2,5.454247E-1,-2.5124047E-2,-2.4681656E-2,1.8948871E-1,-7.900951E-2,-3.6172263E-2,-1.234032E-2,1.9640626E-2,-1.0150027E-1,-2.3025595E-2,1.0023917E-2,9.132786E-2,-3.834792E-2,1.5003846E-2,4.3253023E-2,2.3702756E-1,7.8392364E-2,-5.37703E-3,1.998225E-1,-2.86393E-2,2.009712E-1,5.1340085E-2,-4.2922667E-1,1.3655072E-2,1.2458947E-2,1.7360306E-1],"split_indices":[1,1,1,0,2,1,2,2,1,2,2,1,1,1,1,1,0,2,2,0,2,2,2,0,2,0,2,2,0,0,1,0,0,2,2,2,2,0,2,0,0,0,2,2,2,2,2,2,0,2,2,0,0,0,2,0,0,2,0,0,0,0,0,0,0,0,0,0,0,0,0,0,0,0,0,0,0,0,0,0,0,0,0,0,0,0,0,0,0,0,0,0,0,0,0,0,0,0,0,0,0,0,0,0,0,0,0,0,0,0,0,0,0,0,0],"split_type":[0,0,0,0,0,0,0,0,0,0,0,0,0,0,0,0,0,0,0,0,0,0,0,0,0,0,0,0,0,0,0,0,0,0,0,0,0,0,0,0,0,0,0,0,0,0,0,0,0,0,0,0,0,0,0,0,0,0,0,0,0,0,0,0,0,0,0,0,0,0,0,0,0,0,0,0,0,0,0,0,0,0,0,0,0,0,0,0,0,0,0,0,0,0,0,0,0,0,0,0,0,0,0,0,0,0,0,0,0,0,0,0,0,0,0],"sum_hessian":[1.9625879E4,9.043678E3,1.0582201E4,3.3426465E3,5.7010317E3,1.0185107E4,3.9709366E2,1.314069E3,2.0285774E3,3.3737666E3,2.327265E3,6.6437236E3,3.5413838E3,2.8536383E2,1.1172985E2,1.218436E3,9.5632996E1,2.1112263E2,1.8174547E3,4.8135345E1,3.3256313E3,8.340606E2,1.4932045E3,2.3160718E3,4.327652E3,3.153788E3,3.8759576E2,2.4684958E1,2.6067886E2,7.007374E1,4.165611E1,2.7269197E1,1.1911669E3,8.664648E1,8.986517E0,8.696118E1,1.2416145E2,1.364445E3,4.5300983E2,3.451993E1,1.3615412E1,2.9792477E1,3.2958389E3,6.563823E2,1.7767824E2,1.1061102E3,3.8709424E2,1.155001E3,1.1610709E3,3.2460999E3,1.0815518E3,2.1764597E3,9.7732825E2,5.1447884E1,3.3614786E2,1.2249295E1,1.2435662E1,3.9169468E1,3.0904274E1,2.320011E0,3.9336098E1,3.3508666E0,2.3918331E1,5.586387E2,6.3252814E2,1.1734907E1,7.491157E1,6.104585E0,2.8819318E0,5.4335303E0,8.152765E1,5.5982556E0,1.18563194E2,7.0024457E2,6.642004E2,3.7456116E1,4.155537E2,1.8070177E1,1.6449757E1,1.2123146E1,1.4922653E0,4.633982E2,2.8324407E3,3.9274296E1,6.1710803E2,1.1816849E1,1.6586139E2,1.9571999E1,1.0865382E3,1.8055896E0,3.8528864E2,1.1451447E3,9.856252E0,3.299014E2,8.3116956E2,2.6790964E3,5.670035E2,1.2602811E2,9.555236E2,2.0260792E3,1.5038046E2,5.0803082E2,4.692974E2,6.714812E0,4.473307E1,1.7083345E2,1.6531442E2,7.219851E0,5.2158113E0,9.561492E0,2.9607973E1,1.0007362E0,2.9903538E1,1.0468364E0,1.2731745E0],"tree_param":{"num_deleted":"0","num_feature":"3","num_nodes":"115","size_leaf_vector":"0"}},{"base_weights":[-1.048679E-1,-2.4771233E-1,-2.119624E-3,-3.6187604E-1,-2.2072491E-1,-2.2381501E-2,8.8720864E-1,-3.2763442E-1,-5.600332E-1,-2.3428112E-1,-1.8443244E-2,-4.432134E-2,7.735471E-2,9.529571E-1,3.9357677E-1,-4.0167645E-1,-2.131126E-1,-5.715956E-1,9.6839046E-1,-1.3347447E-1,-2.661745E-1,3.4466982E-1,-7.082282E-2,-8.243283E-2,-1.9388385E-2,2.9374853E-1,4.459369E-2,6.8290025E-1,9.9671155E-1,7.317477E-2,8.5076654E-1,-5.1948464E-1,-3.479719E-1,-2.3196797E-1,6.1229885E-1,-4.594848E-1,-6.637358E-1,-1.9442146E-1,-5.308452E-2,-3.0975384E-1,-2.0120873E-1,8.612566E-1,1.3604073E-1,-2.9409552E-1,3.472623E-2,-8.022982E-2,-7.567966E-1,-2.118671E-2,3.9075354E-1,2.0449844E-1,7.372905E-1,2.1155117E-2,2.2682561E-1,9.253923E-1,1.0825237E-1,-5.345917E-1,2.077687E-1,-3.6648178E-1,-5.6714815E-1,-3.7977108E-1,-5.358803E-2,-8.0192924E-1,-2.0728578E-1,2.1270266E0,2.2576307E-1,-5.118535E-1,-2.4302132E-2,-2.9054848E-2,-6.7468375E-1,5.8630794E-1,-2.0476843E-1,-2.0430991E-1,3.644785E-2,-2.4115942E-1,-3.843479E-1,-1.566289E-1,-3.9916E-1,1.909037E-1,2.7785847E0,-8.1921303E-1,2.3925869E-1,-9.3134207E-1,-1.549801E-1,1.0482697E0,-1.8777242E-2,-8.446914E-2,7.3602456E-1,1.4166186E-3,-9.570547E-1,6.0255192E-2,-2.981086E-2,8.476856E-1,-6.7836636E-1,5.229651E-3,2.50235E-1,1.2184398E-1,7.8931427E-1,6.8491995E-2,-1.0250934E-1,2.7398163E-1,-8.7115544E-1,3.1670168E-1,-9.7715384E-1,-1.2026159E0,2.743739E-1,4.2688736E-1,-4.1309842E-1],"categories":[],"categories_nodes":[],"categories_segments":[],"categories_sizes":[],"default_left":[1,1,1,1,1,1,1,1,1,1,1,1,1,1,1,1,1,1,0,1,1,1,1,1,1,1,1,1,0,1,0,1,1,1,1,1,1,1,1,1,1,1,1,1,1,1,1,1,1,1,1,1,1,0,1,1,1,0,0,0,0,0,0,0,0,0,0,0,0,0,0,0,0,0,0,0,0,0,0,0,0,0,0,0,0,0,0,0,0,0,0,0,0,0,0,0,0,0,0,0,0,0,0,0,0,0,0],"id":12,"left_children":[1,3,5,7,9,11,13,15,17,19,21,23,25,27,29,31,33,35,-1,37,39,41,43,45,47,49,51,53,-1,55,-1,57,59,61,63,65,67,69,71,73,75,77,79,81,83,85,87,89,91,93,95,97,99,-1,101,103,105,-1,-1,-1,-1,-1,-1,-1,-1,-1,-1,-1,-1,-1,-1,-1,-1,-1,-1,-1,-1,-1,-1,-1,-1,-1,-1,-1,-1,-1,-1,-1,-1,-1,-1,-1,-1,-1,-1,-1,-1,-1,-1,-1,-1,-1,-1,-1,-1,-1,-1],"loss_changes":[2.745327E2,2.4030548E1,1.9607892E2,9.958023E0,1.7358917E1,2.3283676E1,7.491989E0,1.0741226E1,4.420418E0,1.9043121E1,7.6090255E0,8.285652E0,1.3589263E1,1.838562E0,4.360728E0,4.718361E0,7.9781685E0,1.9448547E0,0E0,6.987322E0,1.269751E1,5.3192983E0,8.242693E0,5.062929E0,3.897833E0,9.829336E0,7.1179967E0,4.4847107E0,0E0,1.6527847E0,0E0,1.5455551E0,4.9869766E0,6.7689095E0,6.2644544E0,2.3007565E0,7.954254E-1,6.679352E0,8.364785E0,1.3699951E1,1.5930489E1,1.787962E1,3.8559136E0,9.80573E0,1.2931123E1,1.1961315E1,1.6884747E0,3.6902146E0,1.1846463E1,1.9241114E0,1.2437191E0,8.6629925E0,1.0073151E1,0E0,2.7748308E0,2.3278208E0,2.3734553E0,0E0,0E0,0E0,0E0,0E0,0E0,0E0,0E0,0E0,0E0,0E0,0E0,0E0,0E0,0E0,0E0,0E0,0E0,0E0,0E0,0E0,0E0,0E0,0E0,0E0,0E0,0E0,0E0,0E0,0E0,0E0,0E0,0E0,0E0,0E0,0E0,0E0,0E0,0E0,0E0,0E0,0E0,0E0,0E0,0E0,0E0,0E0,0E0,0E0,0E0],"parents":[2147483647,0,0,1,1,2,2,3,3,4,4,5,5,6,6,7,7,8,8,9,9,10,10,11,11,12,12,13,13,14,14,15,15,16,16,17,17,19,19,20,20,21,21,22,22,23,23,24,24,25,25,26,26,27,27,29,29,31,31,32,32,33,33,34,34,35,35,36,36,37,37,38,38,39,39,40,40,41,41,42,42,43,43,44,44,45,45,46,46,47,47,48,48,49,49,50,50,51,51,52,52,54,54,55,55,56,56],"right_children":[2,4,6,8,10,12,14,16,18,20,22,24,26,28,30,32,34,36,-1,38,40,42,44,46,48,50,52,54,-1,56,-1,58,60,62,64,66,68,70,72,74,76,78,80,82,84,86,88,90,92,94,96,98,100,-1,102,104,106,-1,-1,-1,-1,-1,-1,-1,-1,-1,-1,-1,-1,-1,-1,-1,-1,-1,-1,-1,-1,-1,-1,-1,-1,-1,-1,-1,-1,-1,-1,-1,-1,-1,-1,-1,-1,-1,-1,-1,-1,-1,-1,-1,-1,-1,-1,-1,-1,-1,-1],"split_conditions":[5E-1,-6.5E0,5.25E1,1.8325E3,2.3365E3,2.55E1,2.175E3,9.17E2,2.3515E3,8.045E2,2.399E3,9.5E0,4.15E2,5.95E1,6.75E1,-9.5E0,1.8115E3,2.0005E3,2.9051715E-1,6.555E2,1.5385E3,8.315E2,8.555E2,3.7925E3,2.7205E3,3.65E1,2.0475E3,1.122E3,2.9901347E-1,2.2835E3,2.5522998E-1,7.295E2,1.6575E3,-1.45E1,1.8135E3,1.9505E3,9.1E1,9.35E1,5.745E2,1.1385E3,2.0335E3,7.415E2,8.385E2,2.444E3,9.035E2,2.743E3,9.165E2,2.365E2,1.6435E3,1.0315E3,1.435E2,1.7475E3,2.613E3,2.7761772E-1,2.1305E3,1.477E3,2.6125E3,-1.0994454E-1,-1.7014445E-1,-1.1393133E-1,-1.607641E-2,-2.4057879E-1,-6.2185735E-2,6.38108E-1,6.772892E-2,-1.5355606E-1,-7.29064E-3,-8.716455E-3,-2.0240514E-1,1.7589238E-1,-6.1430532E-2,-6.1292976E-2,1.0934355E-2,-7.234783E-2,-1.1530437E-1,-4.6988674E-2,-1.19748004E-1,5.727111E-2,8.335754E-1,-2.4576391E-1,7.177761E-2,-2.7940264E-1,-4.649403E-2,3.1448093E-1,-5.6331726E-3,-2.5340743E-2,2.2080737E-1,4.249856E-4,-2.871164E-1,1.8076558E-2,-8.943259E-3,2.543057E-1,-2.0350991E-1,1.5688954E-3,7.50705E-2,3.6553197E-2,2.367943E-1,2.0547599E-2,-3.0752804E-2,8.219449E-2,-2.6134664E-1,9.501051E-2,-2.9314616E-1,-3.6078477E-1,8.231217E-2,1.2806621E-1,-1.2392953E-1],"split_indices":[1,1,1,0,2,1,2,2,0,0,2,1,2,1,1,1,0,0,0,0,0,0,0,2,2,1,0,2,0,2,0,0,0,1,0,0,2,2,2,0,0,0,0,2,0,2,0,2,0,0,2,0,2,0,0,0,2,0,0,0,0,0,0,0,0,0,0,0,0,0,0,0,0,0,0,0,0,0,0,0,0,0,0,0,0,0,0,0,0,0,0,0,0,0,0,0,0,0,0,0,0,0,0,0,0,0,0],"split_type":[0,0,0,0,0,0,0,0,0,0,0,0,0,0,0,0,0,0,0,0,0,0,0,0,0,0,0,0,0,0,0,0,0,0,0,0,0,0,0,0,0,0,0,0,0,0,0,0,0,0,0,0,0,0,0,0,0,0,0,0,0,0,0,0,0,0,0,0,0,0,0,0,0,0,0,0,0,0,0,0,0,0,0,0,0,0,0,0,0,0,0,0,0,0,0,0,0,0,0,0,0,0,0,0,0,0,0],"sum_hessian":[1.870397E4,7.8245635E3,1.0879407E4,1.493647E3,6.3309165E3,1.0638013E4,2.4139474E2,1.2758357E3,2.1781134E2,5.9331396E3,3.977766E2,8.720291E3,1.9177223E3,2.1220055E2,2.9194202E1,7.7333954E2,5.0249612E2,2.167973E2,1.0140319E0,1.4272288E3,4.505911E3,4.9442707E1,3.4833392E2,3.4478076E3,5.272483E3,2.5111108E2,1.6666112E3,3.1902515E1,1.8029803E2,1.7846968E1,1.1347235E1,2.394345E2,5.33905E2,4.9197656E2,1.0519553E1,1.00500694E2,1.1629661E2,8.1097577E2,6.16253E2,2.6945962E3,1.811315E3,1.3323702E1,3.6119007E1,1.112389E2,2.3709502E2,3.4376965E3,1.0111281E1,5.25041E3,2.2072819E1,2.1026279E2,4.0848297E1,1.47767E3,1.8894109E2,2.2005981E1,9.896533E0,2.6969326E0,1.5150035E1,5.8935764E1,1.8049873E2,4.815935E2,5.2311516E1,1.9113653E1,4.728629E2,1.2232357E0,9.296318E0,8.954849E1,1.0952204E1,2.033999E0,1.1426261E2,9.879184E0,8.0109656E2,2.286938E2,3.8755917E2,1.4059554E3,1.2886407E3,1.4798378E3,3.314771E2,1.0686843E1,2.6368592E0,2.8457398E0,3.3273266E1,1.8912336E1,9.232656E1,1.0956069E1,2.2613895E2,3.4208264E3,1.6869976E1,2.3200564E0,7.791225E0,5.0217252E2,4.7482373E3,1.5608855E1,6.463963E0,3.945897E1,1.7080382E2,3.444273E0,3.7404022E1,1.0689417E3,4.0872852E2,1.8188017E2,7.0609117E0,8.896251E0,1.0002826E0,1.2106211E0,1.4863113E0,1.1428929E1,3.7211056E0],"tree_param":{"num_deleted":"0","num_feature":"3","num_nodes":"107","size_leaf_vector":"0"}},{"base_weights":[-7.721427E-2,-8.878298E-2,7.165874E-1,-2.0425726E-1,-2.3664394E-2,9.292673E-1,3.0959165E-1,-2.443809E-1,-1.4628096E-1,-5.6841E-2,1.0465619E-2,5.8346087E-1,9.70154E-1,7.8784466E-2,8.9445347E-1,-2.2960384E-1,-4.5010337E-1,-1.5384415E-1,1.758624E-1,-1.2731716E-2,-8.668978E-2,4.0383954E-3,1.8041812E-1,9.0456825E-1,2.919001E-1,1.16810985E-1,-4.7180516E-1,3.499374E-1,9.2480093E-1,-2.4084958E-1,2.2811866E-1,-6.426161E-1,-3.6520347E-1,-1.0925424E-1,-2.0117863E-1,6.2299496E-1,-4.2509088E-1,-3.0034E-2,1.8441275E-1,-1.467189E-1,-3.2094367E-2,3.0267763E-1,5.5551436E-4,5.3418636E-1,8.725373E-2,5.8793396E-1,-7.631281E-2,7.4623935E-2,4.8686334E-1,-1.0978299E0,1.354312E-1,-1.7137563E-1,-2.7896515E-1,-1.2262603E-1,4.4258064E-1,7.030786E-2,-6.6952825E-1,6.5332484E-1,-3.8030094E-1,-1.3121487E-1,7.304307E-1,-3.6049232E-1,-1.4848486E-1,1.18438505E-1,9.758975E-1,-8.03044E-2,-9.7510946E-1,-5.318723E-4,-1.3831498E-1,4.767045E-2,5.524074E-1,-2.1132296E-1,-5.0390646E-2,1.2116619E-1,-1.0679418E-1,-3.6985782E-1,4.187878E-1,-1.4777368E-1,9.764493E-3,-4.6669203E-1,5.703823E-1,-9.152083E-1,1.2145174E-1,8.39214E-1,-2.5055724E-1,-6.749294E-1,2.2250073E-1,1.667206E-1,-6.404069E-1,9.1906273E-1,-8.3754313E-1,-4.2937788E-1,5.999257E-1],"categories":[],"categories_nodes":[],"categories_segments":[],"categories_sizes":[],"default_left":[1,1,1,1,1,1,1,1,1,1,1,1,0,1,1,1,1,1,1,1,1,1,1,0,1,1,1,0,0,1,1,1,1,1,1,1,1,1,1,1,1,1,1,1,1,1,1,1,1,0,1,0,0,0,0,0,0,0,0,0,0,0,0,0,0,0,0,0,0,0,0,0,0,0,0,0,0,0,0,0,0,0,0,0,0,0,0,0,0,0,0,0,0],"id":13,"left_children":[1,3,5,7,9,11,13,15,17,19,21,23,-1,25,27,29,31,33,35,37,39,41,43,-1,45,47,49,-1,-1,51,53,55,57,59,61,63,65,67,69,71,73,75,77,79,81,83,85,87,89,-1,91,-1,-1,-1,-1,-1,-1,-1,-1,-1,-1,-1,-1,-1,-1,-1,-1,-1,-1,-1,-1,-1,-1,-1,-1,-1,-1,-1,-1,-1,-1,-1,-1,-1,-1,-1,-1,-1,-1,-1,-1,-1,-1],"loss_changes":[1.6564584E2,1.3363779E2,2.214116E1,1.4871613E1,1.28697815E1,1.8330994E0,1.2136778E1,1.1405472E1,6.4192276E0,7.586937E0,6.1195793E0,1.6505518E0,0E0,1.4356627E0,9.762955E-2,1.824675E1,3.89505E0,5.389553E0,1.656164E1,7.943719E0,1.1259842E1,5.6163735E0,6.6818743E0,0E0,1.3741267E0,9.3906987E-1,1.8434734E0,0E0,0E0,9.0876465E0,6.467778E0,1.5054493E0,2.9803638E0,2.4481462E1,1.0377071E1,6.148679E0,4.9411526E0,6.8371234E0,9.429179E0,1.0175587E1,2.0635324E1,5.015742E0,7.293793E0,1.8008127E0,5.691928E0,1.6587582E0,1.2806404E0,3.8779168E0,4.3260965E0,0E0,1.0848613E0,0E0,0E0,0E0,0E0,0E0,0E0,0E0,0E0,0E0,0E0,0E0,0E0,0E0,0E0,0E0,0E0,0E0,0E0,0E0,0E0,0E0,0E0,0E0,0E0,0E0,0E0,0E0,0E0,0E0,0E0,0E0,0E0,0E0,0E0,0E0,0E0,0E0,0E0,0E0,0E0,0E0,0E0],"parents":[2147483647,0,0,1,1,2,2,3,3,4,4,5,5,6,6,7,7,8,8,9,9,10,10,11,11,13,13,14,14,15,15,16,16,17,17,18,18,19,19,20,20,21,21,22,22,24,24,25,25,26,26,29,29,30,30,31,31,32,32,33,33,34,34,35,35,36,36,37,37,38,38,39,39,40,40,41,41,42,42,43,43,44,44,45,45,46,46,47,47,48,48,50,50],"right_children":[2,4,6,8,10,12,14,16,18,20,22,24,-1,26,28,30,32,34,36,38,40,42,44,-1,46,48,50,-1,-1,52,54,56,58,60,62,64,66,68,70,72,74,76,78,80,82,84,86,88,90,-1,92,-1,-1,-1,-1,-1,-1,-1,-1,-1,-1,-1,-1,-1,-1,-1,-1,-1,-1,-1,-1,-1,-1,-1,-1,-1,-1,-1,-1,-1,-1,-1,-1,-1,-1,-1,-1,-1,-1,-1,-1,-1,-1],"split_conditions":[4.65E1,-5E-1,1.3865E3,8.985E2,1.35E1,4.95E1,6.55E1,2.0205E3,2.743E3,1.2155E3,3.95E1,7.13E2,2.910462E-1,2.2805E3,6.75E1,1.9565E3,-5.5E0,1.279E3,2.9865E3,2.34E3,1.6435E3,5.405E2,7.375E2,2.713705E-1,1.7585E3,2.6945E3,2.3295E3,1.0498123E-1,2.7744028E-1,9.065E2,-4.5E0,9.1E1,7.65E1,1.2505E3,1.5195E3,2.821E3,1.332E3,1.2605E3,1.0105E3,9.105E2,1.8115E3,1.45E1,7.495E2,1.225E2,7.625E2,1.196E3,1.9025E3,2.5855E3,2.002E3,-3.2934898E-1,5.35E1,-5.141269E-2,-8.368955E-2,-3.678781E-2,1.327742E-1,2.1092359E-2,-2.0085849E-1,1.9599746E-1,-1.14090286E-1,-3.9364465E-2,2.1912922E-1,-1.081477E-1,-4.4545457E-2,3.5531554E-2,2.9276925E-1,-2.409132E-2,-2.9253286E-1,-1.595617E-4,-4.1494496E-2,1.4301135E-2,1.6572222E-1,-6.339689E-2,-1.51171945E-2,3.634986E-2,-3.2038257E-2,-1.1095735E-1,1.2563635E-1,-4.4332106E-2,2.929348E-3,-1.4000762E-1,1.711147E-1,-2.745625E-1,3.6435526E-2,2.517642E-1,-7.516718E-2,-2.0247883E-1,6.675022E-2,5.0016183E-2,-1.9212209E-1,2.7571884E-1,-2.5126296E-1,-1.2881337E-1,1.7997772E-1],"split_indices":[1,1,2,2,1,1,1,0,2,0,1,2,0,0,1,0,1,2,2,2,0,0,2,0,0,2,0,0,0,0,1,2,2,2,2,2,0,2,0,2,0,0,0,2,2,2,0,2,0,0,1,0,0,0,0,0,0,0,0,0,0,0,0,0,0,0,0,0,0,0,0,0,0,0,0,0,0,0,0,0,0,0,0,0,0,0,0,0,0,0,0,0,0],"split_type":[0,0,0,0,0,0,0,0,0,0,0,0,0,0,0,0,0,0,0,0,0,0,0,0,0,0,0,0,0,0,0,0,0,0,0,0,0,0,0,0,0,0,0,0,0,0,0,0,0,0,0,0,0,0,0,0,0,0,0,0,0,0,0,0,0,0,0,0,0,0,0,0,0,0,0,0,0,0,0,0,0,0,0,0,0,0,0,0,0,0,0,0,0],"sum_hessian":[1.8029871E4,1.7771758E4,2.5811398E2,6.40741E3,1.1364347E4,1.6868344E2,8.943054E1,3.784829E3,2.622581E3,5.7623247E3,5.602022E3,1.9450195E1,1.4923325E2,6.493829E1,2.4492247E1,3.5331582E3,2.5167084E2,2.5629316E3,5.9649273E1,2.3261958E3,3.436129E3,5.3988726E3,2.0314955E2,8.25554E0,1.1194655E1,6.1480015E1,3.4582794E0,1.9544866E0,2.253776E1,3.4488965E3,8.426173E1,7.501142E1,1.7665941E2,1.3214298E3,1.2415018E3,3.4180775E1,2.54685E1,2.1392898E3,1.8690602E2,1.6358169E3,1.8003121E3,6.124819E1,5.337624E3,4.136033E1,1.6178922E2,5.874768E0,5.319887E0,5.6267063E1,5.212952E0,1.3049947E0,2.1532848E0,1.2237822E3,2.2251143E3,3.2134747E1,5.212698E1,2.669947E0,7.234148E1,1.9628781E0,1.7469653E2,1.288573E3,3.285685E1,3.071194E2,